{"learner":{"attributes":{"scikit_learn":"{\"_estimator_type\": \"classifier\"}"},"feature_names":[],"feature_types":[],"gradient_booster":{"model":{"cats":{"enc":[],"feature_segments":[],"sorted_idx":[]},"gbtree_model_param":{"num_parallel_tree":"1","num_trees":"750"},"iteration_indptr":[0,3,6,9,12,15,18,21,24,27,30,33,36,39,42,45,48,51,54,57,60,63,66,69,72,75,78,81,84,87,90,93,96,99,102,105,108,111,114,117,120,123,126,129,132,135,138,141,144,147,150,153,156,159,162,165,168,171,174,177,180,183,186,189,192,195,198,201,204,207,210,213,216,219,222,225,228,231,234,237,240,243,246,249,252,255,258,261,264,267,270,273,276,279,282,285,288,291,294,297,300,303,306,309,312,315,318,321,324,327,330,333,336,339,342,345,348,351,354,357,360,363,366,369,372,375,378,381,384,387,390,393,396,399,402,405,408,411,414,417,420,423,426,429,432,435,438,441,444,447,450,453,456,459,462,465,468,471,474,477,480,483,486,489,492,495,498,501,504,507,510,513,516,519,522,525,528,531,534,537,540,543,546,549,552,555,558,561,564,567,570,573,576,579,582,585,588,591,594,597,600,603,606,609,612,615,618,621,624,627,630,633,636,639,642,645,648,651,654,657,660,663,666,669,672,675,678,681,684,687,690,693,696,699,702,705,708,711,714,717,720,723,726,729,732,735,738,741,744,747,750],"tree_info":[0,1,2,0,1,2,0,1,2,0,1,2,0,1,2,0,1,2,0,1,2,0,1,2,0,1,2,0,1,2,0,1,2,0,1,2,0,1,2,0,1,2,0,1,2,0,1,2,0,1,2,0,1,2,0,1,2,0,1,2,0,1,2,0,1,2,0,1,2,0,1,2,0,1,2,0,1,2,0,1,2,0,1,2,0,1,2,0,1,2,0,1,2,0,1,2,0,1,2,0,1,2,0,1,2,0,1,2,0,1,2,0,1,2,0,1,2,0,1,2,0,1,2,0,1,2,0,1,2,0,1,2,0,1,2,0,1,2,0,1,2,0,1,2,0,1,2,0,1,2,0,1,2,0,1,2,0,1,2,0,1,2,0,1,2,0,1,2,0,1,2,0,1,2,0,1,2,0,1,2,0,1,2,0,1,2,0,1,2,0,1,2,0,1,2,0,1,2,0,1,2,0,1,2,0,1,2,0,1,2,0,1,2,0,1,2,0,1,2,0,1,2,0,1,2,0,1,2,0,1,2,0,1,2,0,1,2,0,1,2,0,1,2,0,1,2,0,1,2,0,1,2,0,1,2,0,1,2,0,1,2,0,1,2,0,1,2,0,1,2,0,1,2,0,1,2,0,1,2,0,1,2,0,1,2,0,1,2,0,1,2,0,1,2,0,1,2,0,1,2,0,1,2,0,1,2,0,1,2,0,1,2,0,1,2,0,1,2,0,1,2,0,1,2,0,1,2,0,1,2,0,1,2,0,1,2,0,1,2,0,1,2,0,1,2,0,1,2,0,1,2,0,1,2,0,1,2,0,1,2,0,1,2,0,1,2,0,1,2,0,1,2,0,1,2,0,1,2,0,1,2,0,1,2,0,1,2,0,1,2,0,1,2,0,1,2,0,1,2,0,1,2,0,1,2,0,1,2,0,1,2,0,1,2,0,1,2,0,1,2,0,1,2,0,1,2,0,1,2,0,1,2,0,1,2,0,1,2,0,1,2,0,1,2,0,1,2,0,1,2,0,1,2,0,1,2,0,1,2,0,1,2,0,1,2,0,1,2,0,1,2,0,1,2,0,1,2,0,1,2,0,1,2,0,1,2,0,1,2,0,1,2,0,1,2,0,1,2,0,1,2,0,1,2,0,1,2,0,1,2,0,1,2,0,1,2,0,1,2,0,1,2,0,1,2,0,1,2,0,1,2,0,1,2,0,1,2,0,1,2,0,1,2,0,1,2,0,1,2,0,1,2,0,1,2,0,1,2,0,1,2,0,1,2,0,1,2,0,1,2,0,1,2,0,1,2,0,1,2,0,1,2,0,1,2,0,1,2,0,1,2,0,1,2,0,1,2,0,1,2,0,1,2,0,1,2,0,1,2,0,1,2,0,1,2,0,1,2,0,1,2,0,1,2,0,1,2,0,1,2,0,1,2,0,1,2,0,1,2,0,1,2,0,1,2,0,1,2,0,1,2,0,1,2,0,1,2,0,1,2,0,1,2,0,1,2,0,1,2,0,1,2,0,1,2,0,1,2,0,1,2,0,1,2,0,1,2,0,1,2,0,1,2,0,1,2,0,1,2,0,1,2,0,1,2,0,1,2,0,1,2,0,1,2,0,1,2,0,1,2,0,1,2,0,1,2,0,1,2,0,1,2,0,1,2,0,1,2,0,1,2,0,1,2,0,1,2,0,1,2],"trees":[{"base_weights":[-3.7053316E-3,-3.183848E-1,5.004181E-1,-4.7860804E-1,-6.30668E-2,-4.4792107E-1,5.874473E-1,4.3206375E-2,-4.964047E-1,-1.6511619E-1,6.943398E-1,4.699379E-2,-4.561766E-2,2.925925E-1,7.642226E-1,-5.2064025E-1,4.1071695E-1,2.4253162E-2,-3.5610417E-1,-3.9237E-2,5.0720092E-2,4.7733438E-1,-2.536531E-1,5.2209366E-2,6.021403E-1,-7.114877E-1,-4.0712002E-1,4.6018098E-2,-3.513769E-2,1.3761908E-1,-4.3653864E-2,-4.6564868E-1,5.4850775E-1,-2.1625204E-1,6.509457E-1,-4.197098E-2,-6.189894E-2,4.6477824E-1,5.134536E-2,-1.3213078E-2,-4.1944068E-2,-1.1928192E-2,-3.3246037E-2,-9.576067E-3,3.041487E-2,-2.7220204E-2,4.3741878E-2,4.7384094E-2,-3.4020044E-2,3.1388856E-2,-4.3653864E-2,2.2160344E-2,5.104775E-2,4.3206375E-2,-1.3822843E-2,3.900967E-2,3.8683545E-3],"categories":[],"categories_nodes":[],"categories_segments":[],"categories_sizes":[],"default_left":[0,0,0,0,0,0,0,0,0,0,0,0,0,0,0,0,0,0,0,0,0,0,0,0,0,0,0,0,0,0,0,0,0,0,0,0,0,0,0,0,0,0,0,0,0,0,0,0,0,0,0,0,0,0,0,0,0],"id":0,"left_children":[1,3,5,7,9,11,13,-1,15,17,19,-1,-1,21,23,25,27,29,31,-1,-1,33,35,-1,37,39,41,-1,-1,43,-1,45,47,49,51,-1,53,55,-1,-1,-1,-1,-1,-1,-1,-1,-1,-1,-1,-1,-1,-1,-1,-1,-1,-1,-1],"loss_changes":[2.5560568E2,4.051278E1,5.1506042E1,1.5183304E1,2.9855602E1,3.5348824E1,2.9209732E1,0E0,1.3566406E1,1.2326878E1,2.2920553E1,0E0,0E0,2.1927372E1,1.5036865E1,1.2233276E1,1.0319642E1,1.764072E1,1.7176613E1,0E0,0E0,1.968383E1,6.0932913E0,0E0,1.2503227E1,1.1968338E1,1.5878246E1,0E0,0E0,2.406169E1,0E0,1.6751019E1,1.0276026E1,1.935454E1,9.211819E0,0E0,8.947544E0,2.125003E1,0E0,0E0,0E0,0E0,0E0,0E0,0E0,0E0,0E0,0E0,0E0,0E0,0E0,0E0,0E0,0E0,0E0,0E0,0E0],"parents":[2147483647,0,0,1,1,2,2,3,3,4,4,5,5,6,6,8,8,9,9,10,10,13,13,14,14,15,15,16,16,17,17,18,18,21,21,22,22,24,24,25,25,26,26,29,29,31,31,32,32,33,33,34,34,36,36,37,37],"right_children":[2,4,6,8,10,12,14,-1,16,18,20,-1,-1,22,24,26,28,30,32,-1,-1,34,36,-1,38,40,42,-1,-1,44,-1,46,48,50,52,-1,54,56,-1,-1,-1,-1,-1,-1,-1,-1,-1,-1,-1,-1,-1,-1,-1,-1,-1,-1,-1],"split_conditions":[5E0,-5E0,2.9E1,8E0,5.7894737E-1,1.69E0,3.3E1,4.3206375E-2,3E0,-5E-1,6E0,4.699379E-2,-4.561766E-2,1E1,2.4E1,2.5E1,8.5E0,4.67E0,2.27E0,-3.9237E-2,5.0720092E-2,3.1578946E-1,1.32E0,5.2209366E-2,3E0,2.3684211E-1,3.1E1,4.6018098E-2,-3.513769E-2,-3E0,-4.3653864E-2,1.4E0,1.3E1,1.8421052E-1,3E0,-4.197098E-2,4.5E1,3E0,5.134536E-2,-1.3213078E-2,-4.1944068E-2,-1.1928192E-2,-3.3246037E-2,-9.576067E-3,3.041487E-2,-2.7220204E-2,4.3741878E-2,4.7384094E-2,-3.4020044E-2,3.1388856E-2,-4.3653864E-2,2.2160344E-2,5.104775E-2,4.3206375E-2,-1.3822843E-2,3.900967E-2,3.8683545E-3],"split_indices":[2,2,0,13,27,17,14,0,8,5,3,0,0,4,12,11,5,18,17,0,0,27,17,0,8,27,11,0,0,5,0,30,4,27,8,0,0,5,0,0,0,0,0,0,0,0,0,0,0,0,0,0,0,0,0,0,0],"split_type":[0,0,0,0,0,0,0,0,0,0,0,0,0,0,0,0,0,0,0,0,0,0,0,0,0,0,0,0,0,0,0,0,0,0,0,0,0,0,0,0,0,0,0,0,0,0,0,0,0,0,0,0,0,0,0,0,0],"sum_hessian":[1.6083091E3,9.906107E2,6.1769836E2,6.077275E2,3.8288327E2,5.1350227E1,5.6634814E2,6.979643E0,6.007478E2,3.3851266E2,4.4370586E1,1.2463648E1,3.888658E1,2.1387619E2,3.5247195E2,5.8579144E2,1.4956377E1,1.705027E2,1.6800998E2,7.4781885E0,3.68924E1,1.6003323E2,5.384296E1,1.2613212E2,2.2633984E2,2.1537184E2,3.7041962E2,1.0469464E1,4.486913E0,1.5255505E2,1.7947653E1,1.5056087E2,1.7449106E1,3.1906939E1,1.281263E2,1.1965102E1,4.1877857E1,1.7349397E2,5.2845867E1,4.88575E1,1.6651433E2,2.258413E2,1.4457831E2,9.023681E1,6.231824E1,1.4308267E2,7.4781885E0,1.346074E1,3.9883673E0,1.3959286E1,1.7947653E1,8.425426E1,4.387204E1,6.979643E0,3.4898212E1,9.4723724E1,7.8770256E1],"tree_param":{"num_deleted":"0","num_feature":"31","num_nodes":"57","size_leaf_vector":"1"}},{"base_weights":[-6.787452E-4,8.785681E-2,-4.6253434E-1,9.360414E-2,6.364067E-2,3.2095826E-1,-5.3787154E-1,4.3277913E-1,1.7607221E-3,1.1411175E0,-2.7247572E-2,-3.234425E-2,-8.2384475E-2,1.8970597E-1,1.2531853E0,8.302497E-2,-4.4926727E-1,-1.8635876E-2,8.3772175E-2,-3.0414952E-2,7.5761956E-1,6.798074E-1,-3.1474274E-2,1.6820744E0,-2.561996E-2,-3.1535797E-2,1.2993276E-1,6.915464E-2,-5.0898653E-1,-2.561996E-2,8.6650394E-2,-8.436798E-3,6.2355008E-2,-2.0951554E-2,9.8900184E-2,1.9382501E-2,-5.3121028E-5,-2.8450498E-2,2.3186512E-2],"categories":[],"categories_nodes":[],"categories_segments":[],"categories_sizes":[],"default_left":[0,0,0,0,0,0,0,0,0,0,0,0,0,0,0,0,0,0,0,0,0,0,0,0,0,0,0,0,0,0,0,0,0,0,0,0,0,0,0],"id":1,"left_children":[1,3,5,-1,7,9,11,13,15,17,-1,-1,19,21,23,25,27,-1,-1,-1,29,31,-1,33,-1,-1,35,-1,37,-1,-1,-1,-1,-1,-1,-1,-1,-1,-1],"loss_changes":[4.775001E1,4.2043243E1,1.1358456E1,0E0,2.2086287E1,1.3291692E1,8.42411E0,2.7257948E1,3.0480011E1,8.629769E0,0E0,0E0,1.6156036E1,4.437373E1,2.5142715E1,2.3705536E1,1.4903122E1,0E0,0E0,0E0,1.8879692E1,3.353943E1,0E0,1.7270523E1,0E0,0E0,2.2401031E1,0E0,7.644291E0,0E0,0E0,0E0,0E0,0E0,0E0,0E0,0E0,0E0,0E0],"parents":[2147483647,0,0,1,1,2,2,4,4,5,5,6,6,7,7,8,8,9,9,12,12,13,13,14,14,15,15,16,16,20,20,21,21,23,23,26,26,28,28],"right_children":[2,4,6,-1,8,10,12,14,16,18,-1,-1,20,22,24,26,28,-1,-1,-1,30,32,-1,34,-1,-1,36,-1,38,-1,-1,-1,-1,-1,-1,-1,-1,-1,-1],"split_conditions":[1.6E1,1.32E0,9E0,9.360414E-2,1.5789473E-1,7.5E0,7E0,3E0,5E0,1.9E1,-2.7247572E-2,-3.234425E-2,3.4210527E-1,-1E0,9E0,-2.1E1,-1.2E1,-1.8635876E-2,8.3772175E-2,-3.0414952E-2,1.7E1,1.0526316E-1,-3.1474274E-2,2.4E1,-2.561996E-2,-3.1535797E-2,2.9E1,6.915464E-2,5E0,-2.561996E-2,8.6650394E-2,-8.436798E-3,6.2355008E-2,-2.0951554E-2,9.8900184E-2,1.9382501E-2,-5.3121028E-5,-2.8450498E-2,2.3186512E-2],"split_indices":[2,17,12,0,27,5,4,5,5,2,0,0,27,16,15,16,16,0,0,0,2,27,0,12,0,0,0,0,18,0,0,0,0,0,0,0,0,0,0],"split_type":[0,0,0,0,0,0,0,0,0,0,0,0,0,0,0,0,0,0,0,0,0,0,0,0,0,0,0,0,0,0,0,0,0,0,0,0,0,0,0],"sum_hessian":[1.1643004E3,9.779403E2,1.8636017E2,1.1534865E1,9.6640546E2,1.586044E1,1.7049973E2,1.3733699E2,8.290684E2,7.93022E0,7.93022E0,1.3697653E2,3.35232E1,1.07418434E2,2.9918556E1,7.036268E2,1.2544166E2,2.1627872E0,5.7674327E0,2.0906944E1,1.2616259E1,6.740687E1,4.0011566E1,2.4151125E1,5.7674327E0,4.217435E1,6.6145245E2,2.8837163E0,1.22557945E2,5.7674327E0,6.8488264E0,2.7395306E1,4.0011566E1,2.8837163E0,2.1267408E1,2.2204616E2,4.3940628E2,1.1606958E2,6.488362E0],"tree_param":{"num_deleted":"0","num_feature":"31","num_nodes":"39","size_leaf_vector":"1"}},{"base_weights":[1.397239E-3,4.5371443E-1,-3.599245E-1,1.287983E0,3.268131E-1,-2.635007E-1,-6.4598805E-1,1.12945646E-1,1.4714366E0,3.9025483E-1,-3.3514347E-2,-2.993574E-1,9.8847747E-1,6.254432E-2,-3.496332E-2,-2.4641871E-2,4.6984312E-1,1.5466998E0,4.6111166E-1,1.1094643E0,2.2791028E-1,-3.146883E-1,6.254432E-2,-2.4641871E-2,7.514423E-2,6.0697228E-2,-2.3728719E-2,8.332831E-2,8.487957E-1,-2.1333726E-2,5.5960905E-2,7.629074E-1,8.2030736E-2,1.613408E-1,1.0953739E0,-1.7952845E-1,-4.9143222E-1,7.1173884E-2,-2.3728719E-2,3.880893E-3,5.6651622E-2,-1.8525718E-3,2.6926449E-2,7.905828E-2,2.579468E-3,-1.653886E-2,9.827557E-3,-3.4814905E-2,-1.3081402E-2],"categories":[],"categories_nodes":[],"categories_segments":[],"categories_sizes":[],"default_left":[0,0,0,0,0,0,0,0,0,0,0,0,0,0,0,0,0,0,0,0,0,0,0,0,0,0,0,0,0,0,0,0,0,0,0,0,0,0,0,0,0,0,0,0,0,0,0,0,0],"id":2,"left_children":[1,3,5,7,9,11,13,15,17,19,-1,21,23,-1,-1,-1,25,27,29,31,33,35,-1,-1,-1,-1,-1,-1,37,-1,-1,39,-1,41,43,45,47,-1,-1,-1,-1,-1,-1,-1,-1,-1,-1,-1,-1],"loss_changes":[2.1971338E2,6.249814E1,2.0311867E1,1.6542923E1,3.3290775E1,2.5618992E1,2.0205833E1,2.990503E0,3.96521E0,5.6785004E1,0E0,1.3546772E1,1.3311782E1,0E0,0E0,0E0,6.8858666E0,2.9532166E0,4.7620897E0,1.4536331E1,2.2876942E1,1.2805439E1,0E0,0E0,0E0,0E0,0E0,0E0,1.0362458E1,0E0,0E0,1.4320328E1,0E0,2.811766E1,1.4159489E1,1.7749775E1,1.0708275E1,0E0,0E0,0E0,0E0,0E0,0E0,0E0,0E0,0E0,0E0,0E0,0E0],"parents":[2147483647,0,0,1,1,2,2,3,3,4,4,5,5,6,6,7,7,8,8,9,9,11,11,12,12,16,16,17,17,18,18,19,19,20,20,21,21,28,28,31,31,33,33,34,34,35,35,36,36],"right_children":[2,4,6,8,10,12,14,16,18,20,-1,22,24,-1,-1,-1,26,28,30,32,34,36,-1,-1,-1,-1,-1,-1,38,-1,-1,40,-1,42,44,46,48,-1,-1,-1,-1,-1,-1,-1,-1,-1,-1,-1,-1],"split_conditions":[-1E0,-2.4E1,5.39E0,2.1052632E-1,5E0,4.64E0,4.5E0,1.5E1,9.736842E-1,1.2E0,-3.3514347E-2,5.34E0,1.51E0,6.254432E-2,-3.496332E-2,-2.4641871E-2,1.8421052E-1,2.4E1,2E1,2.45E0,3.15E0,6E0,6.254432E-2,-2.4641871E-2,7.514423E-2,6.0697228E-2,-2.3728719E-2,8.332831E-2,2.02E0,-2.1333726E-2,5.5960905E-2,4.3E1,8.2030736E-2,3.1E1,3.76E0,1.1E1,1E1,7.1173884E-2,-2.3728719E-2,3.880893E-3,5.6651622E-2,-1.8525718E-3,2.6926449E-2,7.905828E-2,2.579468E-3,-1.653886E-2,9.827557E-3,-3.4814905E-2,-1.3081402E-2],"split_indices":[15,2,19,27,16,18,3,0,27,29,0,19,17,0,0,0,27,14,0,19,19,15,0,0,0,0,0,0,17,0,0,12,0,11,18,4,15,0,0,0,0,0,0,0,0,0,0,0,0],"split_type":[0,0,0,0,0,0,0,0,0,0,0,0,0,0,0,0,0,0,0,0,0,0,0,0,0,0,0,0,0,0,0,0,0,0,0,0,0,0,0,0,0,0,0,0,0,0,0,0,0],"sum_hessian":[1.341344E3,5.9555676E2,7.457873E2,7.676615E1,5.187906E2,5.6006274E2,1.8572456E2,1.0730752E1,6.60354E1,4.8866196E2,3.012865E1,5.456175E2,1.4445244E1,4.1272125E0,1.8159735E2,3.7144911E0,7.016261E0,6.0670025E1,5.365376E0,8.832235E1,4.003396E2,5.414903E2,4.1272125E0,3.7144911E0,1.0730752E1,3.7144911E0,3.30177E0,4.993927E1,1.0730752E1,2.4763274E0,2.8890488E0,5.571737E1,3.2604977E1,3.7351273E2,2.6826881E1,3.0871548E2,2.3277478E2,7.4289823E0,3.30177E0,2.0223341E1,3.5494026E1,2.4556914E2,1.2794359E2,1.7747013E1,9.079867E0,2.2039314E2,8.832235E1,1.2134005E2,1.1143474E2],"tree_param":{"num_deleted":"0","num_feature":"31","num_nodes":"49","size_leaf_vector":"1"}},{"base_weights":[6.2412773E-3,-2.6282287E-1,5.465067E-1,-4.5292836E-1,-2.005198E-2,-3.0317843E-1,6.2119204E-1,-7.995322E-1,-3.8720086E-1,-1.0665816E-1,5.7581323E-1,4.564355E-2,-4.4083532E-2,2.3173627E-1,7.566286E-1,-4.502688E-2,9.088812E-2,3.3180112E-1,-4.3616325E-1,-1.6068986E-1,6.2124884E-1,-3.8045444E-2,7.721827E-1,5.067486E-1,-2.3835583E-1,-3.4844372E-2,7.757168E-1,-3.4583382E-2,3.9923657E-2,-4.1047778E-2,4.9596686E-2,-4.9031293E-1,4.4069428E-2,-6.845468E-2,-7.388992E-1,-3.698766E-2,4.7648985E-2,8.7558335E-1,-3.173398E-2,-4.146949E-2,7.6282305E-1,3.2430652E-1,-6.456112E-1,5.0343193E-2,6.869934E-1,-2.5600597E-2,4.1623052E-2,-2.1107456E-2,4.7319677E-2,-6.665399E-3,3.345048E-2,3.7569214E-2,-4.5034584E-2,4.9411796E-2,6.919294E-3,4.1296758E-2,-2.888374E-2,2.8552612E-2,-3.257214E-2,-4.3522973E-2,5.0192694E-3,2.634496E-2,4.9824405E-2],"categories":[],"categories_nodes":[],"categories_segments":[],"categories_sizes":[],"default_left":[0,0,0,0,0,0,0,0,0,0,0,0,0,0,0,0,0,0,0,0,0,0,0,0,0,0,0,0,0,0,0,0,0,0,0,0,0,0,0,0,0,0,0,0,0,0,0,0,0,0,0,0,0,0,0,0,0,0,0,0,0,0,0],"id":3,"left_children":[1,3,5,7,9,11,13,15,17,19,21,-1,-1,23,25,-1,27,29,31,33,35,-1,37,39,41,-1,43,-1,-1,-1,-1,45,47,49,51,-1,-1,53,-1,-1,55,57,59,-1,61,-1,-1,-1,-1,-1,-1,-1,-1,-1,-1,-1,-1,-1,-1,-1,-1,-1,-1],"loss_changes":[2.3466646E2,4.9692833E1,3.435733E1,1.3239136E1,2.4576187E1,3.2382095E1,2.5738525E1,8.686672E0,1.8206497E1,1.6486992E1,1.6743315E1,0E0,0E0,1.6961658E1,1.096106E1,0E0,6.906563E0,2.6613775E1,1.25108185E1,2.06022E1,1.4155793E1,0E0,8.623001E0,2.9129417E1,1.1517631E1,0E0,6.295532E0,0E0,0E0,0E0,0E0,1.2985046E1,2.158392E1,1.6213614E1,1.3854244E1,0E0,0E0,3.9296532E0,0E0,0E0,6.6448936E0,5.7175503E0,5.013051E0,0E0,1.23285675E1,0E0,0E0,0E0,0E0,0E0,0E0,0E0,0E0,0E0,0E0,0E0,0E0,0E0,0E0,0E0,0E0,0E0,0E0],"parents":[2147483647,0,0,1,1,2,2,3,3,4,4,5,5,6,6,7,7,8,8,9,9,10,10,13,13,14,14,16,16,17,17,18,18,19,19,20,20,22,22,23,23,24,24,26,26,31,31,32,32,33,33,34,34,37,37,40,40,41,41,42,42,44,44],"right_children":[2,4,6,8,10,12,14,16,18,20,22,-1,-1,24,26,-1,28,30,32,34,36,-1,38,40,42,-1,44,-1,-1,-1,-1,46,48,50,52,-1,-1,54,-1,-1,56,58,60,-1,62,-1,-1,-1,-1,-1,-1,-1,-1,-1,-1,-1,-1,-1,-1,-1,-1,-1,-1],"split_conditions":[7E0,-5E0,2.9E1,-2.4E1,5.7894737E-1,1.69E0,3.1E1,-4E-1,-1.7E1,1.4E0,-1E0,4.564355E-2,-4.4083532E-2,8.5E0,-1.4E0,-4.502688E-2,1.8421052E-1,-3E0,0E0,8E-1,1.5789473E-1,-3.8045444E-2,6.7E1,3.1578946E-1,4.2105263E-1,-3.4844372E-2,2E-1,-3.4583382E-2,3.9923657E-2,-4.1047778E-2,4.9596686E-2,4E0,1.64E0,6E-1,2.4E1,-3.698766E-2,4.7648985E-2,3.2E1,-3.173398E-2,-4.146949E-2,5.2E1,1.3E1,4.7E1,5.0343193E-2,3E0,-2.5600597E-2,4.1623052E-2,-2.1107456E-2,4.7319677E-2,-6.665399E-3,3.345048E-2,3.7569214E-2,-4.5034584E-2,4.9411796E-2,6.919294E-3,4.1296758E-2,-2.888374E-2,2.8552612E-2,-3.257214E-2,-4.3522973E-2,5.0192694E-3,2.634496E-2,4.9824405E-2],"split_indices":[2,2,0,2,27,17,14,30,15,30,30,0,0,4,30,0,27,8,15,30,27,0,0,27,27,0,30,0,0,0,0,16,23,30,12,0,0,12,0,0,2,2,1,0,8,0,0,0,0,0,0,0,0,0,0,0,0,0,0,0,0,0,0],"split_type":[0,0,0,0,0,0,0,0,0,0,0,0,0,0,0,0,0,0,0,0,0,0,0,0,0,0,0,0,0,0,0,0,0,0,0,0,0,0,0,0,0,0,0,0,0,0,0,0,0,0,0,0,0,0,0,0,0,0,0,0,0,0,0],"sum_hessian":[1.6112344E3,1.0760269E3,5.3520746E2,6.0262646E2,4.7340036E2,4.2817677E1,4.923898E2,9.327069E1,5.093558E2,4.1447397E2,5.8926407E1,1.3495437E1,2.932224E1,1.2819455E2,3.6419525E2,8.38035E1,9.467192E0,3.1856968E1,4.774988E2,3.86986E2,2.7487972E1,6.962753E0,5.1963654E1,8.087224E1,4.732232E1,3.9964232E0,3.6019882E2,4.477912E0,4.98928E0,1.1439524E1,2.0417444E1,4.291785E2,4.832033E1,3.3526846E2,5.1717518E1,4.9958124E0,2.2492159E1,4.896672E1,2.996935E0,1.2435108E1,6.8437126E1,1.9946735E1,2.7375582E1,9.544753E1,2.6475128E2,4.2319354E2,5.984962E0,3.234891E1,1.5971421E1,3.0935974E2,2.5908733E1,4.499259E0,4.7218258E1,4.1973976E1,6.992743E0,6.5945435E1,2.4916942E0,1.6458193E1,3.488543E0,2.0894583E1,6.4809995E0,1.772693E2,8.748197E1],"tree_param":{"num_deleted":"0","num_feature":"31","num_nodes":"63","size_leaf_vector":"1"}},{"base_weights":[8.998582E-3,1.09828465E-1,-3.04106E-1,7.798782E-2,1.4984283E0,1.0614345E0,-4.4215497E-1,4.8038888E-1,7.876851E-3,-1.8179124E-2,8.7681554E-2,9.0501845E-2,-1.0578458E-2,-5.0873435E-1,1.6302834E-1,1.0485384E0,2.2826658E-1,-3.1234836E-2,4.533648E-2,6.391366E-2,-2.7537188E-2,1.44702E-1,-5.379655E-1,1.1156113E0,-2.9268092E-2,1.3957689E0,-2.6595948E-2,-3.076008E-2,6.053842E-1,3.1161147E-1,-7.789219E-2,6.485719E-2,-2.6015451E-2,-1.8649048E-1,-5.962796E-1,-2.1964429E-2,8.75336E-2,9.064152E-2,4.604877E-2,6.0872394E-3,6.286731E-2,-4.3601454E-3,2.356079E-2,-1.8805157E-2,2.791783E-3,-2.1213083E-2,6.868129E-2,-3.208991E-2,-1.6933842E-2],"categories":[],"categories_nodes":[],"categories_segments":[],"categories_sizes":[],"default_left":[0,0,0,0,0,0,0,0,0,0,0,0,0,0,0,0,0,0,0,0,0,0,0,0,0,0,0,0,0,0,0,0,0,0,0,0,0,0,0,0,0,0,0,0,0,0,0,0,0],"id":4,"left_children":[1,3,5,7,9,11,13,15,17,-1,-1,-1,19,21,23,25,27,-1,29,-1,-1,31,33,35,-1,37,-1,-1,39,41,43,-1,-1,45,47,-1,-1,-1,-1,-1,-1,-1,-1,-1,-1,-1,-1,-1,-1],"loss_changes":[3.7048466E1,3.900434E1,5.455391E1,2.450468E1,1.0428051E1,2.1505686E1,1.0644901E1,1.8041887E1,1.7601372E1,0E0,0E0,0E0,9.667614E0,4.6303673E0,2.018117E1,2.2637527E1,2.9587551E1,0E0,2.3089413E1,0E0,0E0,9.621782E0,4.417801E0,1.3443607E1,0E0,3.800785E0,0E0,0E0,1.9838257E1,1.4249125E1,1.9234108E1,0E0,0E0,1.3590033E1,1.8843079E0,0E0,0E0,0E0,0E0,0E0,0E0,0E0,0E0,0E0,0E0,0E0,0E0,0E0,0E0],"parents":[2147483647,0,0,1,1,2,2,3,3,4,4,5,5,6,6,7,7,8,8,12,12,13,13,14,14,15,15,16,16,18,18,21,21,22,22,23,23,25,25,28,28,29,29,30,30,33,33,34,34],"right_children":[2,4,6,8,10,12,14,16,18,-1,-1,-1,20,22,24,26,28,-1,30,-1,-1,32,34,36,-1,38,-1,-1,40,42,44,-1,-1,46,48,-1,-1,-1,-1,-1,-1,-1,-1,-1,-1,-1,-1,-1,-1],"split_conditions":[8E0,7.633588E-1,2.9E1,1.5789473E-1,3E1,3.56E0,3.6E1,2.4E1,-2.1E1,-1.8179124E-2,8.7681554E-2,9.0501845E-2,3.23E0,1.0526316E-1,4.2E1,0E0,3.3E1,-3.1234836E-2,2.9E1,6.391366E-2,-2.7537188E-2,1.1E1,3.3E1,2.631579E-1,-2.9268092E-2,7E0,-2.6595948E-2,-3.076008E-2,7E0,-1.3E1,1.4E0,6.485719E-2,-2.6015451E-2,1.7E1,8.87E0,-2.1964429E-2,8.75336E-2,9.064152E-2,4.604877E-2,6.0872394E-3,6.286731E-2,-4.3601454E-3,2.356079E-2,-1.8805157E-2,2.791783E-3,-2.1213083E-2,6.868129E-2,-3.208991E-2,-1.6933842E-2],"split_indices":[16,20,0,27,1,19,1,14,16,0,0,0,18,27,0,8,12,0,0,0,0,3,14,27,0,3,0,0,3,16,29,0,0,15,23,0,0,0,0,0,0,0,0,0,0,0,0,0,0],"split_type":[0,0,0,0,0,0,0,0,0,0,0,0,0,0,0,0,0,0,0,0,0,0,0,0,0,0,0,0,0,0,0,0,0,0,0,0,0,0,0,0,0,0,0,0,0,0,0,0,0],"sum_hessian":[1.1707437E3,8.8642084E2,2.8432288E2,8.681347E2,1.8286104E1,2.5150084E1,2.591728E2,1.2740491E2,7.407298E2,2.1037521E0,1.6182352E1,1.4228257E1,1.0921827E1,2.337756E2,2.5397182E1,3.764239E1,8.976252E1,4.0022808E1,7.00707E2,2.5928853E0,8.328942E0,9.683088E0,2.2409251E2,1.0879754E1,1.4517428E1,3.1031595E1,6.6107945E0,2.7399876E1,6.236264E1,2.2108809E2,4.796189E2,3.0488613E0,6.6342273E0,3.2907093E1,1.9118541E2,3.2662516E0,7.613503E0,1.4213682E1,1.6817913E1,3.6869133E1,2.549351E1,6.3295185E1,1.5779291E2,1.4776363E2,3.318553E2,2.9530586E1,3.3765056E0,1.604097E2,3.0775711E1],"tree_param":{"num_deleted":"0","num_feature":"31","num_nodes":"49","size_leaf_vector":"1"}},{"base_weights":[1.7733533E-3,4.4246903E-1,-3.63036E-1,1.1516775E0,3.4002784E-1,-2.6501113E-1,-6.380048E-1,-4.529761E-2,1.3500831E0,8.168266E-1,2.1720852E-1,-3.0254537E-1,7.037781E-2,4.6528023E-1,-3.44606E-2,2.7583423E-1,-2.5365058E-2,1.4750654E0,6.96295E-1,1.0819066E0,-3.1772807E-2,2.9074323E-1,-4.6617508E-1,6.233695E-2,-3.182431E-1,5.9962194E-2,-2.4116315E-2,-2.4255767E-2,5.3502034E-2,7.702366E-2,2.5682092E-2,-2.539358E-2,6.5894805E-2,6.4283264E-1,1.4374576E0,3.7473372E-1,-4.369188E-1,5.771911E-2,-3.3796977E-2,6.142032E-2,-3.326465E-1,7.3961504E-2,8.105432E-3,7.769429E-2,-2.212677E-2,2.052965E-3,2.8132966E-2,6.1826646E-2,-3.3991095E-2,4.578877E-3,-1.924732E-2],"categories":[],"categories_nodes":[],"categories_segments":[],"categories_sizes":[],"default_left":[0,0,0,0,0,0,0,0,0,0,0,0,0,0,0,0,0,0,0,0,0,0,0,0,0,0,0,0,0,0,0,0,0,0,0,0,0,0,0,0,0,0,0,0,0,0,0,0,0,0,0],"id":5,"left_children":[1,3,5,7,9,11,13,15,17,19,21,23,-1,25,-1,27,-1,29,31,33,-1,35,37,-1,39,-1,-1,-1,-1,-1,-1,-1,-1,41,43,45,47,-1,-1,-1,49,-1,-1,-1,-1,-1,-1,-1,-1,-1,-1],"loss_changes":[2.1636395E2,4.3623436E1,1.9545181E1,1.8263885E1,3.1000687E1,3.4825317E1,1.1355476E1,2.0398808E0,3.7019348E0,4.298384E1,2.167202E1,1.35534935E1,0E0,7.427946E0,0E0,5.7263274E0,0E0,2.0792847E0,1.1085927E1,1.2980087E1,0E0,2.3886127E1,1.5434445E1,0E0,1.2388184E1,0E0,0E0,0E0,0E0,0E0,0E0,0E0,0E0,1.7350197E1,1.2018135E1,2.1737854E1,1.7762306E1,0E0,0E0,0E0,1.1758045E1,0E0,0E0,0E0,0E0,0E0,0E0,0E0,0E0,0E0,0E0],"parents":[2147483647,0,0,1,1,2,2,3,3,4,4,5,5,6,6,7,7,8,8,9,9,10,10,11,11,13,13,15,15,17,17,18,18,19,19,21,21,22,22,24,24,33,33,34,34,35,35,36,36,40,40],"right_children":[2,4,6,8,10,12,14,16,18,20,22,24,-1,26,-1,28,-1,30,32,34,-1,36,38,-1,40,-1,-1,-1,-1,-1,-1,-1,-1,42,44,46,48,-1,-1,-1,50,-1,-1,-1,-1,-1,-1,-1,-1,-1,-1],"split_conditions":[-1E0,-2.4E1,3.72E0,2.1052632E-1,1.2E0,4.49E0,4.5E0,1.8421052E-1,6.8E0,5E0,-1E0,-1.5E1,7.037781E-2,1.5E1,-3.44606E-2,1.5E1,-2.5365058E-2,9.736842E-1,4.2E1,8E-2,-3.1772807E-2,4.02E0,-8E0,6.233695E-2,1.5E1,5.9962194E-2,-2.4116315E-2,-2.4255767E-2,5.3502034E-2,7.702366E-2,2.5682092E-2,-2.539358E-2,6.5894805E-2,-3E0,5.5E1,3.5E1,-2.2E1,5.771911E-2,-3.3796977E-2,6.142032E-2,-5.5E0,7.3961504E-2,8.105432E-3,7.769429E-2,-2.212677E-2,2.052965E-3,2.8132966E-2,6.1826646E-2,-3.3991095E-2,4.578877E-3,-1.924732E-2],"split_indices":[15,2,23,27,29,18,3,27,17,16,2,16,0,1,0,0,0,27,1,23,0,18,5,0,0,0,0,0,0,0,0,0,0,5,12,13,2,0,0,0,5,0,0,0,0,0,0,0,0,0,0],"split_type":[0,0,0,0,0,0,0,0,0,0,0,0,0,0,0,0,0,0,0,0,0,0,0,0,0,0,0,0,0,0,0,0,0,0,0,0,0,0,0,0,0,0,0,0,0,0,0,0,0,0,0],"sum_hessian":[1.3427755E3,6.08054E2,7.347215E2,7.474398E1,5.3331E2,5.4393805E2,1.9078343E2,1.0756411E1,6.398757E1,1.0741797E2,4.2589206E2,5.3323035E2,1.0707705E1,7.8808446E0,1.8290259E2,6.6383843E0,4.1180263E0,5.2072346E1,1.1915224E1,9.119031E1,1.6227663E1,3.8536075E2,4.053131E1,4.136751E0,5.2909357E2,4.246319E0,3.6345255E0,3.6561503E0,2.982234E0,4.7860832E1,4.2115164E0,4.1227093E0,7.792515E0,4.2750206E1,4.8440098E1,3.4619714E2,3.9163605E1,3.8436425E0,3.668767E1,3.6832457E0,5.2541034E2,1.44278965E1,2.8322311E1,4.5885212E1,2.5548868E0,1.2548463E2,2.2071251E2,4.1602497E0,3.5003353E1,5.7436775E1,4.6797357E2],"tree_param":{"num_deleted":"0","num_feature":"31","num_nodes":"51","size_leaf_vector":"1"}},{"base_weights":[-1.1593228E-2,-2.7439353E-1,5.159299E-1,-4.5558533E-1,-3.854703E-2,-3.6203173E-1,5.968634E-1,-4.740874E-1,4.2561296E-2,-9.614612E-2,8.398703E-1,4.3906387E-2,-4.3173797E-2,2.0945151E-1,7.339672E-1,-8.013325E-1,-4.1392016E-1,-1.4207265E-1,6.6064703E-1,4.6503153E-2,5.8058687E-3,6.0102445E-1,-1.5070882E-1,-3.55765E-2,7.5523794E-1,-4.3578345E-2,-2.3702865E-3,3.640752E-1,-4.7209597E-1,-4.481553E-2,-7.5100374E-1,-3.2597754E-2,4.577932E-2,6.914156E-1,-3.2399666E-2,-4.841528E-1,5.496809E-1,4.8436385E-2,6.69535E-1,-3.2625664E-2,3.493724E-2,-4.010741E-2,4.908381E-2,-2.684376E-2,-5.560275E-3,-4.956501E-3,3.3107784E-2,-4.4035926E-2,3.521122E-2,-3.187625E-2,3.898819E-2,3.985352E-2,-3.3146117E-2,4.4451017E-2,-3.4620967E-3,-3.885402E-2,3.585358E-2],"categories":[],"categories_nodes":[],"categories_segments":[],"categories_sizes":[],"default_left":[0,0,0,0,0,0,0,0,0,0,0,0,0,0,0,0,0,0,0,0,0,0,0,0,0,0,0,0,0,0,0,0,0,0,0,0,0,0,0,0,0,0,0,0,0,0,0,0,0,0,0,0,0,0,0,0,0],"id":6,"left_children":[1,3,5,7,9,11,13,15,-1,17,19,-1,-1,21,23,25,27,29,31,-1,-1,33,35,-1,37,-1,39,41,43,45,47,-1,-1,49,-1,51,53,-1,55,-1,-1,-1,-1,-1,-1,-1,-1,-1,-1,-1,-1,-1,-1,-1,-1,-1,-1],"loss_changes":[2.235123E2,4.5939682E1,3.842845E1,1.5296196E1,2.3831097E1,2.982288E1,2.58264E1,1.1272736E1,0E0,1.5472731E1,1.6776028E0,0E0,0E0,1.8584892E1,1.1947891E1,5.0926704E0,2.3382019E1,2.4657875E1,9.436355E0,0E0,0E0,7.783106E0,1.6554934E1,0E0,5.491913E0,0E0,4.7668524E0,2.73537E1,1.1005348E1,1.3970529E1,1.1771454E1,0E0,0E0,7.736286E0,0E0,1.171606E1,4.957706E0,0E0,1.8735687E1,0E0,0E0,0E0,0E0,0E0,0E0,0E0,0E0,0E0,0E0,0E0,0E0,0E0,0E0,0E0,0E0,0E0,0E0],"parents":[2147483647,0,0,1,1,2,2,3,3,4,4,5,5,6,6,7,7,9,9,10,10,13,13,14,14,15,15,16,16,17,17,18,18,21,21,22,22,24,24,26,26,27,27,28,28,29,29,30,30,33,33,35,35,36,36,38,38],"right_children":[2,4,6,8,10,12,14,16,-1,18,20,-1,-1,22,24,26,28,30,32,-1,-1,34,36,-1,38,-1,40,42,44,46,48,-1,-1,50,-1,52,54,-1,56,-1,-1,-1,-1,-1,-1,-1,-1,-1,-1,-1,-1,-1,-1,-1,-1,-1,-1],"split_conditions":[7E0,-5E0,2.9E1,4E0,8.684211E-1,1.69E0,3.1E1,-2.4E1,4.2561296E-2,1.4E0,1.1E1,4.3906387E-2,-4.3173797E-2,1.2E1,-1.4E0,-4E-1,-1.7E1,8E-1,1.5789473E-1,4.6503153E-2,5.8058687E-3,5.2E1,1.2E1,-3.55765E-2,2E-1,-4.3578345E-2,1.8421052E-1,-3E0,3.97E0,6E-1,8E0,-3.2597754E-2,4.577932E-2,4.7E1,-3.2399666E-2,1.8421052E-1,4.5E1,4.8436385E-2,4.5E0,-3.2625664E-2,3.493724E-2,-4.010741E-2,4.908381E-2,-2.684376E-2,-5.560275E-3,-4.956501E-3,3.3107784E-2,-4.4035926E-2,3.521122E-2,-3.187625E-2,3.898819E-2,3.985352E-2,-3.3146117E-2,4.4451017E-2,-3.4620967E-3,-3.885402E-2,3.585358E-2],"split_indices":[2,2,0,16,27,17,14,2,0,30,4,0,0,13,30,30,15,30,27,0,0,2,15,0,30,0,27,8,18,30,16,0,0,0,0,27,0,0,3,0,0,0,0,0,0,0,0,0,0,0,0,0,0,0,0,0,0],"split_type":[0,0,0,0,0,0,0,0,0,0,0,0,0,0,0,0,0,0,0,0,0,0,0,0,0,0,0,0,0,0,0,0,0,0,0,0,0,0,0,0,0,0,0,0,0,0,0,0,0,0,0,0,0,0,0,0,0],"sum_hessian":[1.6093115E3,1.074723E3,5.3458856E2,6.068748E2,4.6784814E2,4.4628952E1,4.8995963E2,5.9938275E2,7.492076E0,4.403655E2,2.7482658E1,1.2496473E1,3.2132477E1,1.2915753E2,3.608021E2,9.008866E1,5.0929407E2,4.1638156E2,2.398394E1,2.3995693E1,3.4869661E0,6.1466118E1,6.7691414E1,4.4922867E0,3.563098E2,8.2626335E1,7.462328E0,3.4825108E1,4.7446896E2,3.6049637E2,5.5885178E1,3.4888563E0,2.0495085E1,5.797981E1,3.4863088E0,4.6220905E1,2.1470512E1,9.746983E1,2.5883997E2,3.962865E0,3.499463E0,1.187404E1,2.2951069E1,4.015258E2,7.2943184E1,3.3603983E2,2.4456543E1,5.1886692E1,3.9984856E0,2.9977264E0,5.4982082E1,4.9900517E0,4.1230854E1,1.3496769E1,7.9737434E0,7.4691606E0,2.513708E2],"tree_param":{"num_deleted":"0","num_feature":"31","num_nodes":"57","size_leaf_vector":"1"}},{"base_weights":[2.0196417E-3,8.91324E-2,-3.5827896E-1,1.9901885E-1,-7.054098E-2,4.674706E-1,-4.7946316E-1,1.4063234E0,1.5604146E-1,-3.9927527E-1,1.7352195E-1,1.2432431E0,-2.8680706E-2,6.823534E-2,-5.2650005E-1,3.1851143E-2,7.896377E-2,6.6630113E-1,7.961969E-2,-5.711495E-1,1.5659876E-1,3.612765E-2,1.438335E0,8.1898846E-2,-2.0899758E-2,-3.817643E-1,-3.1683076E-2,1.1913667E0,-2.4811208E-1,-4.063032E-1,2.0551936E-1,-3.2031067E-2,4.8164657E-1,-3.0152379E-2,7.484987E-1,-3.1465977E-2,2.3011689E-1,8.8626064E-2,-2.1563513E-2,-4.7767475E-1,7.005218E-2,2.2930618E-2,7.5851955E-2,-3.0386303E-2,6.598971E-2,-2.6950538E-2,8.784102E-3,3.9467453E-3,3.0435024E-2,-2.2731727E-2,6.5202944E-2,8.140515E-2,1.3637386E-2,3.3074435E-2,-4.0771132E-3,-9.753041E-3,-3.1249586E-2],"categories":[],"categories_nodes":[],"categories_segments":[],"categories_sizes":[],"default_left":[0,0,0,0,0,0,0,0,0,0,0,0,0,0,0,0,0,0,0,0,0,0,0,0,0,0,0,0,0,0,0,0,0,0,0,0,0,0,0,0,0,0,0,0,0,0,0,0,0,0,0,0,0,0,0,0,0],"id":7,"left_children":[1,3,5,7,9,11,13,15,17,19,21,23,-1,-1,25,-1,-1,27,29,31,33,35,37,-1,-1,39,-1,41,43,45,47,-1,49,-1,51,-1,53,-1,-1,55,-1,-1,-1,-1,-1,-1,-1,-1,-1,-1,-1,-1,-1,-1,-1,-1,-1],"loss_changes":[3.6858856E1,1.6628197E1,2.3214695E1,2.8702038E1,3.113386E1,2.530422E1,1.839846E1,9.1573334E-1,2.1075268E1,1.5945171E1,3.857292E1,1.2675974E1,0E0,0E0,2.6308403E0,0E0,0E0,3.4340813E1,2.914126E1,9.732578E0,1.8733377E1,2.6348087E1,1.480957E1,0E0,0E0,1.5915361E1,0E0,9.615265E0,1.6348E1,7.7333565E0,1.9180283E1,0E0,7.5928E0,0E0,8.975941E0,0E0,2.1352917E1,0E0,0E0,3.2798805E0,0E0,0E0,0E0,0E0,0E0,0E0,0E0,0E0,0E0,0E0,0E0,0E0,0E0,0E0,0E0,0E0,0E0],"parents":[2147483647,0,0,1,1,2,2,3,3,4,4,5,5,6,6,7,7,8,8,9,9,10,10,11,11,14,14,17,17,18,18,19,19,20,20,21,21,22,22,25,25,27,27,28,28,29,29,30,30,32,32,34,34,36,36,39,39],"right_children":[2,4,6,8,10,12,14,16,18,20,22,24,-1,-1,26,-1,-1,28,30,32,34,36,38,-1,-1,40,-1,42,44,46,48,-1,50,-1,52,-1,54,-1,-1,56,-1,-1,-1,-1,-1,-1,-1,-1,-1,-1,-1,-1,-1,-1,-1,-1,-1],"split_conditions":[5.5E0,3.3E1,1.5789473E-1,1.32E0,2.631579E-1,9E0,-1.2E1,3.6E1,1.5789473E-1,4.3E1,1E0,3.6E1,-2.8680706E-2,6.823534E-2,8E0,3.1851143E-2,7.896377E-2,0E0,-1.1E1,5E0,-9E0,3.4E1,3.3E1,8.1898846E-2,-2.0899758E-2,4E1,-3.1683076E-2,1.0526316E-1,1.3E1,6.11E0,1.3E1,-3.2031067E-2,2.2E1,-3.0152379E-2,-1.1E1,-3.1465977E-2,3.5E1,8.8626064E-2,-2.1563513E-2,2.7E1,7.005218E-2,2.2930618E-2,7.5851955E-2,-3.0386303E-2,6.598971E-2,-2.6950538E-2,8.784102E-3,3.9467453E-3,3.0435024E-2,-2.2731727E-2,6.5202944E-2,8.140515E-2,1.3637386E-2,3.3074435E-2,-4.0771132E-3,-9.753041E-3,-3.1249586E-2],"split_indices":[5,14,27,17,27,15,16,1,27,12,9,0,0,0,15,0,0,8,15,5,15,14,1,0,0,11,0,27,3,17,3,0,0,0,16,0,14,0,0,1,0,0,0,0,0,0,0,0,0,0,0,0,0,0,0,0,0],"split_type":[0,0,0,0,0,0,0,0,0,0,0,0,0,0,0,0,0,0,0,0,0,0,0,0,0,0,0,0,0,0,0,0,0,0,0,0,0,0,0,0,0,0,0,0,0,0,0,0,0,0,0,0,0,0,0,0,0],"sum_hessian":[1.1717526E3,9.4462854E2,2.2712396E2,5.595159E2,3.851126E2,2.8464933E1,1.9865904E2,1.7557251E1,5.419587E2,1.6377332E2,2.2133931E2,1.6171423E1,1.2293509E1,3.8693786E0,1.9478966E2,4.5651474E0,1.2992105E1,6.900273E1,4.7295593E2,1.2513175E2,3.864156E1,2.0107886E2,2.0260448E1,1.3107903E1,3.0635211E0,8.5976875E1,1.0881278E2,4.357937E1,2.542336E1,9.655478E1,3.7640115E2,1.1798117E2,7.1505775E0,1.6873426E1,2.1768135E1,4.4568905E1,1.5650995E2,1.727689E1,2.9835582E0,8.265633E1,3.3205528E0,1.4567869E1,2.90115E1,2.1453325E1,3.9700363E0,7.878619E1,1.7768597E1,2.879217E2,8.847945E1,3.6290522E0,3.5215254E0,6.3287344E0,1.5439401E1,6.500808E1,9.150187E1,2.9633242E1,5.3023087E1],"tree_param":{"num_deleted":"0","num_feature":"31","num_nodes":"57","size_leaf_vector":"1"}},{"base_weights":[3.467291E-3,4.1929156E-1,-3.4290174E-1,4.734455E-1,-3.2610934E-2,-2.4203557E-1,-6.378811E-1,1.0364541E0,3.5944334E-1,-2.7962616E-1,6.760662E-2,3.490251E-1,-3.3983406E-2,-2.5016427E-2,1.1067102E0,1.0419523E0,2.3141895E-1,3.7281832E-1,-3.1911805E-1,5.451991E-2,-2.3627123E-2,1.1577884E0,-2.208594E-2,-0E0,1.2203418E0,5.3458743E-2,5.3258467E-1,7.056865E-2,-1.912566E-1,5.9157956E-2,-3.3394843E-1,6.482743E-2,2.2176022E-2,-2.5059372E-2,1.6203826E-2,6.530708E-2,-1.3999183E-4,-1.2885486E-3,7.060244E-2,3.610881E-2,-3.2850035E-2,2.92712E-2,-3.1379815E-2,-1.7356953E-2,5.474438E-2],"categories":[],"categories_nodes":[],"categories_segments":[],"categories_sizes":[],"default_left":[0,0,0,0,0,0,0,0,0,0,0,0,0,0,0,0,0,0,0,0,0,0,0,0,0,0,0,0,0,0,0,0,0,0,0,0,0,0,0,0,0,0,0,0,0],"id":8,"left_children":[1,3,5,7,-1,9,11,13,15,17,-1,19,-1,-1,21,23,25,27,29,-1,-1,31,-1,33,35,37,39,-1,41,-1,43,-1,-1,-1,-1,-1,-1,-1,-1,-1,-1,-1,-1,-1,-1],"loss_changes":[1.9439243E2,3.604725E1,2.1630768E1,3.6906082E1,0E0,3.354443E1,8.066284E0,1.1399025E1,4.2275513E1,1.4083714E1,0E0,5.993824E0,0E0,0E0,8.224442E0,1.4237198E1,2.2089365E1,1.8876434E1,1.1909267E1,0E0,0E0,8.097755E0,0E0,2.307651E0,6.9419174E0,2.829158E1,3.5291943E1,0E0,7.8921475E0,0E0,1.0070652E1,0E0,0E0,0E0,0E0,0E0,0E0,0E0,0E0,0E0,0E0,0E0,0E0,0E0,0E0],"parents":[2147483647,0,0,1,1,2,2,3,3,5,5,6,6,7,7,8,8,9,9,11,11,14,14,15,15,16,16,17,17,18,18,21,21,23,23,24,24,25,25,26,26,28,28,30,30],"right_children":[2,4,6,8,-1,10,12,14,16,18,-1,20,-1,-1,22,24,26,28,30,-1,-1,32,-1,34,36,38,40,-1,42,-1,44,-1,-1,-1,-1,-1,-1,-1,-1,-1,-1,-1,-1,-1,-1],"split_conditions":[-1E0,5E0,3.72E0,1.2E0,-3.2610934E-2,4.49E0,4.5E0,-1.8E1,-2.4E1,-1E1,6.760662E-2,1.5E1,-3.3983406E-2,-2.5016427E-2,5.76E0,2.1052632E-1,3.1E1,0E0,1.5E1,5.451991E-2,-2.3627123E-2,2.9E1,-2.208594E-2,1.5E1,9.736842E-1,3.15E0,3.97E0,7.056865E-2,3.3E1,5.9157956E-2,5.3E0,6.482743E-2,2.2176022E-2,-2.5059372E-2,1.6203826E-2,6.530708E-2,-1.3999183E-4,-1.2885486E-3,7.060244E-2,3.610881E-2,-3.2850035E-2,2.92712E-2,-3.1379815E-2,-1.7356953E-2,5.474438E-2],"split_indices":[15,16,23,29,0,18,3,15,2,2,0,1,0,0,17,27,11,15,0,0,0,11,0,0,27,19,18,0,1,0,19,0,0,0,0,0,0,0,0,0,0,0,0,0,0],"split_type":[0,0,0,0,0,0,0,0,0,0,0,0,0,0,0,0,0,0,0,0,0,0,0,0,0,0,0,0,0,0,0,0,0,0,0,0,0,0,0,0,0,0,0,0,0],"sum_hessian":[1.346655E3,6.118923E2,7.347627E2,5.8329645E2,2.8595816E1,5.4969763E2,1.8506505E2,9.610393E1,4.8719254E2,5.382734E2,1.1424268E1,7.0210037E0,1.7804404E2,3.7689035E0,9.233502E1,7.51994E1,4.1199313E2,2.9926794E1,5.083466E2,3.464612E0,3.556392E0,8.978401E1,2.551007E0,1.1224791E1,6.3974613E1,2.6018243E2,1.5181071E2,9.771445E0,2.0155348E1,3.7811997E0,5.045654E2,7.4096535E1,1.5687476E1,4.066956E0,7.1578345E0,5.9724224E1,4.250389E0,2.47201E2,1.2981425E1,1.3148633E2,2.0324375E1,7.0245748E0,1.3130774E1,5.0110986E2,3.4555366E0],"tree_param":{"num_deleted":"0","num_feature":"31","num_nodes":"45","size_leaf_vector":"1"}},{"base_weights":[-4.6676905E-3,-2.668868E-1,5.189515E-1,-4.4961452E-1,-2.870655E-2,-2.755019E-1,5.8655214E-1,-4.6914223E-1,4.220885E-2,-1.1243425E-1,5.3050375E-1,-4.192625E-2,4.2902973E-2,2.878741E-1,7.313845E-1,-6.7299265E-1,-3.593323E-1,-6.722691E-1,-5.2540988E-2,-3.735512E-2,7.165789E-1,4.611217E-1,-2.1099019E-1,7.7129625E-2,7.9318434E-1,-7.0263E-1,3.645343E-2,4.646269E-2,-4.2167562E-1,3.713154E-2,-4.332316E-2,6.346383E-1,-1.1392512E-1,-9.139516E-2,8.612716E-1,7.3267573E-1,1.6333E-1,2.317466E-1,-5.7293427E-1,4.867164E-1,-3.8660128E-2,8.771493E-1,5.666719E-1,-2.2742976E-2,-4.3164745E-2,-2.5237104E-2,1.2539712E-3,-3.487929E-2,4.535225E-2,-1.5233954E-3,-3.392271E-2,3.42386E-2,-3.619674E-2,4.714029E-2,6.9884635E-3,4.146124E-2,-3.1998828E-2,-3.238302E-2,3.805958E-2,-1.047544E-2,4.1690957E-2,-4.212598E-2,3.5490442E-2,-3.5154834E-2,4.33284E-2,-1.918174E-3,4.573437E-2,5.135444E-3,4.5907058E-2],"categories":[],"categories_nodes":[],"categories_segments":[],"categories_sizes":[],"default_left":[0,0,0,0,0,0,0,0,0,0,0,0,0,0,0,0,0,0,0,0,0,0,0,0,0,0,0,0,0,0,0,0,0,0,0,0,0,0,0,0,0,0,0,0,0,0,0,0,0,0,0,0,0,0,0,0,0,0,0,0,0,0,0,0,0,0,0,0,0],"id":9,"left_children":[1,3,5,7,9,11,13,15,-1,17,19,-1,-1,21,23,25,27,29,31,-1,33,35,37,39,41,43,-1,-1,45,-1,-1,47,49,51,53,55,57,59,61,63,-1,65,67,-1,-1,-1,-1,-1,-1,-1,-1,-1,-1,-1,-1,-1,-1,-1,-1,-1,-1,-1,-1,-1,-1,-1,-1,-1,-1],"loss_changes":[2.204158E2,4.6515205E1,2.9024658E1,1.5863762E1,2.1893698E1,2.8500284E1,2.1010178E1,1.2952393E1,0E0,1.35491705E1,1.527643E1,0E0,0E0,1.4329233E1,1.3276642E1,9.3758545E0,3.2010265E1,1.1715271E1,1.5653693E1,0E0,6.463415E0,9.661127E0,7.141839E0,1.1124045E1,4.9421387E0,7.453354E0,0E0,0E0,1.3939461E1,0E0,0E0,1.200371E1,1.5962373E1,5.4082637E0,2.4513092E0,9.210503E0,2.9993507E1,5.724977E0,9.297536E0,1.0616655E1,0E0,7.5899963E0,1.3880459E1,0E0,0E0,0E0,0E0,0E0,0E0,0E0,0E0,0E0,0E0,0E0,0E0,0E0,0E0,0E0,0E0,0E0,0E0,0E0,0E0,0E0,0E0,0E0,0E0,0E0,0E0],"parents":[2147483647,0,0,1,1,2,2,3,3,4,4,5,5,6,6,7,7,9,9,10,10,13,13,14,14,15,15,16,16,17,17,18,18,20,20,21,21,22,22,23,23,24,24,25,25,28,28,31,31,32,32,33,33,34,34,35,35,36,36,37,37,38,38,39,39,41,41,42,42],"right_children":[2,4,6,8,10,12,14,16,-1,18,20,-1,-1,22,24,26,28,30,32,-1,34,36,38,40,42,44,-1,-1,46,-1,-1,48,50,52,54,56,58,60,62,64,-1,66,68,-1,-1,-1,-1,-1,-1,-1,-1,-1,-1,-1,-1,-1,-1,-1,-1,-1,-1,-1,-1,-1,-1,-1,-1,-1,-1],"split_conditions":[7E0,-5E0,2.9E1,4E0,5.7894737E-1,3.87E0,8E0,-6.5E0,4.220885E-2,-6E0,-1E0,-4.192625E-2,4.2902973E-2,8.5E0,4.5E0,3.45E0,-1.7E1,4.347826E-1,2.5E0,-3.735512E-2,3.1E1,7E0,4.2105263E-1,1.9E1,1.6E1,2.8947368E-1,3.645343E-2,4.646269E-2,5.263158E-1,3.713154E-2,-4.332316E-2,1.5789473E-1,8E-1,3.5E1,1.4E1,5.2E1,4.2105263E-1,1.1E1,3.5E0,1.1E1,-3.8660128E-2,1.0526316E-1,2.2E1,-2.2742976E-2,-4.3164745E-2,-2.5237104E-2,1.2539712E-3,-3.487929E-2,4.535225E-2,-1.5233954E-3,-3.392271E-2,3.42386E-2,-3.619674E-2,4.714029E-2,6.9884635E-3,4.146124E-2,-3.1998828E-2,-3.238302E-2,3.805958E-2,-1.047544E-2,4.1690957E-2,-4.212598E-2,3.5490442E-2,-3.5154834E-2,4.33284E-2,-1.918174E-3,4.573437E-2,5.135444E-3,4.5907058E-2],"split_indices":[2,2,0,16,27,19,16,5,0,16,30,0,0,4,3,19,15,20,4,0,1,5,27,2,15,27,0,0,27,0,0,27,30,0,3,2,27,4,5,2,0,27,2,0,0,0,0,0,0,0,0,0,0,0,0,0,0,0,0,0,0,0,0,0,0,0,0,0,0],"split_type":[0,0,0,0,0,0,0,0,0,0,0,0,0,0,0,0,0,0,0,0,0,0,0,0,0,0,0,0,0,0,0,0,0,0,0,0,0,0,0,0,0,0,0,0,0,0,0,0,0,0,0,0,0,0,0,0,0,0,0,0,0,0,0,0,0,0,0,0,0],"sum_hessian":[1.6024032E3,1.0682657E3,5.341374E2,6.0362994E2,4.6463583E2,4.14663E1,4.926711E2,5.956345E2,7.995413E0,4.0524796E2,5.9387882E1,2.7995749E1,1.3470552E1,1.6246242E2,3.302087E2,2.0567412E2,3.899604E2,3.7602066E1,3.6764587E2,6.940764E0,5.2447117E1,1.20743744E2,4.1718666E1,2.8859852E1,3.0134885E2,2.021842E2,3.4899037E0,1.6996498E1,3.729639E2,3.995692E0,3.3606377E1,2.8932407E1,3.3871347E2,7.9971976E0,4.444992E1,6.192048E1,5.8823265E1,1.8945547E1,2.2773119E1,1.9950397E1,8.909454E0,2.1654811E2,8.480073E1,8.191552E1,1.20268684E2,3.144201E2,5.854379E1,4.4830327E0,2.4449375E1,2.9654346E2,4.217001E1,3.4998026E0,4.497395E0,3.9461178E1,4.9887404E0,5.8440205E1,3.4802768E0,2.4873777E1,3.3949486E1,1.1449363E1,7.4961853E0,1.9275814E1,3.4973044E0,4.4871516E0,1.5463246E1,8.475472E0,2.0807265E2,3.744776E1,4.7352966E1],"tree_param":{"num_deleted":"0","num_feature":"31","num_nodes":"69","size_leaf_vector":"1"}},{"base_weights":[1.1227368E-2,9.036636E-2,-4.2692053E-1,7.5422995E-2,6.6619694E-2,-5.5224586E-1,4.9334E-2,4.1878784E-1,2.2185699E-3,1.8852653E-1,-3.1418588E-2,-2.9408712E-2,7.9050636E-1,2.0889677E-1,1.0942045E0,-3.0901982E-2,3.6337655E-2,7.2677165E-2,-2.6775131E-2,-2.368338E-2,1.2760625E0,5.931703E-1,-3.0640239E-2,1.4284617E0,-2.5393104E-2,2.3223676E-1,-8.708534E-2,8.194015E-2,-1.8773494E-2,-4.590199E-3,5.2608754E-2,-1.9671319E-2,8.160675E-2,1.5386886E-2,-3.0284112E-2,2.0425204E-2,-8.217496E-3],"categories":[],"categories_nodes":[],"categories_segments":[],"categories_sizes":[],"default_left":[0,0,0,0,0,0,0,0,0,0,0,0,0,0,0,0,0,0,0,0,0,0,0,0,0,0,0,0,0,0,0,0,0,0,0,0,0],"id":10,"left_children":[1,3,5,-1,7,9,11,13,15,17,-1,-1,19,21,23,-1,25,-1,-1,-1,27,29,-1,31,-1,33,35,-1,-1,-1,-1,-1,-1,-1,-1,-1,-1],"loss_changes":[4.0520744E1,3.3113808E1,1.0736031E1,0E0,2.2100712E1,8.192177E0,1.8915873E1,2.0952248E1,1.7490698E1,1.4311313E1,0E0,0E0,1.2299716E1,3.7444683E1,2.0043865E1,0E0,1.9010021E1,0E0,0E0,0E0,9.251907E0,2.548038E1,0E0,1.2021976E1,0E0,1.948787E1,1.8557459E1,0E0,0E0,0E0,0E0,0E0,0E0,0E0,0E0,0E0,0E0],"parents":[2147483647,0,0,1,1,2,2,4,4,5,5,6,6,7,7,8,8,9,9,12,12,13,13,14,14,16,16,20,20,21,21,23,23,25,25,26,26],"right_children":[2,4,6,-1,8,10,12,14,16,18,-1,-1,20,22,24,-1,26,-1,-1,-1,28,30,-1,32,-1,34,36,-1,-1,-1,-1,-1,-1,-1,-1,-1,-1],"split_conditions":[1.6E1,1.32E0,1.4E0,7.5422995E-2,1.5789473E-1,9E0,2E-1,4E-1,-2.1E1,2.6E1,-3.1418588E-2,-2.9408712E-2,3.1578946E-1,-1E0,9E0,-3.0901982E-2,1.2E0,7.2677165E-2,-2.6775131E-2,-2.368338E-2,4.7E1,1.0526316E-1,-3.0640239E-2,2.4E1,-2.5393104E-2,3.87E0,-1E1,8.194015E-2,-1.8773494E-2,-4.590199E-3,5.2608754E-2,-1.9671319E-2,8.160675E-2,1.5386886E-2,-3.0284112E-2,2.0425204E-2,-8.217496E-3],"split_indices":[2,17,29,0,27,12,30,30,16,1,0,0,27,16,15,0,28,0,0,0,1,27,0,12,0,19,16,0,0,0,0,0,0,0,0,0,0],"split_type":[0,0,0,0,0,0,0,0,0,0,0,0,0,0,0,0,0,0,0,0,0,0,0,0,0,0,0,0,0,0,0,0,0,0,0,0,0],"sum_hessian":[1.1659171E3,9.8865015E2,1.7726688E2,1.4703487E1,9.739467E2,1.4023103E2,3.7035847E1,1.4917491E2,8.247718E2,1.280038E1,1.2743066E2,2.0040497E1,1.699535E1,1.1536292E2,3.3811985E1,4.1588512E1,7.831833E2,4.1344333E0,8.665947E0,4.6978836E0,1.2297467E1,7.892924E1,3.643369E1,2.8135511E1,5.6764736E0,3.0235803E2,4.8082523E2,1.0117178E1,2.1802888E0,3.2106964E1,4.682227E1,2.663866E0,2.5471645E1,2.782913E2,2.406675E1,6.3897438E1,4.169278E2],"tree_param":{"num_deleted":"0","num_feature":"31","num_nodes":"37","size_leaf_vector":"1"}},{"base_weights":[3.586189E-3,4.0409556E-1,-3.3723256E-1,4.516158E-1,-3.2007437E-2,-2.3680738E-1,-6.2817574E-1,3.9430562E-1,6.747542E-2,-2.7322528E-1,6.417956E-2,3.914468E-1,-3.351014E-2,1.0144207E0,3.2591522E-1,1.1931232E-1,-3.233775E-1,5.200615E-2,-2.2172669E-2,-2.5876733E-2,6.745729E-2,2.6386052E-1,1.0090516E0,-2.2865565E-1,7.570027E-1,-1.5258959E-1,-4.687953E-1,2.6190856E-2,-2.845568E-2,5.6002017E-2,1.0332746E-2,5.964591E-2,-2.6070138E-2,-2.1311723E-2,5.9951574E-2,7.220189E-2,-2.8545428E-2,-1.3654317E-2,3.600009E-2,-2.9235726E-2,4.190621E-3],"categories":[],"categories_nodes":[],"categories_segments":[],"categories_sizes":[],"default_left":[0,0,0,0,0,0,0,0,0,0,0,0,0,0,0,0,0,0,0,0,0,0,0,0,0,0,0,0,0,0,0,0,0,0,0,0,0,0,0,0,0],"id":11,"left_children":[1,3,5,7,-1,9,11,13,-1,15,-1,17,-1,19,21,23,25,-1,-1,27,-1,29,31,33,35,37,39,-1,-1,-1,-1,-1,-1,-1,-1,-1,-1,-1,-1,-1,-1],"loss_changes":[1.8122873E2,3.0715721E1,2.0689232E1,2.9207031E1,0E0,3.013782E1,8.249413E0,2.2842064E1,0E0,1.0392738E1,0E0,5.1324663E0,0E0,1.8934624E1,2.070491E1,1.368804E1,1.1423908E1,0E0,0E0,4.806072E0,0E0,2.2109447E1,1.2499317E1,1.2061032E1,2.109676E1,2.3034456E1,1.6149574E1,0E0,0E0,0E0,0E0,0E0,0E0,0E0,0E0,0E0,0E0,0E0,0E0,0E0,0E0],"parents":[2147483647,0,0,1,1,2,2,3,3,5,5,6,6,7,7,9,9,11,11,13,13,14,14,15,15,16,16,19,19,21,21,22,22,23,23,24,24,25,25,26,26],"right_children":[2,4,6,8,-1,10,12,14,-1,16,-1,18,-1,20,22,24,26,-1,-1,28,-1,30,32,34,36,38,40,-1,-1,-1,-1,-1,-1,-1,-1,-1,-1,-1,-1,-1,-1],"split_conditions":[-1E0,5E0,3.72E0,8E-1,-3.2007437E-2,4.49E0,4.5E0,-2.1E1,6.747542E-2,-5.5E0,6.417956E-2,1.5E1,-3.351014E-2,2.1052632E-1,3.15E0,3.6842105E-1,3.1578946E-1,5.200615E-2,-2.2172669E-2,1.8421052E-1,6.745729E-2,-1.05E1,3.6E1,7E0,2.7E1,3.57E0,1.1E1,2.6190856E-2,-2.845568E-2,5.6002017E-2,1.0332746E-2,5.964591E-2,-2.6070138E-2,-2.1311723E-2,5.9951574E-2,7.220189E-2,-2.8545428E-2,-1.3654317E-2,3.600009E-2,-2.9235726E-2,4.190621E-3],"split_indices":[15,16,23,30,0,18,3,16,0,5,0,1,0,27,19,27,27,0,0,27,0,5,13,3,11,19,4,0,0,0,0,0,0,0,0,0,0,0,0,0,0],"split_type":[0,0,0,0,0,0,0,0,0,0,0,0,0,0,0,0,0,0,0,0,0,0,0,0,0,0,0,0,0,0,0,0,0,0,0,0,0,0,0,0,0],"sum_hessian":[1.3246505E3,6.0893524E2,7.157153E2,5.8329065E2,2.5644558E1,5.342131E2,1.8150215E2,5.50376E2,3.291469E1,5.2295026E2,1.1262824E1,6.6442523E0,1.7485791E2,5.2536076E1,4.978399E2,5.8897633E1,4.6405264E2,3.5653393E0,3.078913E0,1.3089539E1,3.9446537E1,4.5835632E2,3.9483574E1,3.8676693E1,2.022094E1,2.1498196E2,2.4907066E2,6.4870076E0,6.6025314E0,2.6906826E1,4.314495E2,3.5573334E1,3.9102397E0,3.4929913E1,3.7467806E0,1.3264584E1,6.9563565E0,1.898529E2,2.5129055E1,2.058858E2,4.3184868E1],"tree_param":{"num_deleted":"0","num_feature":"31","num_nodes":"41","size_leaf_vector":"1"}},{"base_weights":[4.6419976E-3,-2.4359454E-1,5.016434E-1,-4.2072877E-1,-1.933089E-2,-3.155715E-1,5.767606E-1,-7.4887776E-1,-3.5718298E-1,-1.0342066E-1,5.213079E-1,4.1517764E-2,-4.1256934E-2,2.1379612E-1,7.0210856E-1,-4.1089408E-2,4.4657405E-2,-2.5293717E-1,-6.119525E-1,-1.3052703E-1,4.517522E-2,-3.5965614E-2,6.783462E-1,5.753226E-1,-1.6494808E-1,-3.40886E-2,7.2221935E-1,-3.16798E-2,3.5598647E-2,-1.4620744E-1,-7.2500724E-1,-7.474228E-1,1.6067779E-2,-4.8289012E-2,-5.784556E-1,7.841251E-1,-3.3299696E-2,-3.3546202E-2,6.6164595E-1,-4.208467E-1,4.188691E-2,8.6828846E-1,6.1874515E-1,-1.1549674E-2,1.6683737E-2,-4.2940192E-2,8.510099E-3,-4.272647E-2,-2.243728E-2,4.6215367E-2,-2.1272996E-2,-7.144963E-3,3.3801325E-2,-3.588922E-2,3.892894E-2,4.592203E-2,-2.0302855E-3,3.766997E-2,-3.1180143E-2,3.592821E-2,-2.6968515E-2,2.5172366E-2,4.6058685E-2,3.441338E-2,-4.212206E-2],"categories":[],"categories_nodes":[],"categories_segments":[],"categories_sizes":[],"default_left":[0,0,0,0,0,0,0,0,0,0,0,0,0,0,0,0,0,0,0,0,0,0,0,0,0,0,0,0,0,0,0,0,0,0,0,0,0,0,0,0,0,0,0,0,0,0,0,0,0,0,0,0,0,0,0,0,0,0,0,0,0,0,0,0,0],"id":12,"left_children":[1,3,5,7,9,11,13,15,17,19,21,-1,-1,23,25,-1,27,29,31,33,-1,-1,35,37,39,-1,41,-1,-1,43,45,47,49,51,53,55,-1,-1,57,59,-1,61,63,-1,-1,-1,-1,-1,-1,-1,-1,-1,-1,-1,-1,-1,-1,-1,-1,-1,-1,-1,-1,-1,-1],"loss_changes":[1.9889087E2,4.2669727E1,3.3251602E1,1.2063507E1,2.1703844E1,2.7957954E1,2.2131378E1,5.643009E0,1.3163239E1,1.1419838E1,1.3247429E1,0E0,0E0,1.7779037E1,1.0905533E1,0E0,4.9512854E0,1.8024847E1,1.2452915E1,1.48036E1,0E0,0E0,9.014116E0,7.7899303E0,1.6911379E1,0E0,4.5726166E0,0E0,0E0,1.2195663E1,8.188187E0,3.1974564E0,1.1546608E1,2.3619398E1,1.263619E1,6.119671E0,0E0,0E0,8.108486E0,7.5906925E0,0E0,2.0438843E0,2.2864922E1,0E0,0E0,0E0,0E0,0E0,0E0,0E0,0E0,0E0,0E0,0E0,0E0,0E0,0E0,0E0,0E0,0E0,0E0,0E0,0E0,0E0,0E0],"parents":[2147483647,0,0,1,1,2,2,3,3,4,4,5,5,6,6,7,7,8,8,9,9,10,10,13,13,14,14,16,16,17,17,18,18,19,19,22,22,23,23,24,24,26,26,29,29,30,30,31,31,32,32,33,33,34,34,35,35,38,38,39,39,41,41,42,42],"right_children":[2,4,6,8,10,12,14,16,18,20,22,-1,-1,24,26,-1,28,30,32,34,-1,-1,36,38,40,-1,42,-1,-1,44,46,48,50,52,54,56,-1,-1,58,60,-1,62,64,-1,-1,-1,-1,-1,-1,-1,-1,-1,-1,-1,-1,-1,-1,-1,-1,-1,-1,-1,-1,-1,-1],"split_conditions":[7E0,-5E0,2.9E1,-2.4E1,5.7894737E-1,1.69E0,3.1E1,-2.5E0,3.1E1,2.69E0,-1E0,4.1517764E-2,-4.1256934E-2,1.2E1,-9E0,-4.1089408E-2,1.8421052E-1,3.5E1,3.97E0,2.11E0,4.517522E-2,-3.5965614E-2,6.7E1,4.7E1,2.4E1,-3.40886E-2,3E0,-3.16798E-2,3.5598647E-2,4E1,2.55E0,-9E0,4.5E0,4E1,3.5E1,3.2E1,-3.3299696E-2,-3.3546202E-2,5.2E1,1.8421052E-1,4.188691E-2,1.29E0,7.5E0,-1.1549674E-2,1.6683737E-2,-4.2940192E-2,8.510099E-3,-4.272647E-2,-2.243728E-2,4.6215367E-2,-2.1272996E-2,-7.144963E-3,3.3801325E-2,-3.588922E-2,3.892894E-2,4.592203E-2,-2.0302855E-3,3.766997E-2,-3.1180143E-2,3.592821E-2,-2.6968515E-2,2.5172366E-2,4.6058685E-2,3.441338E-2,-4.212206E-2],"split_indices":[2,2,0,2,27,17,14,5,11,17,30,0,0,13,5,0,27,14,18,17,0,0,0,0,12,0,5,0,0,13,19,2,3,13,12,12,0,0,2,27,0,17,4,0,0,0,0,0,0,0,0,0,0,0,0,0,0,0,0,0,0,0,0,0,0],"split_type":[0,0,0,0,0,0,0,0,0,0,0,0,0,0,0,0,0,0,0,0,0,0,0,0,0,0,0,0,0,0,0,0,0,0,0,0,0,0,0,0,0,0,0,0,0,0,0,0,0,0,0,0,0,0,0,0,0,0,0,0,0,0,0,0,0],"sum_hessian":[1.6090079E3,1.0734951E3,5.3551276E2,5.989101E2,4.7458502E2,4.461962E1,4.9089316E2,9.4410774E1,5.0449933E2,4.1183472E2,6.2750324E1,1.3413225E1,3.1206394E1,1.27154625E2,3.6373853E2,8.647501E1,7.9357624E0,3.6027042E2,1.442289E2,4.0235846E2,9.476254E0,6.411291E0,5.6339035E1,6.472526E1,6.242937E1,4.4676733E0,3.5927084E2,3.9360576E0,3.9997048E0,2.9552585E2,6.4744576E1,1.1846848E2,2.5760422E1,3.4144394E2,6.0914497E1,5.284335E1,3.4956844E0,3.497301E0,6.122796E1,5.0469246E1,1.1960123E1,1.4417555E2,2.1509529E2,2.5190176E2,4.3624084E1,5.6427814E1,8.31676E0,8.502079E1,3.3447697E1,7.927122E0,1.78333E1,3.0312305E2,3.83209E1,5.591687E1,4.9976273E0,4.534815E1,7.4952006E0,5.7763832E1,3.4641228E0,3.9999986E0,4.646925E1,2.0370413E1,1.23805145E2,2.0611606E2,8.979225E0],"tree_param":{"num_deleted":"0","num_feature":"31","num_nodes":"65","size_leaf_vector":"1"}},{"base_weights":[-7.219633E-3,6.6663116E-2,-4.217024E-1,7.0120074E-2,4.6154283E-2,3.853533E-1,-5.19001E-1,1.9418225E-2,7.9103637E-1,1.0354363E0,-2.6066E-2,-3.1083314E-2,-1.2558521E-1,1.00720406E-1,-2.2095336E-1,-1.0408342E-1,1.2559682E0,7.365427E-2,-1.9752402E-2,-2.920023E-2,5.8369786E-1,7.898425E-2,8.187172E-2,6.974681E-1,-3.3384597E-1,-2.726512E-2,5.892506E-2,7.9410024E-2,3.914503E-1,8.952397E-1,-2.0318467E-2,8.957131E-4,2.0820081E-2,-2.6233274E-2,6.0495693E-2,-2.0114942E-2,1.5720302E-2,-2.2646409E-2,5.6266647E-2,6.66873E-2,2.2544106E-2],"categories":[],"categories_nodes":[],"categories_segments":[],"categories_sizes":[],"default_left":[0,0,0,0,0,0,0,0,0,0,0,0,0,0,0,0,0,0,0,0,0,0,0,0,0,0,0,0,0,0,0,0,0,0,0,0,0,0,0,0,0],"id":13,"left_children":[1,3,5,-1,7,9,11,13,15,17,-1,-1,19,21,23,25,27,-1,-1,-1,29,-1,31,33,35,-1,-1,-1,37,39,-1,-1,-1,-1,-1,-1,-1,-1,-1,-1,-1],"loss_changes":[3.5997444E1,2.7148062E1,1.4272211E1,0E0,1.9527094E1,1.2588268E1,6.2840157E0,1.861683E1,1.4396009E1,8.531885E0,0E0,0E0,1.1881895E1,1.9570698E1,2.5290981E1,8.269307E0,5.435795E0,0E0,0E0,0E0,5.022915E0,0E0,1.5043431E1,1.776371E1,9.754389E0,0E0,0E0,0E0,5.9311714E0,1.2471094E0,0E0,0E0,0E0,0E0,0E0,0E0,0E0,0E0,0E0,0E0,0E0],"parents":[2147483647,0,0,1,1,2,2,4,4,5,5,6,6,7,7,8,8,9,9,12,12,13,13,14,14,15,15,16,16,20,20,22,22,23,23,24,24,28,28,29,29],"right_children":[2,4,6,-1,8,10,12,14,16,18,-1,-1,20,22,24,26,28,-1,-1,-1,30,-1,32,34,36,-1,-1,-1,38,40,-1,-1,-1,-1,-1,-1,-1,-1,-1,-1,-1],"split_conditions":[1.6E1,1.32E0,9E0,7.0120074E-2,1.4E1,7.5E0,7E0,4E0,6E0,4.7E1,-2.6066E-2,-3.1083314E-2,1E0,1.5E0,2.9E1,5.1E1,3.23E0,7.365427E-2,-1.9752402E-2,-2.920023E-2,2.2E1,7.898425E-2,1.5E0,1.69E0,4.5E1,-2.726512E-2,5.892506E-2,7.9410024E-2,5.5E1,1.29E0,-2.0318467E-2,8.957131E-4,2.0820081E-2,-2.6233274E-2,6.0495693E-2,-2.0114942E-2,1.5720302E-2,-2.2646409E-2,5.6266647E-2,6.66873E-2,2.2544106E-2],"split_indices":[2,17,12,0,2,5,4,2,15,1,0,0,5,17,0,0,18,0,0,0,2,0,6,17,11,0,0,0,14,17,0,0,0,0,0,0,0,0,0,0,0],"split_type":[0,0,0,0,0,0,0,0,0,0,0,0,0,0,0,0,0,0,0,0,0,0,0,0,0,0,0,0,0,0,0,0,0,0,0,0,0,0,0,0,0],"sum_hessian":[1.172042E3,9.9569464E2,1.7634732E2,1.3491416E1,9.822032E2,1.8439968E1,1.5790735E2,9.4972107E2,3.248212E1,1.0647705E1,7.7922626E0,1.24437065E2,3.3470287E1,7.104883E2,2.392328E2,1.1465186E1,2.1016933E1,8.145817E0,2.5018878E0,2.0534191E1,1.2936095E1,7.3443837E0,7.031439E2,2.5288853E1,2.1394395E2,9.201161E0,2.2640254E0,1.42335415E1,6.7833915E0,9.987518E0,2.9485765E0,5.91741E2,1.11402855E2,7.431678E0,1.7857174E1,1.9409456E2,1.9849382E1,3.389582E0,3.3938096E0,3.4591362E0,6.5283823E0],"tree_param":{"num_deleted":"0","num_feature":"31","num_nodes":"41","size_leaf_vector":"1"}},{"base_weights":[1.529881E-2,3.9461842E-1,-3.2645988E-1,7.4412084E-1,2.5086883E-1,-2.2819771E-1,-6.139169E-1,-3.532716E-2,1.0459538E0,3.3931446E-1,-1.8839362E-1,-2.686508E-1,6.1478324E-2,4.3318692E-1,-3.3084925E-2,-4.6687475E-1,6.657209E-2,1.0821807E0,-2.1344293E-2,1.1233761E-1,5.415715E-1,4.0823206E-1,-5.171289E-1,-2.823157E-1,5.2066922E-2,5.11688E-2,-2.1748671E-2,4.8839685E-1,-3.3916157E-2,8.2079947E-1,6.923382E-2,4.5436767E-1,-3.0337262E-1,-3.294545E-2,6.8777996E-1,6.4608147E-3,6.196594E-2,-3.3683695E-2,5.596478E-2,-1.6105914E-1,-4.5181358E-1,5.8416564E-2,-2.3480983E-2,4.9592335E-2,-2.9898241E-2,4.8084655E-3,3.5416804E-2,3.577705E-2,-2.4293339E-2,7.2139973E-4,4.200998E-2,3.5640035E-2,-3.0943869E-2,-1.5560674E-2,9.696332E-3,-3.1556092E-2,-6.377826E-3],"categories":[],"categories_nodes":[],"categories_segments":[],"categories_sizes":[],"default_left":[0,0,0,0,0,0,0,0,0,0,0,0,0,0,0,0,0,0,0,0,0,0,0,0,0,0,0,0,0,0,0,0,0,0,0,0,0,0,0,0,0,0,0,0,0,0,0,0,0,0,0,0,0,0,0,0,0],"id":14,"left_children":[1,3,5,7,9,11,13,15,17,19,21,23,-1,25,-1,27,-1,29,-1,31,33,35,37,39,-1,-1,-1,41,-1,43,-1,45,47,-1,49,51,-1,-1,-1,53,55,-1,-1,-1,-1,-1,-1,-1,-1,-1,-1,-1,-1,-1,-1,-1,-1],"loss_changes":[1.7332594E2,3.150875E1,1.9612923E1,4.33524E1,1.7640562E1,3.1504057E1,9.354431E0,3.19833E1,7.8010406E0,1.7154362E1,1.5331156E1,9.598469E0,0E0,5.121666E0,0E0,8.829466E0,0E0,8.453964E0,0E0,2.5716248E1,3.5524513E1,9.265038E0,1.3931669E1,1.0333889E1,0E0,0E0,0E0,6.2624836E0,0E0,1.8732944E1,0E0,8.869644E0,1.5718855E1,0E0,1.818016E1,9.678569E0,0E0,0E0,0E0,1.6064766E1,1.2139603E1,0E0,0E0,0E0,0E0,0E0,0E0,0E0,0E0,0E0,0E0,0E0,0E0,0E0,0E0,0E0,0E0],"parents":[2147483647,0,0,1,1,2,2,3,3,4,4,5,5,6,6,7,7,8,8,9,9,10,10,11,11,13,13,15,15,17,17,19,19,20,20,21,21,22,22,23,23,27,27,29,29,31,31,32,32,34,34,35,35,39,39,40,40],"right_children":[2,4,6,8,10,12,14,16,18,20,22,24,-1,26,-1,28,-1,30,-1,32,34,36,38,40,-1,-1,-1,42,-1,44,-1,46,48,-1,50,52,-1,-1,-1,54,56,-1,-1,-1,-1,-1,-1,-1,-1,-1,-1,-1,-1,-1,-1,-1,-1],"split_conditions":[-1E0,-1.5E0,3.72E0,2.3684211E-1,5E-1,4.49E0,4.5E0,-7E0,3.6E1,3.41E0,1E1,5.3E0,6.1478324E-2,2.5E0,-3.3084925E-2,1.0526316E-1,6.657209E-2,1.3E1,-2.1344293E-2,2.1052632E-1,5.5E0,8E0,4.3E1,6E0,5.2066922E-2,5.11688E-2,-2.1748671E-2,1.1E1,-3.3916157E-2,6.38E0,6.923382E-2,1.5789473E-1,4.5E0,-3.294545E-2,3E1,-6E0,6.196594E-2,-3.3683695E-2,5.596478E-2,1.1E1,1.2E1,5.8416564E-2,-2.3480983E-2,4.9592335E-2,-2.9898241E-2,4.8084655E-3,3.5416804E-2,3.577705E-2,-2.4293339E-2,7.2139973E-4,4.200998E-2,3.5640035E-2,-3.0943869E-2,-1.5560674E-2,9.696332E-3,-3.1556092E-2,-6.377826E-3],"split_indices":[15,8,23,27,27,18,3,5,0,18,11,19,0,4,0,27,0,4,0,27,3,11,12,15,0,0,0,4,0,17,0,27,4,0,12,15,0,0,0,4,15,0,0,0,0,0,0,0,0,0,0,0,0,0,0,0,0],"split_type":[0,0,0,0,0,0,0,0,0,0,0,0,0,0,0,0,0,0,0,0,0,0,0,0,0,0,0,0,0,0,0,0,0,0,0,0,0,0,0,0,0,0,0,0,0,0,0,0,0,0,0,0,0,0,0,0,0],"sum_hessian":[1.3340055E3,6.32218E2,7.0178754E2,1.8232166E2,4.4989636E2,5.2514166E2,1.7664584E2,5.1217426E1,1.3110422E2,3.748711E2,7.5025276E1,5.1218634E2,1.2955352E1,7.135279E0,1.6951056E2,3.970504E1,1.1512385E1,1.2837834E2,2.7258797E0,1.778569E2,1.9701419E2,2.6469896E1,4.8555378E1,5.0810104E2,4.0852566E0,4.1222925E0,3.012987E0,6.796956E0,3.2908085E1,7.194624E1,5.6432102E1,9.756502E1,8.0291885E1,2.0781404E1,1.7623279E2,1.8903313E1,7.5665836E0,4.514931E1,3.4060676E0,2.980793E2,2.1002174E2,3.8133767E0,2.9835792E0,6.4639824E1,7.306416E0,4.141623E1,5.6148792E1,1.1489211E1,6.880267E1,3.28924E1,1.433404E2,8.815772E0,1.0087542E1,2.0970335E2,8.837597E1,1.3422437E2,7.579737E1],"tree_param":{"num_deleted":"0","num_feature":"31","num_nodes":"57","size_leaf_vector":"1"}},{"base_weights":[-3.048711E-4,-2.3588575E-1,4.704113E-1,-4.104383E-1,-1.7599344E-2,-3.355669E-1,5.3587466E-1,4.108238E-2,-4.2721558E-1,-6.2971264E-1,4.2738866E-2,3.927684E-2,-4.0037878E-2,2.3532337E-1,6.8652636E-1,-4.418967E-1,3.9856475E-2,-4.213919E-2,3.801644E-2,6.150654E-1,-5.4913137E-2,4.6794012E-1,-1.2426425E-1,-3.4731112E-2,7.108646E-1,-4.643387E-1,2.1550816E-1,6.9228536E-1,-3.138447E-2,1.4086752E-2,-6.120634E-1,1.8853755E-1,4.396852E-2,-4.182044E-2,1.3362359E-1,8.0507636E-1,4.6838605E-1,-3.81214E-2,-2.0382714E-2,4.3847155E-2,-3.535669E-2,6.653566E-3,4.458424E-2,-2.3583291E-2,3.977851E-3,3.5362974E-2,-4.011139E-2,2.5832996E-2,-4.0490583E-2,-1.06831845E-2,4.2485848E-2,4.2468008E-2,3.0934587E-2,2.0298116E-4,4.3199666E-2],"categories":[],"categories_nodes":[],"categories_segments":[],"categories_sizes":[],"default_left":[0,0,0,0,0,0,0,0,0,0,0,0,0,0,0,0,0,0,0,0,0,0,0,0,0,0,0,0,0,0,0,0,0,0,0,0,0,0,0,0,0,0,0,0,0,0,0,0,0,0,0,0,0,0,0],"id":15,"left_children":[1,3,5,7,9,11,13,-1,15,17,19,-1,-1,21,23,25,-1,-1,-1,27,29,31,33,-1,35,37,39,41,-1,43,45,47,-1,-1,49,51,53,-1,-1,-1,-1,-1,-1,-1,-1,-1,-1,-1,-1,-1,-1,-1,-1,-1,-1],"loss_changes":[1.7894917E2,4.0951515E1,2.8677002E1,1.2857513E1,1.7784334E1,2.2481302E1,2.227922E1,0E0,1.1124512E1,1.3762081E1,2.4553778E1,0E0,0E0,1.42246475E1,1.1871597E1,8.785912E0,0E0,0E0,0E0,6.799406E0,1.4474372E1,1.1526804E1,1.2582641E1,0E0,6.8214264E0,9.034805E0,1.3293792E1,6.576317E0,0E0,1.070372E1,1.1263006E1,2.1337286E1,0E0,0E0,1.2920099E1,1.0586395E0,1.7401627E1,0E0,0E0,0E0,0E0,0E0,0E0,0E0,0E0,0E0,0E0,0E0,0E0,0E0,0E0,0E0,0E0,0E0,0E0],"parents":[2147483647,0,0,1,1,2,2,3,3,4,4,5,5,6,6,8,8,9,9,10,10,13,13,14,14,15,15,19,19,20,20,21,21,22,22,24,24,25,25,26,26,27,27,29,29,30,30,31,31,34,34,35,35,36,36],"right_children":[2,4,6,8,10,12,14,-1,16,18,20,-1,-1,22,24,26,-1,-1,-1,28,30,32,34,-1,36,38,40,42,-1,44,46,48,-1,-1,50,52,54,-1,-1,-1,-1,-1,-1,-1,-1,-1,-1,-1,-1,-1,-1,-1,-1,-1,-1],"split_conditions":[7E0,-5E0,2.9E1,8E0,-6E0,1.69E0,8E0,4.108238E-2,4E0,2.24E0,2.6E1,3.927684E-2,-4.0037878E-2,1.3E1,-1.5E0,3.74E0,3.9856475E-2,-4.213919E-2,3.801644E-2,6.7E1,8E-1,2.4E1,1.72E0,-3.4731112E-2,1.6E1,2.8E1,-9E0,-4E0,-3.138447E-2,-1E0,2.4E1,1E1,4.396852E-2,-4.182044E-2,1E0,2E0,2.2E1,-3.81214E-2,-2.0382714E-2,4.3847155E-2,-3.535669E-2,6.653566E-3,4.458424E-2,-2.3583291E-2,3.977851E-3,3.5362974E-2,-4.011139E-2,2.5832996E-2,-4.0490583E-2,-1.06831845E-2,4.2485848E-2,4.2468008E-2,3.0934587E-2,2.0298116E-4,4.3199666E-2],"split_indices":[2,2,0,13,16,17,16,0,16,17,13,0,0,3,8,19,0,0,0,0,30,12,17,0,15,12,2,16,0,30,12,13,0,0,10,26,2,0,0,0,0,0,0,0,0,0,0,0,0,0,0,0,0,0,0],"split_type":[0,0,0,0,0,0,0,0,0,0,0,0,0,0,0,0,0,0,0,0,0,0,0,0,0,0,0,0,0,0,0,0,0,0,0,0,0,0,0,0,0,0,0,0,0,0,0,0,0,0,0,0,0,0,0],"sum_hessian":[1.6108336E3,1.0741198E3,5.3671375E2,5.959885E2,4.7813126E2,3.979606E1,4.969177E2,6.999771E0,5.889888E2,4.170639E1,4.3642487E2,1.1336001E1,2.8460058E1,1.673093E2,3.296084E2,5.829975E2,5.9912786E0,3.67064E1,4.9999876E0,6.2526848E1,3.7389804E2,1.01400505E2,6.59088E1,4.956756E0,3.2465164E2,5.642521E2,1.8745428E1,5.9532383E1,2.994464E0,3.339167E2,3.998135E1,6.176485E1,3.9635654E1,1.6679129E1,4.9229668E1,2.3115352E2,9.349812E1,8.7029274E1,4.7722278E2,1.0993069E1,7.7523584E0,1.6371225E1,4.3161156E1,3.8464153E1,2.954525E2,4.4898596E0,3.549149E1,4.7068798E1,1.4696053E1,3.3813557E1,1.5416109E1,1.8224867E2,4.8904846E1,4.376853E1,4.972959E1],"tree_param":{"num_deleted":"0","num_feature":"31","num_nodes":"55","size_leaf_vector":"1"}},{"base_weights":[-3.6167672E-3,6.784341E-2,-4.1520816E-1,6.680751E-2,4.5085635E-2,3.867294E-1,-5.1524186E-1,1.5946203E-1,-9.2033915E-2,1.0175546E0,-2.5714004E-2,-3.0773658E-2,-1.2832715E-1,3.377224E-2,4.963864E-1,-1.4302942E-1,5.641759E-1,6.826975E-2,-1.8145705E-2,-2.8919509E-2,6.350343E-1,4.9607357E-1,-9.509665E-2,7.961299E-1,-3.0622756E-2,-2.5205493E-1,1.457522E-1,-2.767535E-2,1.2098336E0,-2.3717824E-2,7.205239E-2,1.3067973E-2,8.535557E-2,-9.808557E-3,3.281037E-2,4.5954682E-2,-2.7628258E-2,-2.7722051E-2,-3.9782315E-3,4.5908216E-2,-0E0,7.354726E-2,2.3378812E-2],"categories":[],"categories_nodes":[],"categories_segments":[],"categories_sizes":[],"default_left":[0,0,0,0,0,0,0,0,0,0,0,0,0,0,0,0,0,0,0,0,0,0,0,0,0,0,0,0,0,0,0,0,0,0,0,0,0,0,0,0,0,0,0],"id":16,"left_children":[1,3,5,-1,7,9,11,13,15,17,-1,-1,19,21,23,25,27,-1,-1,-1,29,31,33,35,-1,37,39,-1,41,-1,-1,-1,-1,-1,-1,-1,-1,-1,-1,-1,-1,-1,-1],"loss_changes":[3.3926273E1,2.8193195E1,1.399519E1,0E0,1.5184258E1,1.2022976E1,5.755516E0,2.2296812E1,1.4835107E1,6.622773E0,0E0,0E0,1.200913E1,2.3091375E1,4.832404E1,1.2964265E1,2.4118433E1,0E0,0E0,0E0,1.2740042E1,2.3246962E1,2.3185612E1,1.9584373E1,0E0,1.5455671E1,1.274619E1,0E0,2.897316E0,0E0,0E0,0E0,0E0,0E0,0E0,0E0,0E0,0E0,0E0,0E0,0E0,0E0,0E0],"parents":[2147483647,0,0,1,1,2,2,4,4,5,5,6,6,7,7,8,8,9,9,12,12,13,13,14,14,15,15,16,16,20,20,21,21,22,22,23,23,25,25,26,26,28,28],"right_children":[2,4,6,-1,8,10,12,14,16,18,-1,-1,20,22,24,26,28,-1,-1,-1,30,32,34,36,-1,38,40,-1,42,-1,-1,-1,-1,-1,-1,-1,-1,-1,-1,-1,-1,-1,-1],"split_conditions":[1.6E1,1.32E0,9E0,6.680751E-2,-1E0,7.5E0,1.4E0,-1E0,1.4E1,4.7E1,-2.5714004E-2,-3.0773658E-2,3.4210527E-1,1.8421052E-1,4.15E0,1.5E0,6E0,6.826975E-2,-1.8145705E-2,-2.8919509E-2,1.7E1,-4E0,4.28E0,1.1E1,-3.0622756E-2,2.8947368E-1,1.5789473E-1,-2.767535E-2,3.23E0,-2.3717824E-2,7.205239E-2,1.3067973E-2,8.535557E-2,-9.808557E-3,3.281037E-2,4.5954682E-2,-2.7628258E-2,-2.7722051E-2,-3.9782315E-3,4.5908216E-2,-0E0,7.354726E-2,2.3378812E-2],"split_indices":[2,17,12,0,16,5,29,15,2,1,0,0,27,27,19,6,15,0,0,0,2,15,18,15,0,27,27,0,18,0,0,0,0,0,0,0,0,0,0,0,0,0,0],"split_type":[0,0,0,0,0,0,0,0,0,0,0,0,0,0,0,0,0,0,0,0,0,0,0,0,0,0,0,0,0,0,0,0,0,0,0,0,0,0,0,0,0,0,0],"sum_hessian":[1.1499415E3,9.8078894E2,1.6915253E2,1.572383E1,9.650651E2,1.8227753E1,1.5092477E2,5.2623425E2,4.388309E2,1.06398945E1,7.5878572E0,1.19065285E2,3.1859495E1,3.8456924E2,1.41665E2,4.0834662E2,3.0484262E1,8.540516E0,2.0993788E0,2.0312567E1,1.15469265E1,8.29849E1,3.0158435E2,1.11887535E2,2.9777464E1,2.9669678E2,1.1164984E2,1.1212028E1,1.9272236E1,5.09264E0,6.454287E0,7.1074745E1,1.1910157E1,2.6685825E2,3.4726105E1,1.0301067E2,8.876862E0,1.0645799E2,1.902388E2,1.6470879E1,9.517896E1,1.3117733E1,6.154502E0],"tree_param":{"num_deleted":"0","num_feature":"31","num_nodes":"43","size_leaf_vector":"1"}},{"base_weights":[1.4388541E-2,3.7391585E-1,-3.0591184E-1,9.5271516E-1,2.8324053E-1,-2.107625E-1,-6.08396E-1,4.9865507E-2,1.0939314E0,3.3290726E-1,-3.1602457E-2,-6.536013E-2,-3.2856646E-1,4.8435494E-2,-3.267956E-2,3.9214727E-1,-2.5013536E-2,1.1378994E0,3.6331448E-1,8.676592E-1,2.0181431E-1,3.7312248E-1,-3.0030394E-1,-5.220549E-1,1.5465099E-1,-2.3034645E-2,5.0329007E-2,6.1317295E-2,6.111578E-1,-2.0682419E-2,4.586593E-2,9.305515E-1,-2.5441825E-2,2.2405686E-2,5.002471E-1,-1.6794105E-1,7.0448345E-1,-3.863545E-1,7.9355884E-1,5.645562E-2,-5.616476E-1,-3.2367177E-2,4.392673E-1,-2.3899084E-2,5.147305E-2,2.9896224E-2,6.282591E-2,-2.9398259E-3,6.235982E-2,4.0511835E-2,6.3591762E-3,6.7957334E-2,-3.1592492E-2,1.5969275E-2,7.308965E-2,-2.6061026E-2,6.6031823E-3,6.746737E-2,-2.3319788E-2,-3.008951E-2,9.9669695E-3,3.7643444E-2,-4.0423623E-3],"categories":[],"categories_nodes":[],"categories_segments":[],"categories_sizes":[],"default_left":[0,0,0,0,0,0,0,0,0,0,0,0,0,0,0,0,0,0,0,0,0,0,0,0,0,0,0,0,0,0,0,0,0,0,0,0,0,0,0,0,0,0,0,0,0,0,0,0,0,0,0,0,0,0,0,0,0,0,0,0,0,0,0],"id":17,"left_children":[1,3,5,7,9,11,13,15,17,19,-1,21,23,-1,-1,25,-1,27,29,31,33,35,37,39,41,-1,-1,-1,43,-1,-1,45,-1,47,49,51,53,55,57,-1,59,-1,61,-1,-1,-1,-1,-1,-1,-1,-1,-1,-1,-1,-1,-1,-1,-1,-1,-1,-1,-1,-1],"loss_changes":[1.5206548E2,3.2187675E1,1.9864586E1,1.0514832E1,2.4854568E1,9.088541E0,1.27785E1,2.7220483E0,1.6222305E0,3.5671658E1,0E0,2.4981497E1,2.7648771E1,0E0,0E0,5.366987E0,0E0,1.9182129E0,3.3332531E0,9.4353485E0,2.2140314E1,1.537897E1,1.5289052E1,1.46851845E1,1.9866367E1,0E0,0E0,0E0,6.5716863E0,0E0,0E0,9.266556E0,0E0,2.6071226E1,1.7768066E1,2.4843315E1,1.4620138E1,1.0421862E1,9.359239E0,0E0,6.5118103E0,0E0,1.0536297E1,0E0,0E0,0E0,0E0,0E0,0E0,0E0,0E0,0E0,0E0,0E0,0E0,0E0,0E0,0E0,0E0,0E0,0E0,0E0,0E0],"parents":[2147483647,0,0,1,1,2,2,3,3,4,4,5,5,6,6,7,7,8,8,9,9,11,11,12,12,15,15,17,17,18,18,19,19,20,20,21,21,22,22,23,23,24,24,28,28,31,31,33,33,34,34,35,35,36,36,37,37,38,38,40,40,42,42],"right_children":[2,4,6,8,10,12,14,16,18,20,-1,22,24,-1,-1,26,-1,28,30,32,34,36,38,40,42,-1,-1,-1,44,-1,-1,46,-1,48,50,52,54,56,58,-1,60,-1,62,-1,-1,-1,-1,-1,-1,-1,-1,-1,-1,-1,-1,-1,-1,-1,-1,-1,-1,-1,-1],"split_conditions":[-1E0,-2.4E1,5.39E0,2.1052632E-1,5E0,3.1578946E-1,4.5E0,1.8421052E-1,9.736842E-1,1.2E0,-3.1602457E-2,0E0,1.1E1,4.8435494E-2,-3.267956E-2,1.5E1,-2.5013536E-2,6.8E0,2E1,5.76E0,3.1E1,1.8421052E-1,4.2E1,-1.5E0,3.6842105E-1,-2.3034645E-2,5.0329007E-2,6.1317295E-2,4.2E1,-2.0682419E-2,4.586593E-2,0E0,-2.5441825E-2,3.15E0,-9E0,-4E0,3.6E1,2.631579E-1,2.02E0,5.645562E-2,1.7E1,-3.2367177E-2,3.3E1,-2.3899084E-2,5.147305E-2,2.9896224E-2,6.282591E-2,-2.9398259E-3,6.235982E-2,4.0511835E-2,6.3591762E-3,6.7957334E-2,-3.1592492E-2,1.5969275E-2,7.308965E-2,-2.6061026E-2,6.6031823E-3,6.746737E-2,-2.3319788E-2,-3.008951E-2,9.9669695E-3,3.7643444E-2,-4.0423623E-3],"split_indices":[15,2,19,27,16,27,3,27,27,29,0,7,4,0,0,0,0,17,0,17,11,27,1,8,27,0,0,0,1,0,0,26,0,19,2,16,0,27,17,0,15,0,12,0,0,0,0,0,0,0,0,0,0,0,0,0,0,0,0,0,0,0,0],"split_type":[0,0,0,0,0,0,0,0,0,0,0,0,0,0,0,0,0,0,0,0,0,0,0,0,0,0,0,0,0,0,0,0,0,0,0,0,0,0,0,0,0,0,0,0,0,0,0,0,0,0,0,0,0,0,0,0,0,0,0,0,0,0,0],"sum_hessian":[1.3174893E3,6.2068945E2,6.9679974E2,8.206158E1,5.3862787E2,5.3212506E2,1.646747E2,1.1421741E1,7.063984E1,5.118616E2,2.6766293E1,2.3939845E2,2.927266E2,3.7029133E0,1.6097179E2,7.3625774E0,4.0591626E0,6.5776825E1,4.8630123E0,9.904198E1,4.128196E2,8.313888E1,1.5625958E2,2.0901599E2,8.371061E1,3.2062333E0,4.156344E0,5.453289E1,1.1243938E1,2.1448035E0,2.718209E0,9.521392E1,3.8280587E0,2.5893564E2,1.5388397E2,3.1801157E1,5.1337723E1,1.4580545E2,1.0454127E1,3.8983827E0,2.0511761E2,2.137961E1,6.2330997E1,3.02755E0,8.216389E0,4.930566E1,4.5908264E1,2.4413683E2,1.47988205E1,8.3013664E1,7.087031E1,6.710197E0,2.509096E1,3.5489605E1,1.5848118E1,1.1577503E2,3.0030424E1,7.207868E0,3.2462592E0,1.9520016E2,9.91744E0,3.8526455E1,2.3804543E1],"tree_param":{"num_deleted":"0","num_feature":"31","num_nodes":"63","size_leaf_vector":"1"}},{"base_weights":[-4.431002E-3,-2.2767967E-1,4.5189422E-1,-3.8680997E-1,-1.8720437E-2,4.3775152E-2,5.2266115E-1,-4.0274593E-1,4.0043216E-2,-1.008442E-1,5.2116746E-1,5.3506064E-1,-6.154002E-1,1.7023727E-1,7.012561E-1,-3.4147307E-1,-6.935728E-1,-5.934431E-1,-4.6374887E-2,-3.5802316E-2,6.9780606E-1,-3.275667E-2,6.8643576E-1,3.0740311E-2,-4.0242992E-2,3.4058732E-1,-2.2244404E-1,7.1820426E-1,-2.7003566E-2,-3.7127483E-1,4.2869452E-2,-7.7507883E-1,2.4817674E-1,-4.091156E-2,3.7271496E-2,5.847201E-1,-1.0102374E-1,4.396545E-2,1.7084697E-1,-2.9859537E-2,4.2129382E-2,-4.9135166E-1,5.495283E-1,-6.126449E-1,2.4285837E-1,3.4162655E-1,7.836901E-1,-6.2759793E-3,-2.5535626E-2,-4.2051625E-2,-2.7452892E-2,4.2958487E-2,-2.813564E-2,-3.4384854E-2,4.291105E-2,4.7782296E-3,-1.5416615E-2,3.698921E-2,-1.6494198E-2,3.228414E-2,-4.1601785E-2,1.3571233E-2,4.2916812E-2,-4.0761877E-2,3.075383E-2,4.0091064E-2,-1.0844311E-2,2.37841E-2,-3.3518683E-2,1.5930576E-2,4.0289447E-2],"categories":[],"categories_nodes":[],"categories_segments":[],"categories_sizes":[],"default_left":[0,0,0,0,0,0,0,0,0,0,0,0,0,0,0,0,0,0,0,0,0,0,0,0,0,0,0,0,0,0,0,0,0,0,0,0,0,0,0,0,0,0,0,0,0,0,0,0,0,0,0,0,0,0,0,0,0,0,0,0,0,0,0,0,0,0,0,0,0,0,0],"id":18,"left_children":[1,3,5,7,9,11,13,15,-1,17,19,21,23,25,27,29,31,33,35,-1,37,-1,39,-1,-1,41,43,45,-1,47,-1,49,51,-1,-1,53,55,-1,57,-1,-1,59,61,63,65,67,69,-1,-1,-1,-1,-1,-1,-1,-1,-1,-1,-1,-1,-1,-1,-1,-1,-1,-1,-1,-1,-1,-1,-1,-1],"loss_changes":[1.6200267E2,3.5479874E1,1.5024292E1,1.1934334E1,2.0603851E1,2.6052557E1,2.7782478E1,1.0268135E1,0E0,1.0754705E1,1.4154921E1,8.976918E0,8.760697E0,1.02686E1,6.791168E0,1.8242535E1,8.194298E0,1.2945516E1,1.2655963E1,0E0,4.932493E0,0E0,9.114246E0,0E0,0E0,1.8919933E1,8.724724E0,6.72908E0,0E0,1.6557518E1,0E0,6.523285E-1,5.329837E0,0E0,0E0,1.1070706E1,1.380332E1,0E0,4.9129972E0,0E0,0E0,9.384399E0,6.9691067E0,7.2033176E0,6.027525E0,6.701619E0,2.0971527E0,0E0,0E0,0E0,0E0,0E0,0E0,0E0,0E0,0E0,0E0,0E0,0E0,0E0,0E0,0E0,0E0,0E0,0E0,0E0,0E0,0E0,0E0,0E0,0E0],"parents":[2147483647,0,0,1,1,2,2,3,3,4,4,5,5,6,6,7,7,9,9,10,10,11,11,12,12,13,13,14,14,15,15,16,16,17,17,18,18,20,20,22,22,25,25,26,26,27,27,29,29,31,31,32,32,35,35,36,36,38,38,41,41,42,42,43,43,44,44,45,45,46,46],"right_children":[2,4,6,8,10,12,14,16,-1,18,20,22,24,26,28,30,32,34,36,-1,38,-1,40,-1,-1,42,44,46,-1,48,-1,50,52,-1,-1,54,56,-1,58,-1,-1,60,62,64,66,68,70,-1,-1,-1,-1,-1,-1,-1,-1,-1,-1,-1,-1,-1,-1,-1,-1,-1,-1,-1,-1,-1,-1,-1,-1],"split_conditions":[7E0,-5E0,7E0,4E0,5.7894737E-1,5E-1,8E0,-8E0,4.0043216E-2,-6E0,-1E0,-9E0,1.2E1,8.5E0,3.7E1,3.72E0,1E0,3.9473686E-1,2.5E0,-3.5802316E-2,3E0,-3.275667E-2,-2E0,3.0740311E-2,-4.0242992E-2,3.1578946E-1,2.4E1,3.3E1,-2.7003566E-2,3.4E1,4.2869452E-2,4.2E1,3.05E0,-4.091156E-2,3.7271496E-2,1.5789473E-1,-5E-1,4.396545E-2,8.5E0,-2.9859537E-2,4.2129382E-2,7.5E0,6E0,3.5E0,2.1052632E-1,1.7E1,1.0526316E-1,-6.2759793E-3,-2.5535626E-2,-4.2051625E-2,-2.7452892E-2,4.2958487E-2,-2.813564E-2,-3.4384854E-2,4.291105E-2,4.7782296E-3,-1.5416615E-2,3.698921E-2,-1.6494198E-2,3.228414E-2,-4.1601785E-2,1.3571233E-2,4.2916812E-2,-4.0761877E-2,3.075383E-2,4.0091064E-2,-1.0844311E-2,2.37841E-2,-3.3518683E-2,1.5930576E-2,4.0289447E-2],"split_indices":[2,2,3,16,27,5,16,2,0,16,30,5,16,4,12,19,10,27,4,0,2,0,16,0,0,27,14,14,0,12,0,1,18,0,0,27,5,0,3,0,0,3,15,5,27,15,27,0,0,0,0,0,0,0,0,0,0,0,0,0,0,0,0,0,0,0,0,0,0,0,0],"split_type":[0,0,0,0,0,0,0,0,0,0,0,0,0,0,0,0,0,0,0,0,0,0,0,0,0,0,0,0,0,0,0,0,0,0,0,0,0,0,0,0,0,0,0,0,0,0,0,0,0,0,0,0,0,0,0,0,0,0,0,0,0,0,0,0,0,0,0,0,0,0,0],"sum_hessian":[1.5873209E3,1.0664441E3,5.2087683E2,6.045446E2,4.6189944E2,7.743527E1,4.434416E2,5.975602E2,6.984488E0,4.0205435E2,5.9845108E1,4.457309E1,3.2862183E1,1.5022005E2,2.9322153E2,4.9640765E2,1.011525E2,3.846168E1,3.6359265E2,6.8690653E0,5.2976044E1,4.4288583E0,4.0144234E1,3.900943E0,2.8961239E1,1.0499726E2,4.522279E1,2.8993536E2,3.2861545E0,4.8541812E2,1.0989536E1,9.338853E1,7.7639737E0,3.3463947E1,4.997736E0,2.7743328E1,3.3584933E2,3.8587364E1,1.438868E1,3.8596497E0,3.6284584E1,2.0621603E1,8.4375656E1,2.439647E1,2.0826323E1,4.444456E1,2.4549081E2,1.7688025E2,3.0853787E2,6.8962326E1,2.4426199E1,4.4119716E0,3.3520024E0,4.47406E0,2.3269268E1,1.7267293E2,1.631764E2,6.4471188E0,7.9415617E0,4.4108214E0,1.6210781E1,4.5963005E1,3.8412647E1,2.1408442E1,2.9880276E0,8.944347E0,1.1881975E1,3.9991413E1,4.4531484E0,1.2287366E1,2.3320345E2],"tree_param":{"num_deleted":"0","num_feature":"31","num_nodes":"71","size_leaf_vector":"1"}},{"base_weights":[6.5970584E-3,8.511712E-2,-3.3337933E-1,1.8667077E-1,-6.879891E-2,5.3282607E-1,-4.6563202E-1,9.927905E-2,6.051196E-1,-3.9170116E-1,1.665634E-1,-2.6796067E-2,1.151305E0,5.352443E-2,-4.9918497E-1,5.711365E-1,1.8013276E-2,1.3075738E0,2.7213785E-1,-4.8099047E-1,5.402692E-1,-4.3444717E-1,3.334351E-1,6.8947315E-2,-1.8466687E-2,-3.4935683E-1,-3.066406E-2,1.0103625E0,-2.6366758E-1,-3.2789835E-1,1.4368847E-1,8.1837505E-2,2.858224E-1,3.2271966E-3,7.4237764E-2,2.376624E-1,-3.1642657E-2,6.372147E-2,-2.5182879E-2,5.584894E-1,-3.0799134E-2,6.5255964E-1,-2.3198436E-1,-4.460146E-1,6.344812E-2,1.8779913E-2,6.608667E-2,5.473264E-2,-3.0102601E-2,-2.2753244E-2,1.8600915E-2,-3.727002E-5,2.1218743E-2,6.361589E-2,-2.4822949E-2,3.2427397E-2,-3.0237569E-2,5.2741915E-2,-2.9079312E-2,-2.1025188E-2,6.4625554E-2,5.3745758E-2,1.2423181E-2,-2.2679687E-2,4.4356283E-2,-5.423754E-3,-3.0589584E-2],"categories":[],"categories_nodes":[],"categories_segments":[],"categories_sizes":[],"default_left":[0,0,0,0,0,0,0,0,0,0,0,0,0,0,0,0,0,0,0,0,0,0,0,0,0,0,0,0,0,0,0,0,0,0,0,0,0,0,0,0,0,0,0,0,0,0,0,0,0,0,0,0,0,0,0,0,0,0,0,0,0,0,0,0,0,0,0],"id":19,"left_children":[1,3,5,7,9,11,13,15,17,19,21,-1,23,-1,25,27,29,31,33,35,37,39,41,-1,-1,43,-1,45,47,49,51,-1,53,55,-1,57,-1,-1,-1,59,-1,61,63,65,-1,-1,-1,-1,-1,-1,-1,-1,-1,-1,-1,-1,-1,-1,-1,-1,-1,-1,-1,-1,-1,-1,-1],"loss_changes":[3.0831467E1,1.4697002E1,2.5190197E1,2.057717E1,2.8535152E1,2.0355927E1,1.0505142E1,1.7985683E1,2.2172596E1,1.3553724E1,2.2006027E1,0E0,7.424963E0,0E0,2.8073997E0,2.571672E1,1.7570648E1,9.5896E0,2.2101665E1,1.6095928E1,1.2107716E1,9.136718E0,3.1102242E1,0E0,0E0,1.3949723E1,0E0,8.168446E0,1.2417663E1,9.842738E0,1.2045154E1,0E0,8.224838E0,2.3039505E1,0E0,1.8597595E1,0E0,0E0,0E0,6.7039294E0,0E0,1.8265053E1,1.614208E1,4.3643913E0,0E0,0E0,0E0,0E0,0E0,0E0,0E0,0E0,0E0,0E0,0E0,0E0,0E0,0E0,0E0,0E0,0E0,0E0,0E0,0E0,0E0,0E0,0E0],"parents":[2147483647,0,0,1,1,2,2,3,3,4,4,5,5,6,6,7,7,8,8,9,9,10,10,12,12,14,14,15,15,16,16,17,17,18,18,19,19,20,20,21,21,22,22,25,25,27,27,28,28,29,29,30,30,32,32,33,33,35,35,39,39,41,41,42,42,43,43],"right_children":[2,4,6,8,10,12,14,16,18,20,22,-1,24,-1,26,28,30,32,34,36,38,40,42,-1,-1,44,-1,46,48,50,52,-1,54,56,-1,58,-1,-1,-1,60,-1,62,64,66,-1,-1,-1,-1,-1,-1,-1,-1,-1,-1,-1,-1,-1,-1,-1,-1,-1,-1,-1,-1,-1,-1,-1],"split_conditions":[5.5E0,3.3E1,1.5789473E-1,6E0,2.631579E-1,2.8E1,-1.2E1,1.5789473E-1,8E0,4.5E0,3.4E1,-2.6796067E-2,1E1,5.352443E-2,8E0,0E0,-1.3E1,4.2E1,4.5E1,-1E0,1.5789473E-1,-8E0,3.5E1,6.8947315E-2,-1.8466687E-2,4E1,-3.066406E-2,1.0526316E-1,3.1E1,4.18E0,2.05E0,8.1837505E-2,3.6842105E-1,-1E0,7.4237764E-2,3.1E1,-3.1642657E-2,6.372147E-2,-2.5182879E-2,2.5E0,-3.0799134E-2,7.5E0,4.3E1,2.7E1,6.344812E-2,1.8779913E-2,6.608667E-2,5.473264E-2,-3.0102601E-2,-2.2753244E-2,1.8600915E-2,-3.727002E-5,2.1218743E-2,6.361589E-2,-2.4822949E-2,3.2427397E-2,-3.0237569E-2,5.2741915E-2,-2.9079312E-2,-2.1025188E-2,6.4625554E-2,5.3745758E-2,1.2423181E-2,-2.2679687E-2,4.4356283E-2,-5.423754E-3,-3.0589584E-2],"split_indices":[5,14,27,15,27,12,16,27,15,5,14,0,5,0,15,8,16,1,11,30,27,5,11,0,0,11,0,27,1,18,17,0,27,5,0,1,0,0,0,3,0,4,11,1,0,0,0,0,0,0,0,0,0,0,0,0,0,0,0,0,0,0,0,0,0,0,0],"split_type":[0,0,0,0,0,0,0,0,0,0,0,0,0,0,0,0,0,0,0,0,0,0,0,0,0,0,0,0,0,0,0,0,0,0,0,0,0,0,0,0,0,0,0,0,0,0,0,0,0,0,0,0,0,0,0,0,0,0,0,0,0,0,0,0,0,0,0],"sum_hessian":[1.1523248E3,9.3715375E2,2.1517108E2,5.6462225E2,3.7253156E2,2.7849037E1,1.8732204E2,4.6870917E2,9.591305E1,1.5672745E2,2.1580411E2,1.0252257E1,1.759678E1,2.981387E0,1.8434065E2,6.744467E1,4.012645E2,2.9384153E1,6.652889E1,1.4373602E2,1.299142E1,4.6309486E1,1.6949461E2,1.5455696E1,2.1410847E0,8.251512E1,1.0182553E2,4.4025444E1,2.3419224E1,1.0618545E2,2.9507907E2,2.1504335E1,7.879819E0,5.5718056E1,1.0810839E1,2.4869677E1,1.1886635E2,7.461017E0,5.530403E0,6.6339464E0,3.967554E1,1.0825334E2,6.1241276E1,7.8919E1,3.596124E0,1.5630637E1,2.8394808E1,3.9725823E0,1.9446642E1,9.036363E1,1.58218155E1,1.956966E2,9.938247E1,3.0977232E0,4.7820954E0,2.7020306E1,2.8697752E1,1.2265194E1,1.2604483E1,3.087969E0,3.545977E0,5.1652775E1,5.660057E1,5.1900494E1,9.340782E0,2.6910177E1,5.200882E1],"tree_param":{"num_deleted":"0","num_feature":"31","num_nodes":"67","size_leaf_vector":"1"}},{"base_weights":[1.2466387E-2,2.9444727E-1,-3.1169143E-1,8.860179E-1,2.0497943E-1,5.785128E-2,-3.3357826E-1,6.728009E-2,9.9538463E-1,1.7538508E-2,3.863307E-1,-2.3636974E-1,-5.9877825E-1,3.793778E-1,-2.4157774E-2,1.0520167E0,-2.24537E-2,6.570379E-1,-1.1716371E-1,9.8649836E-1,2.579795E-1,-2.8284326E-1,5.7076287E-2,4.2543346E-1,-3.2222684E-2,-2.2867022E-2,4.8668783E-2,5.511658E-1,1.103123E0,7.621413E-1,-2.5169784E-2,-4.026666E-1,8.44158E-2,-2.6138453E-2,1.1198329E0,3.742623E-1,-3.3421874E-2,-4.515319E-1,-1.1708301E-1,4.689979E-2,-1.975267E-2,-2.2392282E-2,4.871221E-2,5.924898E-2,3.0837748E-2,2.0033827E-2,6.3066155E-2,-3.4417912E-2,2.130741E-3,4.830703E-2,-6.625066E-3,6.324532E-2,-2.4709059E-2,-3.3063628E-2,2.3653496E-2,5.715326E-3,-2.7100682E-2,1.0220788E-2,-2.1906074E-2],"categories":[],"categories_nodes":[],"categories_segments":[],"categories_sizes":[],"default_left":[0,0,0,0,0,0,0,0,0,0,0,0,0,0,0,0,0,0,0,0,0,0,0,0,0,0,0,0,0,0,0,0,0,0,0,0,0,0,0,0,0,0,0,0,0,0,0,0,0,0,0,0,0,0,0,0,0,0,0],"id":20,"left_children":[1,3,5,7,9,-1,11,13,15,17,19,21,23,25,-1,27,-1,29,31,33,35,37,-1,39,-1,-1,-1,41,43,45,-1,47,49,-1,51,53,-1,55,57,-1,-1,-1,-1,-1,-1,-1,-1,-1,-1,-1,-1,-1,-1,-1,-1,-1,-1,-1,-1],"loss_changes":[1.2082388E2,3.7089905E1,2.0303352E1,8.115501E0,2.0912874E1,0E0,1.5395439E1,2.4248254E0,7.3896255E0,2.638781E1,2.3662117E1,2.9054794E1,7.9872932E0,5.118822E0,0E0,1.020195E0,0E0,7.089386E0,1.4620174E1,1.1882137E1,2.8358812E1,1.20135765E1,0E0,3.8466942E0,0E0,0E0,0E0,5.066739E0,1.5941772E0,8.092434E0,0E0,1.3435541E1,2.8800308E1,0E0,1.282761E1,2.419028E1,0E0,1.1079643E1,2.293757E1,0E0,0E0,0E0,0E0,0E0,0E0,0E0,0E0,0E0,0E0,0E0,0E0,0E0,0E0,0E0,0E0,0E0,0E0,0E0,0E0],"parents":[2147483647,0,0,1,1,2,2,3,3,4,4,6,6,7,7,8,8,9,9,10,10,11,11,12,12,13,13,15,15,17,17,18,18,19,19,20,20,21,21,23,23,27,27,28,28,29,29,31,31,32,32,34,34,35,35,37,37,38,38],"right_children":[2,4,6,8,10,-1,12,14,16,18,20,22,24,26,-1,28,-1,30,32,34,36,38,-1,40,-1,-1,-1,42,44,46,-1,48,50,-1,52,54,-1,56,58,-1,-1,-1,-1,-1,-1,-1,-1,-1,-1,-1,-1,-1,-1,-1,-1,-1,-1,-1,-1],"split_conditions":[0E0,-2.4E1,-1.2E0,2.1052632E-1,3.5E1,5.785128E-2,3.72E0,1.8421052E-1,5.4E1,2.9E1,-1.5E1,4.49E0,4.5E0,1.5E1,-2.4157774E-2,1.2E1,-2.24537E-2,5.76E0,-5E0,-2.3E1,3.94E0,3.5E0,5.7076287E-2,1.5E1,-3.2222684E-2,-2.2867022E-2,4.8668783E-2,2E1,6.8E0,2.3684211E-1,-2.5169784E-2,3.4210527E-1,2.3684211E-1,-2.6138453E-2,5.263158E-1,2.5E0,-3.3421874E-2,5.5E0,3.1578946E-1,4.689979E-2,-1.975267E-2,-2.2392282E-2,4.871221E-2,5.924898E-2,3.0837748E-2,2.0033827E-2,6.3066155E-2,-3.4417912E-2,2.130741E-3,4.830703E-2,-6.625066E-3,6.324532E-2,-2.4709059E-2,-3.3063628E-2,2.3653496E-2,5.715326E-3,-2.7100682E-2,1.0220788E-2,-2.1906074E-2],"split_indices":[2,2,30,27,13,0,23,27,0,1,16,18,3,0,0,13,0,17,16,2,18,5,0,1,0,0,0,0,17,27,0,27,27,0,27,3,0,4,27,0,0,0,0,0,0,0,0,0,0,0,0,0,0,0,0,0,0,0,0],"split_type":[0,0,0,0,0,0,0,0,0,0,0,0,0,0,0,0,0,0,0,0,0,0,0,0,0,0,0,0,0,0,0,0,0,0,0,0,0,0,0,0,0,0,0,0,0,0,0,0,0,0,0,0,0,0,0,0,0,0,0],"sum_hessian":[1.3188365E3,7.0545856E2,6.133779E2,9.084806E1,6.146105E2,7.8305087E0,6.055474E2,1.1044798E1,7.980327E1,3.031754E2,3.1143506E2,4.4533597E2,1.6021149E2,7.4038143E0,3.640984E0,7.721797E1,2.5852938E0,5.180162E1,2.513738E2,5.3033413E1,2.5840167E2,4.319941E2,1.334187E1,6.2605624E0,1.5395091E2,3.1822078E0,4.2216067E0,8.877018E0,6.834095E1,4.8011066E1,3.7905552E0,1.0351467E2,1.4785912E2,3.9188013E0,4.9114613E1,2.3042674E2,2.7974915E1,2.126746E2,2.1931949E2,3.7586353E0,2.5019274E0,2.5796704E0,6.2973475E0,5.6563797E1,1.1777155E1,2.9473234E1,1.8537832E1,6.2626858E1,4.0887817E1,2.8216051E1,1.1964306E2,4.53902E1,3.7244108E0,1.9283613E1,2.1114313E2,2.9189152E1,1.8348546E2,1.0977562E2,1.0954387E2],"tree_param":{"num_deleted":"0","num_feature":"31","num_nodes":"59","size_leaf_vector":"1"}},{"base_weights":[1.2242406E-3,-2.2431697E-1,4.4625193E-1,-3.8792628E-1,-1.4217342E-2,-3.2210496E-1,5.0847393E-1,-4.0301943E-1,3.8879782E-2,-6.515178E-2,6.944498E-1,3.7525427E-2,-3.8496118E-2,2.2565556E-1,6.480183E-1,-3.458294E-1,-6.583006E-1,-3.948299E-2,-3.065332E-2,-2.6056124E-2,4.139517E-2,4.4738346E-1,-1.3308874E-1,-3.0625632E-2,6.661758E-1,-3.7907806E-1,4.2008225E-2,-4.072551E-2,-4.2790735E-1,-6.860376E-2,5.453861E-1,5.7729137E-1,-2.9962522E-1,-4.075336E-2,1.002894E-1,7.6167846E-1,4.0786433E-1,-7.940165E-3,-2.506487E-2,-3.998008E-2,3.3132907E-3,7.1038865E-4,-3.207181E-2,-3.276646E-2,4.0692218E-2,3.14359E-2,-2.9097488E-2,3.2801162E-2,-3.7627146E-2,-2.33711E-2,3.0195404E-2,-9.432206E-4,3.9460268E-2,-3.2360316E-3,4.087468E-2],"categories":[],"categories_nodes":[],"categories_segments":[],"categories_sizes":[],"default_left":[0,0,0,0,0,0,0,0,0,0,0,0,0,0,0,0,0,0,0,0,0,0,0,0,0,0,0,0,0,0,0,0,0,0,0,0,0,0,0,0,0,0,0,0,0,0,0,0,0,0,0,0,0,0,0],"id":21,"left_children":[1,3,5,7,9,11,13,15,-1,17,19,-1,-1,21,23,25,27,-1,29,-1,-1,31,33,-1,35,37,-1,-1,39,41,43,45,47,-1,49,51,53,-1,-1,-1,-1,-1,-1,-1,-1,-1,-1,-1,-1,-1,-1,-1,-1,-1,-1],"loss_changes":[1.5810663E2,3.5901432E1,2.558622E1,1.0785454E1,1.6615149E1,2.0345766E1,1.910653E1,8.090233E0,0E0,1.0668787E1,5.668829E0,0E0,0E0,1.319578E1,8.115646E0,1.9301914E1,3.1764297E0,0E0,9.039549E0,0E0,0E0,1.0185232E1,1.03339205E1,0E0,7.4641266E0,1.2393181E1,0E0,0E0,8.477044E0,1.844931E1,9.044821E0,5.7722054E0,7.6973124E0,0E0,1.4415264E1,5.100296E0,1.7690311E1,0E0,0E0,0E0,0E0,0E0,0E0,0E0,0E0,0E0,0E0,0E0,0E0,0E0,0E0,0E0,0E0,0E0,0E0],"parents":[2147483647,0,0,1,1,2,2,3,3,4,4,5,5,6,6,7,7,9,9,10,10,13,13,14,14,15,15,16,16,18,18,21,21,22,22,24,24,25,25,28,28,29,29,30,30,31,31,32,32,34,34,35,35,36,36],"right_children":[2,4,6,8,10,12,14,16,-1,18,20,-1,-1,22,24,26,28,-1,30,-1,-1,32,34,-1,36,38,-1,-1,40,42,44,46,48,-1,50,52,54,-1,-1,-1,-1,-1,-1,-1,-1,-1,-1,-1,-1,-1,-1,-1,-1,-1,-1],"split_conditions":[7E0,-5E0,2.9E1,4E0,8.684211E-1,1.69E0,8E0,-8E0,3.8879782E-2,2.2E1,-8E0,3.7525427E-2,-3.8496118E-2,1.5E0,-9E0,3.72E0,-6E0,-3.948299E-2,1.4E0,-2.6056124E-2,4.139517E-2,8.5E0,1.72E0,-3.0625632E-2,1.6E1,3.4E1,4.2008225E-2,-4.072551E-2,2.1052632E-1,8E-1,1.5789473E-1,5.2E1,4.5E1,-4.075336E-2,3.6842105E-1,1.0526316E-1,2.2E1,-7.940165E-3,-2.506487E-2,-3.998008E-2,3.3132907E-3,7.1038865E-4,-3.207181E-2,-3.276646E-2,4.0692218E-2,3.14359E-2,-2.9097488E-2,3.2801162E-2,-3.7627146E-2,-2.33711E-2,3.0195404E-2,-9.432206E-4,3.9460268E-2,-3.2360316E-3,4.087468E-2],"split_indices":[2,2,0,16,27,17,16,2,0,1,5,0,0,6,5,19,2,0,30,0,0,4,17,0,15,12,0,0,27,30,27,2,0,0,27,27,2,0,0,0,0,0,0,0,0,0,0,0,0,0,0,0,0,0,0],"split_type":[0,0,0,0,0,0,0,0,0,0,0,0,0,0,0,0,0,0,0,0,0,0,0,0,0,0,0,0,0,0,0,0,0,0,0,0,0,0,0,0,0,0,0,0,0,0,0,0,0,0,0,0,0,0,0],"sum_hessian":[1.5720988E3,1.0437534E3,5.283454E2,5.859519E2,4.5780148E2,3.905096E1,4.8929446E2,5.794721E2,6.479767E0,4.2844058E2,2.9360905E1,1.1170297E1,2.7880665E1,1.6307326E2,3.262212E2,4.7645984E2,1.0301227E2,1.7915262E1,4.105253E2,2.436436E0,2.6924469E1,1.00639854E2,6.24334E1,3.89604E0,3.2232516E2,4.6450058E2,1.1959286E1,5.8993763E1,4.401851E1,3.8647205E2,2.405327E1,8.6078224E1,1.4561633E1,1.5019345E1,4.7414055E1,2.330467E2,8.927845E1,1.6713426E2,2.973663E2,2.4651146E1,1.9367363E1,3.388602E2,4.761183E1,3.96617E0,2.00871E1,8.3120415E1,2.9578066E0,4.4304366E0,1.0131197E1,2.2292753E1,2.51213E1,7.8929334E0,2.2515378E2,4.1983482E1,4.7294968E1],"tree_param":{"num_deleted":"0","num_feature":"31","num_nodes":"55","size_leaf_vector":"1"}},{"base_weights":[-1.3429071E-2,5.4954674E-2,-4.3539298E-1,3.9557785E-2,5.9388954E-2,2.622069E-1,-5.140528E-1,3.3526304E-1,-1.3622983E-2,6.437617E-2,-3.1493554E-1,-3.0219365E-2,-1.4338638E-1,1.1680367E-1,9.893957E-1,5.0670046E-2,-4.0603358E-1,9.903902E-3,-2.5691384E-2,-2.8078033E-2,4.9587053E-1,8.514885E-1,-2.5341105E-1,6.471076E-2,-2.4819693E-2,-3.126393E-1,1.3073389E-1,5.3775694E-2,-4.6628398E-1,-2.3815807E-2,6.451024E-2,2.487608E-2,7.573893E-2,3.7864096E-2,-2.1169607E-2,-1.7967273E-2,5.711248E-2,2.2330089E-2,5.7833047E-5,-3.0904219E-2,2.55662E-3],"categories":[],"categories_nodes":[],"categories_segments":[],"categories_sizes":[],"default_left":[0,0,0,0,0,0,0,0,0,0,0,0,0,0,0,0,0,0,0,0,0,0,0,0,0,0,0,0,0,0,0,0,0,0,0,0,0,0,0,0,0],"id":22,"left_children":[1,3,5,7,-1,9,11,13,15,-1,17,-1,19,21,23,25,27,-1,-1,-1,29,31,33,-1,-1,35,37,-1,39,-1,-1,-1,-1,-1,-1,-1,-1,-1,-1,-1,-1],"loss_changes":[3.3165554E1,1.7112503E1,9.010664E0,1.5387188E1,0E0,1.0818404E1,4.6751823E0,2.108185E1,2.0973282E1,0E0,1.409322E0,0E0,8.551371E0,3.1238266E1,1.7795612E1,2.081656E1,1.1168585E1,0E0,0E0,0E0,1.08294735E1,7.793085E0,1.3626461E1,0E0,0E0,9.3583765E0,2.3965977E1,0E0,8.993513E0,0E0,0E0,0E0,0E0,0E0,0E0,0E0,0E0,0E0,0E0,0E0,0E0],"parents":[2147483647,0,0,1,1,2,2,3,3,5,5,6,6,7,7,8,8,10,10,12,12,13,13,14,14,15,15,16,16,20,20,21,21,22,22,25,25,26,26,28,28],"right_children":[2,4,6,8,-1,10,12,14,16,-1,18,-1,20,22,24,26,28,-1,-1,-1,30,32,34,-1,-1,36,38,-1,40,-1,-1,-1,-1,-1,-1,-1,-1,-1,-1,-1,-1],"split_conditions":[1.6E1,7.633588E-1,9E0,1.5789473E-1,5.9388954E-2,2.6E1,7E0,3E0,5E0,6.437617E-2,3E0,-3.0219365E-2,1E0,2.4E1,9E0,-1.3E1,-1.2E1,9.903902E-3,-2.5691384E-2,-2.8078033E-2,3.1578946E-1,-8E0,-2.2E1,6.471076E-2,-2.4819693E-2,3.7E1,2.9E1,5.3775694E-2,4.02E0,-2.3815807E-2,6.451024E-2,2.487608E-2,7.573893E-2,3.7864096E-2,-2.1169607E-2,-1.7967273E-2,5.711248E-2,2.2330089E-2,5.7833047E-5,-3.0904219E-2,2.55662E-3],"split_indices":[2,20,12,27,0,1,4,5,5,0,15,0,5,14,15,16,16,0,0,0,27,2,2,0,0,14,0,0,18,0,0,0,0,0,0,0,0,0,0,0,0],"split_type":[0,0,0,0,0,0,0,0,0,0,0,0,0,0,0,0,0,0,0,0,0,0,0,0,0,0,0,0,0,0,0,0,0,0,0,0,0,0,0,0,0],"sum_hessian":[1.1459648E3,9.871696E2,1.587952E2,9.7550745E2,1.1662184E1,1.5671916E1,1.4312328E2,1.4762733E2,8.278801E2,5.0106473E0,1.0661269E1,1.1420891E2,2.8914373E1,1.1205037E2,3.5576958E1,7.1234717E2,1.1553293E2,2.9100256E0,7.751243E0,1.7637325E1,1.1277048E1,3.6936195E1,7.5114174E1,2.9709017E1,5.867942E0,1.27735275E2,5.8461194E2,3.4946275E0,1.1203831E2,5.312574E0,5.964474E0,2.5844631E1,1.1091565E1,1.0025661E1,6.508852E1,1.2488983E2,2.8454466E0,1.688802E2,4.1573172E2,8.64734E1,2.5564905E1],"tree_param":{"num_deleted":"0","num_feature":"31","num_nodes":"41","size_leaf_vector":"1"}},{"base_weights":[1.2790253E-3,3.1553042E-1,-2.9490063E-1,8.524022E-1,2.3098788E-1,-2.0248227E-1,-5.8403933E-1,3.7009485E-2,9.7457546E-1,6.071655E-1,1.197453E-1,-2.3824845E-1,5.587141E-2,5.0523543E-1,-3.195885E-2,3.2367915E-1,-2.4163507E-2,1.0332437E0,2.0779218E-1,7.9028386E-1,-3.0256404E-2,-3.3178978E-2,1.7823674E-1,-1.1883494E-1,-3.993251E-1,4.7598135E-2,-1.934558E-2,-2.3400495E-2,4.6716552E-2,5.6136962E-2,4.4940057E-1,-2.3526458E-2,4.2585447E-2,-2.5860718E-2,8.4934723E-1,2.4839738E-1,-2.9532984E-1,3.8537223E-2,-4.247141E-1,-4.6077242E-1,4.323109E-1,4.7055572E-2,-2.5154347E-2,4.4971205E-2,-2.392625E-2,9.397975E-3,3.7095565E-2,1.1524015E-2,-2.6445711E-2,-3.5999666E-3,3.67254E-2,-2.7488166E-2,9.338912E-3,-3.0367702E-2,-7.918674E-3,-2.2652864E-2,3.6969796E-2],"categories":[],"categories_nodes":[],"categories_segments":[],"categories_sizes":[],"default_left":[0,0,0,0,0,0,0,0,0,0,0,0,0,0,0,0,0,0,0,0,0,0,0,0,0,0,0,0,0,0,0,0,0,0,0,0,0,0,0,0,0,0,0,0,0,0,0,0,0,0,0,0,0,0,0,0,0],"id":23,"left_children":[1,3,5,7,9,11,13,15,17,19,21,23,-1,25,-1,27,-1,29,31,33,-1,-1,35,37,39,-1,-1,-1,-1,-1,41,-1,-1,-1,43,45,47,49,51,53,55,-1,-1,-1,-1,-1,-1,-1,-1,-1,-1,-1,-1,-1,-1,-1,-1],"loss_changes":[1.2361262E2,2.8901749E1,1.8050903E1,8.566208E0,2.3243855E1,2.492571E1,1.038036E1,2.1588266E0,3.0161743E0,2.8939804E1,2.000751E1,9.674347E0,0E0,4.0589337E0,0E0,5.1814723E0,0E0,2.8104095E0,3.8132234E0,9.25518E0,0E0,0E0,1.3546363E1,1.4198402E1,1.1310726E1,0E0,0E0,0E0,0E0,0E0,6.281762E0,0E0,0E0,0E0,7.7751236E0,1.0278662E1,6.6807814E0,1.5146423E1,7.828354E0,8.745579E0,4.7425413E0,0E0,0E0,0E0,0E0,0E0,0E0,0E0,0E0,0E0,0E0,0E0,0E0,0E0,0E0,0E0,0E0],"parents":[2147483647,0,0,1,1,2,2,3,3,4,4,5,5,6,6,7,7,8,8,9,9,10,10,11,11,13,13,15,15,17,17,18,18,19,19,22,22,23,23,24,24,30,30,34,34,35,35,36,36,37,37,38,38,39,39,40,40],"right_children":[2,4,6,8,10,12,14,16,18,20,22,24,-1,26,-1,28,-1,30,32,34,-1,-1,36,38,40,-1,-1,-1,-1,-1,42,-1,-1,-1,44,46,48,50,52,54,56,-1,-1,-1,-1,-1,-1,-1,-1,-1,-1,-1,-1,-1,-1,-1,-1],"split_conditions":[-1E0,-2.4E1,3.72E0,2.1052632E-1,7E0,4.49E0,1E0,1.8421052E-1,9.736842E-1,5E0,7.5E0,6E0,5.587141E-2,1.5E1,-3.195885E-2,1.5E1,-2.4163507E-2,2.4E1,2E1,-1.8E1,-3.0256404E-2,-3.3178978E-2,5.5263156E-1,3.05E0,1.8E0,4.7598135E-2,-1.934558E-2,-2.3400495E-2,4.6716552E-2,5.6136962E-2,2.02E0,-2.3526458E-2,4.2585447E-2,-2.5860718E-2,5.76E0,2E-1,-1E0,3.9E1,1.3E1,1.2E1,1.5E1,4.7055572E-2,-2.5154347E-2,4.4971205E-2,-2.392625E-2,9.397975E-3,3.7095565E-2,1.1524015E-2,-2.6445711E-2,-3.5999666E-3,3.67254E-2,-2.7488166E-2,9.338912E-3,-3.0367702E-2,-7.918674E-3,-2.2652864E-2,3.6969796E-2],"split_indices":[15,2,23,27,4,18,28,27,27,16,4,15,0,1,0,0,0,14,0,15,0,0,27,18,30,0,0,0,0,0,17,0,0,0,17,30,30,11,16,15,1,0,0,0,0,0,0,0,0,0,0,0,0,0,0,0,0],"split_type":[0,0,0,0,0,0,0,0,0,0,0,0,0,0,0,0,0,0,0,0,0,0,0,0,0,0,0,0,0,0,0,0,0,0,0,0,0,0,0,0,0,0,0,0,0,0,0,0,0,0,0,0,0,0,0,0,0],"sum_hessian":[1.325088E3,6.429638E2,6.8212415E2,8.554037E1,5.5742346E2,5.18968E2,1.6315611E2,1.145468E1,7.4085686E1,1.2559046E2,4.3183298E2,5.0651004E2,1.2457991E1,7.2271976E0,1.5592891E2,7.812805E0,3.6418753E0,6.827534E1,5.8103523E0,1.0959884E2,1.5991622E1,2.8867226E1,4.0296576E2,2.925479E2,2.1396214E2,4.78611E0,2.441088E0,3.519021E0,4.293784E0,5.7925896E1,1.0349443E1,2.988467E0,2.8218853E0,4.197433E0,1.05401405E2,3.516816E2,5.128414E1,1.9392351E2,9.862441E1,1.9991965E2,1.4042481E1,6.8721714E0,3.4772713E0,1.0207364E2,3.3277717E0,3.152476E2,3.6434006E1,1.571493E1,3.556921E1,1.6844366E2,2.5479843E1,8.207366E1,1.655075E1,1.335204E2,6.639926E1,3.390722E0,1.0651759E1],"tree_param":{"num_deleted":"0","num_feature":"31","num_nodes":"57","size_leaf_vector":"1"}},{"base_weights":[-1.1704497E-2,-2.2289781E-1,4.1414335E-1,-3.8296202E-1,-2.2077277E-2,-2.641631E-1,4.7257122E-1,3.9752506E-2,-3.9944378E-1,3.9694035E-1,-1.0017943E-1,3.7377845E-2,-3.781731E-2,1.6987535E-1,6.189276E-1,-4.1579533E-1,3.826249E-2,-3.6548447E-2,6.2484485E-1,-3.089033E-2,-6.189194E-1,3.5045722E-1,-2.909988E-1,1.0345199E-1,6.7015E-1,-3.5723582E-1,-6.86315E-1,7.1884465E-1,-3.268328E-2,-7.7168606E-2,5.769682E-1,-3.8213972E-2,3.3216566E-2,5.3030556E-1,-9.295792E-2,-6.5286386E-1,1.5908556E-1,4.8365346E-1,-3.646366E-2,3.654543E-1,7.316558E-1,-1.9384967E-2,4.046278E-2,-3.8190063E-2,-1.3949501E-2,4.1663423E-2,1.0982234E-3,-1.1663645E-3,-4.147365E-2,-3.146906E-2,4.4188138E-2,2.957571E-2,-2.9720113E-2,-2.4563028E-2,1.7107144E-2,-3.918704E-2,-5.2836584E-3,3.6792908E-2,-1.7459512E-3,-3.0105893E-2,3.8256716E-2,2.393215E-2,-3.1897053E-2,3.202398E-2,4.076059E-2],"categories":[],"categories_nodes":[],"categories_segments":[],"categories_sizes":[],"default_left":[0,0,0,0,0,0,0,0,0,0,0,0,0,0,0,0,0,0,0,0,0,0,0,0,0,0,0,0,0,0,0,0,0,0,0,0,0,0,0,0,0,0,0,0,0,0,0,0,0,0,0,0,0,0,0,0,0,0,0,0,0,0,0,0,0],"id":24,"left_children":[1,3,5,7,9,11,13,-1,15,17,19,-1,-1,21,23,25,-1,-1,27,29,31,33,35,37,39,41,43,45,-1,47,49,-1,-1,51,53,55,57,59,-1,61,63,-1,-1,-1,-1,-1,-1,-1,-1,-1,-1,-1,-1,-1,-1,-1,-1,-1,-1,-1,-1,-1,-1,-1,-1],"loss_changes":[1.4081494E2,3.3613815E1,2.076838E1,1.1761345E1,1.5295073E1,2.179128E1,2.1000397E1,0E0,1.1415291E1,1.9551281E1,1.4103325E1,0E0,0E0,1.3316214E1,8.355614E0,8.582855E0,0E0,0E0,8.149504E0,9.868109E0,9.397858E0,9.216556E0,7.5515614E0,1.0316893E1,5.0238495E0,1.7167381E1,2.7638931E0,4.588913E0,0E0,1.3132853E1,1.0030448E1,0E0,0E0,6.1496754E0,6.186264E0,1.6533804E0,2.4586236E0,7.4822893E0,0E0,6.3836017E0,9.8506165E-1,0E0,0E0,0E0,0E0,0E0,0E0,0E0,0E0,0E0,0E0,0E0,0E0,0E0,0E0,0E0,0E0,0E0,0E0,0E0,0E0,0E0,0E0,0E0,0E0],"parents":[2147483647,0,0,1,1,2,2,3,3,4,4,5,5,6,6,8,8,9,9,10,10,13,13,14,14,15,15,18,18,19,19,20,20,21,21,22,22,23,23,24,24,25,25,26,26,27,27,29,29,30,30,33,33,34,34,35,35,36,36,37,37,39,39,40,40],"right_children":[2,4,6,8,10,12,14,-1,16,18,20,-1,-1,22,24,26,-1,-1,28,30,32,34,36,38,40,42,44,46,-1,48,50,-1,-1,52,54,56,58,60,-1,62,64,-1,-1,-1,-1,-1,-1,-1,-1,-1,-1,-1,-1,-1,-1,-1,-1,-1,-1,-1,-1,-1,-1,-1,-1],"split_conditions":[7E0,-5E0,2.9E1,8E0,2.6E1,1.69E0,8E0,3.9752506E-2,4E0,-5E0,8E-1,3.7377845E-2,-3.781731E-2,8.5E0,4.5E0,-8E0,3.826249E-2,-3.6548447E-2,6.7E1,6E-1,8E0,1.3E1,2.4E1,1.9E1,3.3E1,3.72E0,3.6E1,3.9E1,-3.268328E-2,4.2E1,2E0,-3.8213972E-2,3.3216566E-2,5.2E1,1E0,6.3E1,1.81E0,1.1E1,-3.646366E-2,1.7E1,6E0,-1.9384967E-2,4.046278E-2,-3.8190063E-2,-1.3949501E-2,4.1663423E-2,1.0982234E-3,-1.1663645E-3,-4.147365E-2,-3.146906E-2,4.4188138E-2,2.957571E-2,-2.9720113E-2,-2.4563028E-2,1.7107144E-2,-3.918704E-2,-5.2836584E-3,3.6792908E-2,-1.7459512E-3,-3.0105893E-2,3.8256716E-2,2.393215E-2,-3.1897053E-2,3.202398E-2,4.076059E-2],"split_indices":[2,2,0,13,13,17,16,0,16,16,30,0,0,4,3,2,0,0,0,30,16,3,14,2,14,19,0,11,0,1,2,0,0,2,10,0,17,2,0,15,5,0,0,0,0,0,0,0,0,0,0,0,0,0,0,0,0,0,0,0,0,0,0,0,0],"split_type":[0,0,0,0,0,0,0,0,0,0,0,0,0,0,0,0,0,0,0,0,0,0,0,0,0,0,0,0,0,0,0,0,0,0,0,0,0,0,0,0,0,0,0,0,0,0,0,0,0,0,0,0,0,0,0,0,0,0,0,0,0,0,0,0,0],"sum_hessian":[1.5627869E3,1.0452446E3,5.175423E2,5.807488E2,4.6449582E2,4.055776E1,4.769845E2,6.9936714E0,5.737551E2,7.191399E1,3.9258185E2,1.2985399E1,2.757236E1,1.5662779E2,3.2035672E2,5.6680493E2,6.950152E0,1.1494886E1,6.04191E1,3.478099E2,4.477193E1,1.1287029E2,4.3757507E1,2.9453875E1,2.9090283E2,4.6895563E2,9.7849335E1,5.692923E1,3.4898703E0,3.2449673E2,2.331318E1,4.0796326E1,3.975604E0,8.0171646E1,3.2698647E1,2.394287E1,1.9814636E1,2.0694237E1,8.759639E0,5.074435E1,2.401585E2,4.5803806E2,1.0917574E1,8.100424E1,1.6845093E1,4.858631E1,8.342918E0,3.043293E2,2.0167427E1,4.373991E0,1.893919E1,7.675032E1,3.4213238E0,1.7030128E1,1.5668517E1,1.872452E1,5.2183504E0,3.997718E0,1.5816917E1,3.8720546E0,1.6822182E1,4.6350094E1,4.394258E0,1.2134423E2,1.18814255E2],"tree_param":{"num_deleted":"0","num_feature":"31","num_nodes":"65","size_leaf_vector":"1"}},{"base_weights":[1.0780356E-2,7.735809E-2,-4.1598782E-1,5.683628E-2,5.9157845E-2,3.2658887E-1,-5.0648147E-1,3.6529335E-1,-2.7053185E-5,9.358991E-1,-2.4747817E-2,-2.9930202E-2,-1.433556E-1,1.804027E-1,9.0448606E-1,6.343323E-2,-3.976951E-1,6.0552895E-2,2.0613423E-2,-2.8010199E-2,5.48596E-1,5.8213633E-1,-3.0701447E-2,1.1527264E0,-2.4133751E-2,-1.1627729E-1,2.2148502E-1,-4.724545E-1,6.355879E-1,-2.2349682E-2,6.0827255E-2,4.832793E-2,-1.3025912E-2,-1.8990772E-2,6.499412E-2,9.233214E-3,-1.6746443E-2,-5.5307816E-3,1.9902412E-2,4.9235642E-2,-2.6539782E-2,6.0889482E-2,-1.9442083E-2],"categories":[],"categories_nodes":[],"categories_segments":[],"categories_sizes":[],"default_left":[0,0,0,0,0,0,0,0,0,0,0,0,0,0,0,0,0,0,0,0,0,0,0,0,0,0,0,0,0,0,0,0,0,0,0,0,0,0,0,0,0,0,0],"id":25,"left_children":[1,3,5,7,-1,9,11,13,15,17,-1,-1,19,21,23,25,27,-1,-1,-1,29,31,-1,33,-1,35,37,39,41,-1,-1,-1,-1,-1,-1,-1,-1,-1,-1,-1,-1,-1,-1],"loss_changes":[3.2783722E1,2.2496546E1,1.071953E1,1.724153E1,0E0,9.609365E0,4.4984055E0,1.4951864E1,2.1012321E1,7.192993E-1,0E0,0E0,9.200329E0,3.751143E1,1.4166832E1,2.0419579E1,9.295099E0,0E0,0E0,0E0,8.902483E0,2.5602322E1,0E0,8.280926E0,0E0,2.2243568E1,2.249997E1,9.923712E0,5.7179956E0,0E0,0E0,0E0,0E0,0E0,0E0,0E0,0E0,0E0,0E0,0E0,0E0,0E0,0E0],"parents":[2147483647,0,0,1,1,2,2,3,3,5,5,6,6,7,7,8,8,9,9,12,12,13,13,14,14,15,15,16,16,20,20,21,21,23,23,25,25,26,26,27,27,28,28],"right_children":[2,4,6,8,-1,10,12,14,16,18,-1,-1,20,22,24,26,28,-1,-1,-1,30,32,-1,34,-1,36,38,40,42,-1,-1,-1,-1,-1,-1,-1,-1,-1,-1,-1,-1,-1,-1],"split_conditions":[1.6E1,7.633588E-1,9E0,1.5789473E-1,5.9157845E-2,7.5E0,7E0,3E0,5E0,7E1,-2.4747817E-2,-2.9930202E-2,3.4210527E-1,0E0,9E0,0E0,5E0,6.0552895E-2,2.0613423E-2,-2.8010199E-2,1.7E1,3E1,-3.0701447E-2,2.4E1,-2.4133751E-2,-1E0,2.8947368E-1,-1.2E1,4.2E1,-2.2349682E-2,6.0827255E-2,4.832793E-2,-1.3025912E-2,-1.8990772E-2,6.499412E-2,9.233214E-3,-1.6746443E-2,-5.5307816E-3,1.9902412E-2,4.9235642E-2,-2.6539782E-2,6.0889482E-2,-1.9442083E-2],"split_indices":[2,20,12,27,0,5,4,5,5,0,0,0,27,8,15,8,18,0,0,0,2,14,0,12,0,30,27,16,0,0,0,0,0,0,0,0,0,0,0,0,0,0,0],"split_type":[0,0,0,0,0,0,0,0,0,0,0,0,0,0,0,0,0,0,0,0,0,0,0,0,0,0,0,0,0,0,0,0,0,0,0,0,0,0,0,0,0,0,0],"sum_hessian":[1.1512147E3,9.970204E2,1.5419435E2,9.804472E2,1.6573177E1,1.626449E1,1.3792987E2,1.5148033E2,8.2896686E2,9.253543E0,7.0109463E0,1.0913312E2,2.8796747E1,1.1436043E2,3.7119904E1,7.158636E2,1.13103264E2,4.712503E0,4.5410404E0,1.8194063E1,1.0602684E1,7.6260345E1,3.810008E1,3.1731007E1,5.388895E0,3.350172E2,3.808464E2,1.0627655E2,6.8267136E0,4.426399E0,6.176285E0,5.2258568E1,2.400178E1,2.5423732E0,2.9188635E1,1.4098149E2,1.9403572E2,1.3229243E2,2.4855396E2,3.1413476E0,1.0313521E2,4.2034826E0,2.6232307E0],"tree_param":{"num_deleted":"0","num_feature":"31","num_nodes":"43","size_leaf_vector":"1"}},{"base_weights":[1.5973803E-2,3.2189456E-1,-2.803366E-1,6.216885E-1,1.9955407E-1,-1.9013168E-1,-5.837101E-1,9.072319E-1,4.1548204E-1,4.7924854E-2,3.7926418E-1,-2.2556847E-1,5.4402318E-2,3.222221E-1,-3.1546514E-2,9.6064925E-1,-1.9906856E-2,7.035111E-1,-2.2345985E-1,-3.327832E-2,1.282824E-1,7.1257776E-1,6.1029044E-4,5.1273324E-2,-2.3780577E-1,4.3403007E-2,-2.0848567E-2,1.4676318E-1,1.042181E0,-2.7836224E-2,8.255894E-1,-2.2707728E-3,-3.1393945E-2,2.2549748E-1,-3.0932513E-1,2.4390152E-1,1.1075796E0,6.061388E-1,-3.0191776E-1,-2.0230632E-1,-3.274712E-2,3.6780976E-2,-2.3503458E-2,2.7583493E-2,5.7129234E-2,4.7658138E-2,1.6563332E-2,4.222439E-2,-1.2756265E-2,3.8976145E-3,4.2206917E-2,-3.430174E-2,1.8727612E-2,-8.446962E-3,4.7256853E-2,6.0874667E-2,-2.314696E-2,-1.2198222E-2,5.9055317E-2,-6.2474277E-4,-3.1997163E-2,5.6316857E-3,-1.3447292E-2],"categories":[],"categories_nodes":[],"categories_segments":[],"categories_sizes":[],"default_left":[0,0,0,0,0,0,0,0,0,0,0,0,0,0,0,0,0,0,0,0,0,0,0,0,0,0,0,0,0,0,0,0,0,0,0,0,0,0,0,0,0,0,0,0,0,0,0,0,0,0,0,0,0,0,0,0,0,0,0,0,0,0,0],"id":26,"left_children":[1,3,5,7,9,11,13,15,17,19,21,23,-1,25,-1,27,-1,29,31,-1,33,35,37,-1,39,-1,-1,41,43,-1,45,47,-1,49,51,53,55,57,59,61,-1,-1,-1,-1,-1,-1,-1,-1,-1,-1,-1,-1,-1,-1,-1,-1,-1,-1,-1,-1,-1,-1,-1],"loss_changes":[1.1831837E2,2.3328598E1,1.7938122E1,1.0279404E1,1.2443661E1,2.3578848E1,6.78421E0,5.924656E0,2.0590023E1,1.4464419E1,2.6395664E1,7.993643E0,0E0,3.9652655E0,0E0,4.609024E0,0E0,1.2481468E1,3.1338673E0,0E0,9.735294E0,2.0133972E1,1.8538471E1,0E0,7.1214046E0,0E0,0E0,3.6275558E0,2.2590637E0,0E0,3.9042168E0,5.534121E0,0E0,1.6857664E1,1.1145472E1,1.55897045E1,1.1226906E1,1.6971622E1,6.5468097E0,9.718237E0,0E0,0E0,0E0,0E0,0E0,0E0,0E0,0E0,0E0,0E0,0E0,0E0,0E0,0E0,0E0,0E0,0E0,0E0,0E0,0E0,0E0,0E0,0E0],"parents":[2147483647,0,0,1,1,2,2,3,3,4,4,5,5,6,6,7,7,8,8,9,9,10,10,11,11,13,13,15,15,17,17,18,18,20,20,21,21,22,22,24,24,27,27,28,28,30,30,31,31,33,33,34,34,35,35,36,36,37,37,38,38,39,39],"right_children":[2,4,6,8,10,12,14,16,18,20,22,24,-1,26,-1,28,-1,30,32,-1,34,36,38,-1,40,-1,-1,42,44,-1,46,48,-1,50,52,54,56,58,60,62,-1,-1,-1,-1,-1,-1,-1,-1,-1,-1,-1,-1,-1,-1,-1,-1,-1,-1,-1,-1,-1,-1,-1],"split_conditions":[-1E0,-1.5E0,3.72E0,2.4E1,-5E-1,4.49E0,4.5E0,3.6E1,3.6E1,3.1E1,1.15E1,1.5E1,5.4402318E-2,1.5E1,-3.1546514E-2,9E0,-1.9906856E-2,3E1,2.02E0,-3.327832E-2,3.87E0,3.5E-1,3.3E1,5.1273324E-2,2.06E0,4.3403007E-2,-2.0848567E-2,1.5E1,-1.9E1,-2.7836224E-2,4.3E1,-2.4E1,-3.1393945E-2,3.68E0,3.94E0,4.5E1,3.4E1,3.05E0,2.01E0,-3E0,-3.274712E-2,3.6780976E-2,-2.3503458E-2,2.7583493E-2,5.7129234E-2,4.7658138E-2,1.6563332E-2,4.222439E-2,-1.2756265E-2,3.8976145E-3,4.2206917E-2,-3.430174E-2,1.8727612E-2,-8.446962E-3,4.7256853E-2,6.0874667E-2,-2.314696E-2,-1.2198222E-2,5.9055317E-2,-6.2474277E-4,-3.1997163E-2,5.6316857E-3,-1.3447292E-2],"split_indices":[15,8,23,14,5,18,3,0,1,1,3,0,0,1,0,4,0,14,17,0,18,23,0,0,17,0,0,0,15,0,14,15,0,18,17,1,14,18,19,5,0,0,0,0,0,0,0,0,0,0,0,0,0,0,0,0,0,0,0,0,0,0,0],"split_type":[0,0,0,0,0,0,0,0,0,0,0,0,0,0,0,0,0,0,0,0,0,0,0,0,0,0,0,0,0,0,0,0,0,0,0,0,0,0,0,0,0,0,0,0,0,0,0,0,0,0,0,0,0,0,0,0,0,0,0,0,0,0,0],"sum_hessian":[1.3022418E3,6.4074963E2,6.614921E2,1.8380544E2,4.5694418E2,5.118915E2,1.4960063E2,7.4835464E1,1.0896997E2,2.4901646E2,2.0792773E2,4.9932248E2,1.2569045E1,6.9261384E0,1.426745E2,7.231084E1,2.5246305E0,7.50602E1,3.390977E1,2.4038E1,2.2497845E2,1.0981086E2,9.8116875E1,3.5942452E0,4.9572824E2,3.8726337E0,3.0535045E0,7.0224996E0,6.528834E1,6.1210775E0,6.8939125E1,2.2975712E1,1.0934059E1,1.8477235E2,4.020611E1,5.138934E1,5.8421524E1,3.2242146E1,6.587473E1,4.590124E2,3.671584E1,3.4864092E0,3.5360904E0,1.2833151E1,5.2455185E1,5.3610107E1,1.5329014E1,4.430707E0,1.8545006E1,1.5061957E2,3.415278E1,2.59694E1,1.4236707E1,3.3017914E1,1.8371426E1,5.4945164E1,3.47636E0,1.3321927E1,1.8920218E1,3.640637E1,2.9468363E1,7.985064E1,3.7916174E2],"tree_param":{"num_deleted":"0","num_feature":"31","num_nodes":"63","size_leaf_vector":"1"}},{"base_weights":[3.6231268E-4,-1.980861E-1,4.0700072E-1,-3.4771115E-1,-1.2974754E-2,-2.9052505E-1,4.6810484E-1,-3.641053E-1,3.8259313E-2,-8.209058E-2,4.4451872E-1,3.6403652E-2,-3.7311014E-2,1.9234347E-1,6.038251E-1,-2.979679E-1,-6.6054535E-1,-1.0812489E-1,4.413682E-2,-3.2982104E-2,5.563581E-1,4.2004457E-1,-1.4299299E-1,6.1271768E-2,6.590504E-1,-3.2856286E-1,3.9763674E-2,-7.401835E-1,2.3590405E-1,-3.1177424E-2,-5.2792674E-1,6.5298474E-1,-3.2465722E-2,5.3299737E-1,-2.7153882E-1,-3.9884005E-2,7.977776E-2,4.3507135E-1,-3.5743844E-2,5.4607433E-1,7.565127E-1,-5.3471546E-3,-2.2967752E-2,-3.98238E-2,-2.1130426E-2,-2.7160648E-2,4.3396037E-2,-5.8374167E-3,3.1722587E-2,-3.2846116E-2,3.6443878E-2,-2.6936641E-2,3.68426E-2,2.960678E-2,-2.8889341E-2,3.0992407E-2,-3.503597E-2,-2.4329705E-2,2.702379E-2,-3.0592931E-2,3.7316408E-2,-3.9302275E-2,2.9712472E-2,3.9839216E-2,2.652872E-2],"categories":[],"categories_nodes":[],"categories_segments":[],"categories_sizes":[],"default_left":[0,0,0,0,0,0,0,0,0,0,0,0,0,0,0,0,0,0,0,0,0,0,0,0,0,0,0,0,0,0,0,0,0,0,0,0,0,0,0,0,0,0,0,0,0,0,0,0,0,0,0,0,0,0,0,0,0,0,0,0,0,0,0,0,0],"id":27,"left_children":[1,3,5,7,9,11,13,15,-1,17,19,-1,-1,21,23,25,27,29,-1,-1,31,33,35,37,39,41,-1,43,45,47,49,51,-1,53,55,-1,57,59,-1,61,63,-1,-1,-1,-1,-1,-1,-1,-1,-1,-1,-1,-1,-1,-1,-1,-1,-1,-1,-1,-1,-1,-1,-1,-1],"loss_changes":[1.2717901E2,2.9305634E1,2.224485E1,1.1078621E1,1.5057962E1,2.0540821E1,1.7598106E1,1.0988358E1,0E0,1.0505279E1,8.261981E0,0E0,0E0,1.2267399E1,9.435333E0,1.6270054E1,7.7158623E0,1.3016264E1,0E0,0E0,7.3461456E0,7.6781864E0,9.677339E0,9.483298E0,2.4918213E0,1.3335274E1,0E0,1.1499901E0,5.4388456E0,1.9656246E1,1.0843195E1,6.013344E0,0E0,5.9351425E0,6.1329727E0,0E0,1.3480612E1,7.8558307E0,0E0,9.627129E0,6.71196E-1,0E0,0E0,0E0,0E0,0E0,0E0,0E0,0E0,0E0,0E0,0E0,0E0,0E0,0E0,0E0,0E0,0E0,0E0,0E0,0E0,0E0,0E0,0E0,0E0],"parents":[2147483647,0,0,1,1,2,2,3,3,4,4,5,5,6,6,7,7,9,9,10,10,13,13,14,14,15,15,16,16,17,17,20,20,21,21,22,22,23,23,24,24,25,25,27,27,28,28,29,29,30,30,31,31,33,33,34,34,36,36,37,37,39,39,40,40],"right_children":[2,4,6,8,10,12,14,16,-1,18,20,-1,-1,22,24,26,28,30,-1,-1,32,34,36,38,40,42,-1,44,46,48,50,52,-1,54,56,-1,58,60,-1,62,64,-1,-1,-1,-1,-1,-1,-1,-1,-1,-1,-1,-1,-1,-1,-1,-1,-1,-1,-1,-1,-1,-1,-1,-1],"split_conditions":[7E0,-5E0,2.9E1,4E0,5.7894737E-1,1.69E0,8E0,-8E0,3.8259313E-2,2.69E0,2.5E0,3.6403652E-2,-3.7311014E-2,1.3E1,4.5E0,3.72E0,1E0,2.11E0,4.413682E-2,-3.2982104E-2,6.7E1,1.4E0,1.72E0,1.9E1,3.62E0,3.4E1,3.9763674E-2,3.6E1,1.72E0,4E1,3.5E1,-8E0,-3.2465722E-2,5.2E1,4.5E1,-3.9884005E-2,3.6842105E-1,1.1E1,-3.5743844E-2,1.84E0,4.3E1,-5.3471546E-3,-2.2967752E-2,-3.98238E-2,-2.1130426E-2,-2.7160648E-2,4.3396037E-2,-5.8374167E-3,3.1722587E-2,-3.2846116E-2,3.6443878E-2,-2.6936641E-2,3.68426E-2,2.960678E-2,-2.8889341E-2,3.0992407E-2,-3.503597E-2,-2.4329705E-2,2.702379E-2,-3.0592931E-2,3.7316408E-2,-3.9302275E-2,2.9712472E-2,3.9839216E-2,2.652872E-2],"split_indices":[2,2,0,16,27,17,16,2,0,17,3,0,0,3,3,19,10,17,0,0,0,29,17,2,18,12,0,0,17,13,12,5,0,2,0,0,27,2,0,17,11,0,0,0,0,0,0,0,0,0,0,0,0,0,0,0,0,0,0,0,0,0,0,0,0],"split_type":[0,0,0,0,0,0,0,0,0,0,0,0,0,0,0,0,0,0,0,0,0,0,0,0,0,0,0,0,0,0,0,0,0,0,0,0,0,0,0,0,0,0,0,0,0,0,0,0,0,0,0,0,0,0,0,0,0,0,0,0,0,0,0,0,0],"sum_hessian":[1.5728835E3,1.0574642E3,5.1541925E2,5.8390643E2,4.735579E2,4.0995102E1,4.7442416E2,5.7646857E2,7.4378166E0,4.1256915E2,6.098874E1,1.2360297E1,2.8634806E1,1.577982E2,3.1662598E2,4.739125E2,1.0255609E2,4.0307648E2,9.492654E0,4.892465E0,5.6096275E1,9.38453E1,6.3952904E1,2.9627222E1,2.8699875E2,4.6207596E2,1.1836524E1,9.4479996E1,8.076096E0,3.4210156E2,6.0974915E1,5.2609085E1,3.4871898E0,8.102772E1,1.2817582E1,1.5310675E1,4.8642227E1,2.0485046E1,9.142175E0,1.3774515E2,1.492536E2,1.7264603E2,2.8942993E2,7.819917E1,1.6280825E1,3.6760743E0,4.400021E0,3.042946E2,3.7807003E1,5.598453E1,4.9903812E0,2.8848562E0,4.9724228E1,7.763957E1,3.3881445E0,3.9112396E0,8.9063425E0,2.1732244E1,2.6909985E1,