{"learner":{"attributes":{"scikit_learn":"{\"_estimator_type\": \"classifier\"}"},"feature_names":[],"feature_types":[],"gradient_booster":{"model":{"cats":{"enc":[],"feature_segments":[],"sorted_idx":[]},"gbtree_model_param":{"num_parallel_tree":"1","num_trees":"600"},"iteration_indptr":[0,3,6,9,12,15,18,21,24,27,30,33,36,39,42,45,48,51,54,57,60,63,66,69,72,75,78,81,84,87,90,93,96,99,102,105,108,111,114,117,120,123,126,129,132,135,138,141,144,147,150,153,156,159,162,165,168,171,174,177,180,183,186,189,192,195,198,201,204,207,210,213,216,219,222,225,228,231,234,237,240,243,246,249,252,255,258,261,264,267,270,273,276,279,282,285,288,291,294,297,300,303,306,309,312,315,318,321,324,327,330,333,336,339,342,345,348,351,354,357,360,363,366,369,372,375,378,381,384,387,390,393,396,399,402,405,408,411,414,417,420,423,426,429,432,435,438,441,444,447,450,453,456,459,462,465,468,471,474,477,480,483,486,489,492,495,498,501,504,507,510,513,516,519,522,525,528,531,534,537,540,543,546,549,552,555,558,561,564,567,570,573,576,579,582,585,588,591,594,597,600],"tree_info":[0,1,2,0,1,2,0,1,2,0,1,2,0,1,2,0,1,2,0,1,2,0,1,2,0,1,2,0,1,2,0,1,2,0,1,2,0,1,2,0,1,2,0,1,2,0,1,2,0,1,2,0,1,2,0,1,2,0,1,2,0,1,2,0,1,2,0,1,2,0,1,2,0,1,2,0,1,2,0,1,2,0,1,2,0,1,2,0,1,2,0,1,2,0,1,2,0,1,2,0,1,2,0,1,2,0,1,2,0,1,2,0,1,2,0,1,2,0,1,2,0,1,2,0,1,2,0,1,2,0,1,2,0,1,2,0,1,2,0,1,2,0,1,2,0,1,2,0,1,2,0,1,2,0,1,2,0,1,2,0,1,2,0,1,2,0,1,2,0,1,2,0,1,2,0,1,2,0,1,2,0,1,2,0,1,2,0,1,2,0,1,2,0,1,2,0,1,2,0,1,2,0,1,2,0,1,2,0,1,2,0,1,2,0,1,2,0,1,2,0,1,2,0,1,2,0,1,2,0,1,2,0,1,2,0,1,2,0,1,2,0,1,2,0,1,2,0,1,2,0,1,2,0,1,2,0,1,2,0,1,2,0,1,2,0,1,2,0,1,2,0,1,2,0,1,2,0,1,2,0,1,2,0,1,2,0,1,2,0,1,2,0,1,2,0,1,2,0,1,2,0,1,2,0,1,2,0,1,2,0,1,2,0,1,2,0,1,2,0,1,2,0,1,2,0,1,2,0,1,2,0,1,2,0,1,2,0,1,2,0,1,2,0,1,2,0,1,2,0,1,2,0,1,2,0,1,2,0,1,2,0,1,2,0,1,2,0,1,2,0,1,2,0,1,2,0,1,2,0,1,2,0,1,2,0,1,2,0,1,2,0,1,2,0,1,2,0,1,2,0,1,2,0,1,2,0,1,2,0,1,2,0,1,2,0,1,2,0,1,2,0,1,2,0,1,2,0,1,2,0,1,2,0,1,2,0,1,2,0,1,2,0,1,2,0,1,2,0,1,2,0,1,2,0,1,2,0,1,2,0,1,2,0,1,2,0,1,2,0,1,2,0,1,2,0,1,2,0,1,2,0,1,2,0,1,2,0,1,2,0,1,2,0,1,2,0,1,2,0,1,2,0,1,2,0,1,2,0,1,2,0,1,2,0,1,2,0,1,2,0,1,2,0,1,2,0,1,2,0,1,2,0,1,2,0,1,2,0,1,2,0,1,2,0,1,2,0,1,2,0,1,2,0,1,2,0,1,2,0,1,2,0,1,2,0,1,2,0,1,2,0,1,2,0,1,2,0,1,2,0,1,2,0,1,2,0,1,2,0,1,2,0,1,2,0,1,2,0,1,2],"trees":[{"base_weights":[-1.0021075E-3,-1.8918717E-1,4.5934182E-1,-4.120474E-1,1.9615388E-2,6.649069E-1,1.7513852E-1,4.081544E-2,-5.946665E-1,-5.169563E-1,1.6109401E-1,4.1460627E-1,7.8111976E-1,3.1828113E-2,-5.0595123E-2,1.8624516E-2,-2.0942904E-2,-7.0274067E-1,-2.9434323E-1,-3.9154153E-2,-3.8330161E-3,2.9805461E-2,4.282468E-3,7.2951927E-3,2.955161E-2,4.5773603E-2,1.84234E-2,-1.737944E-2,1.5479599E-2,-2.3095438E-2,-4.0028263E-2,-2.826686E-2,1.7806262E-3,-2.6711857E-2,9.629223E-3],"categories":[],"categories_nodes":[],"categories_segments":[],"categories_sizes":[],"default_left":[0,0,0,0,0,0,0,0,0,0,0,0,0,0,0,0,0,0,0,0,0,0,0,0,0,0,0,0,0,0,0,0,0,0,0],"id":0,"left_children":[1,3,5,7,9,11,13,15,17,19,21,23,25,-1,27,-1,-1,29,31,-1,-1,-1,33,-1,-1,-1,-1,-1,-1,-1,-1,-1,-1,-1,-1],"loss_changes":[9.683991E0,3.7003021E0,1.7786379E0,3.2021503E0,3.2654943E0,2.1326733E-1,1.5917091E0,1.9822534E0,6.8402576E-1,9.926877E-1,2.3123238E0,2.9235923E-1,2.9909658E-1,0E0,1.2822037E0,0E0,0E0,8.875656E-2,8.234639E-1,0E0,0E0,0E0,2.73439E0,0E0,0E0,0E0,0E0,0E0,0E0,0E0,0E0,0E0,0E0,0E0,0E0],"parents":[2147483647,0,0,1,1,2,2,3,3,4,4,5,5,6,6,7,7,8,8,9,9,10,10,11,11,12,12,14,14,17,17,18,18,22,22],"right_children":[2,4,6,8,10,12,14,16,18,20,22,24,26,-1,28,-1,-1,30,32,-1,-1,-1,34,-1,-1,-1,-1,-1,-1,-1,-1,-1,-1,-1,-1],"split_conditions":[4.13E0,3.6E1,3.6E1,2.8947368E-1,-7E0,5.5E0,4.44E0,1.8E0,3.01E0,3.07E0,0E0,3E1,5.9E1,3.1828113E-2,3E0,1.8624516E-2,-2.0942904E-2,4.2E1,2E0,-3.9154153E-2,-3.8330161E-3,2.9805461E-2,4E0,7.2951927E-3,2.955161E-2,4.5773603E-2,1.84234E-2,-1.737944E-2,1.5479599E-2,-2.3095438E-2,-4.0028263E-2,-2.826686E-2,1.7806262E-3,-2.6711857E-2,9.629223E-3],"split_indices":[18,11,13,26,16,23,18,28,19,18,16,1,11,0,16,0,0,1,17,0,0,0,16,0,0,0,0,0,0,0,0,0,0,0,0],"split_type":[0,0,0,0,0,0,0,0,0,0,0,0,0,0,0,0,0,0,0,0,0,0,0,0,0,0,0,0,0,0,0,0,0,0,0],"sum_hessian":[1.0978271E2,7.834493E1,3.1437775E1,3.7425922E1,4.0919006E1,1.746543E1,1.3972344E1,1.0978271E1,2.644765E1,7.9841967E0,3.293481E1,6.986172E0,1.0479259E1,3.9920983E0,9.980246E0,6.4871597E0,4.491111E0,1.8463455E1,7.9841967E0,4.491111E0,3.493086E0,7.9841967E0,2.4950615E1,3.493086E0,3.493086E0,6.986172E0,3.493086E0,5.4891353E0,4.491111E0,6.986172E0,1.1477283E1,3.9920983E0,3.9920983E0,5.9881477E0,1.8962467E1],"tree_param":{"num_deleted":"0","num_feature":"30","num_nodes":"35","size_leaf_vector":"1"}},{"base_weights":[3.3681765E-2,-4.400482E-1,1.2701361E-1,-7.2018364E-3,-2.860227E-2,4.614766E-1,-7.1943E-2,-7.653673E-2,8.9389163E-1,3.5052467E-2,-1.556153E-1,1.4993458E-2,-2.0073254E-2,1.1051164E0,1.5066752E-2,2.7172256E-4,-2.535258E-2,3.611504E-2,7.090161E-2,1.2842474E-2,-2.0307515E-2],"categories":[],"categories_nodes":[],"categories_segments":[],"categories_sizes":[],"default_left":[0,0,0,0,0,0,0,0,0,0,0,0,0,0,0,0,0,0,0,0,0],"id":1,"left_children":[1,3,5,-1,-1,7,9,11,13,-1,15,-1,-1,17,-1,19,-1,-1,-1,-1,-1],"loss_changes":[3.4007678E0,4.1286635E-1,4.290422E0,0E0,0E0,5.6511984E0,2.7595615E0,1.5408365E0,1.342042E0,0E0,2.0707235E0,0E0,0E0,1.12695694E-1,0E0,2.9387438E0,0E0,0E0,0E0,0E0,0E0],"parents":[2147483647,0,0,1,1,2,2,5,5,6,6,7,7,8,8,10,10,13,13,15,15],"right_children":[2,4,6,-1,-1,8,10,12,14,-1,16,-1,-1,18,-1,20,-1,-1,-1,-1,-1],"split_conditions":[-1.4E1,4.5E0,0E0,-7.2018364E-3,-2.860227E-2,3.8E1,3.3E1,0E0,6.5E0,3.5052467E-2,4.92E0,1.4993458E-2,-2.0073254E-2,-4E0,1.5066752E-2,4.1E1,-2.535258E-2,3.611504E-2,7.090161E-2,1.2842474E-2,-2.0307515E-2],"split_indices":[16,3,29,0,0,12,14,8,3,0,18,0,0,16,0,12,0,0,0,0,0],"split_type":[0,0,0,0,0,0,0,0,0,0,0,0,0,0,0,0,0,0,0,0,0],"sum_hessian":[7.465181E1,1.1675401E1,6.2976406E1,4.2456E0,7.4298005E0,2.2997002E1,3.9979404E1,1.0614001E1,1.2383001E1,3.1842003E0,3.6795204E1,4.9532003E0,5.6608005E0,8.4912E0,3.8918004E0,2.6181202E1,1.0614001E1,5.3070006E0,3.1842003E0,1.6274801E1,9.906401E0],"tree_param":{"num_deleted":"0","num_feature":"30","num_nodes":"21","size_leaf_vector":"1"}},{"base_weights":[-8.4311284E-2,2.3995021E-1,-4.128332E-1,-1.7259763E-1,5.6096196E-1,7.035788E-3,-4.8165423E-1,-2.941826E-2,3.439388E-3,9.10819E-1,1.4354728E-1,-2.6190427E-1,-2.9837782E-2,-4.0148124E-1,2.5044221E-2,6.0408545E-1,6.7362435E-2,-4.0148124E-1,5.6781944E-2,-1.4901787E-2,-2.9802421E-2,-3.9513465E-3,-2.8976833E-2,1.0448904E-2,4.3048408E-2,-2.8976833E-2,-3.9513465E-3,1.445999E-2,-1.2661031E-2],"categories":[],"categories_nodes":[],"categories_segments":[],"categories_sizes":[],"default_left":[0,0,0,0,0,0,0,0,0,0,0,0,0,0,0,0,0,0,0,0,0,0,0,0,0,0,0,0,0],"id":2,"left_children":[1,3,5,7,9,-1,11,-1,13,15,17,19,-1,21,-1,23,-1,25,-1,27,-1,-1,-1,-1,-1,-1,-1,-1,-1],"loss_changes":[9.289855E0,5.930786E0,1.7144432E0,1.4689339E0,3.5215921E0,0E0,8.2182693E-1,0E0,3.237547E0,9.8250675E-1,7.264123E0,1.235307E0,0E0,4.6320117E-1,0E0,8.0390525E-1,0E0,4.6320117E-1,0E0,7.7573174E-1,0E0,0E0,0E0,0E0,0E0,0E0,0E0,0E0,0E0],"parents":[2147483647,0,0,1,1,2,2,3,3,4,4,6,6,8,8,9,9,10,10,11,11,13,13,15,15,17,17,19,19],"right_children":[2,4,6,8,10,-1,12,-1,14,16,18,20,-1,22,-1,24,-1,26,-1,28,-1,-1,-1,-1,-1,-1,-1,-1,-1],"split_conditions":[2E0,3.8E1,3.2E1,1.89E0,3.56E0,7.035788E-3,7.2E-1,-2.941826E-2,0E0,6.1E1,4.02E0,4E0,-2.9837782E-2,-4E-1,2.5044221E-2,4.4E1,6.7362435E-2,4.2E1,5.6781944E-2,3.6E1,-2.9802421E-2,-3.9513465E-3,-2.8976833E-2,1.0448904E-2,4.3048408E-2,-2.8976833E-2,-3.9513465E-3,1.445999E-2,-1.2661031E-2],"split_indices":[16,13,11,17,18,0,23,0,29,1,18,5,0,29,0,12,0,0,0,13,0,0,0,0,0,0,0,0,0],"split_type":[0,0,0,0,0,0,0,0,0,0,0,0,0,0,0,0,0,0,0,0,0,0,0,0,0,0,0,0,0],"sum_hessian":[8.527667E1,4.30523E1,4.222437E1,1.9042364E1,2.4009937E1,4.5536084E0,3.767076E1,4.967573E0,1.407479E1,1.2418933E1,1.1591003E1,1.407479E1,2.3595972E1,7.865324E0,6.2094665E0,8.693253E0,3.7256799E0,7.865324E0,3.7256799E0,8.693253E0,5.3815374E0,3.3117154E0,4.5536084E0,4.139644E0,4.5536084E0,4.5536084E0,3.3117154E0,3.7256799E0,4.967573E0],"tree_param":{"num_deleted":"0","num_feature":"30","num_nodes":"29","size_leaf_vector":"1"}},{"base_weights":[-1.585125E-2,-1.5645753E-1,4.6476886E-1,1.2156259E-1,-3.129897E-1,1.4663165E-3,6.0062104E-1,-3.404028E-2,3.6233388E-2,-1.7846179E-1,-6.30177E-1,9.498403E-3,7.336407E-1,-2.6912615E-1,2.4139693E-1,2.3390529E-1,-3.533502E-1,-3.909717E-2,-3.4421755E-3,4.1398387E-2,1.7523497E-2,-4.398313E-4,-3.810125E-2,-1.210125E-3,2.6641676E-2,2.8147677E-2,-1.86077E-2,-2.3489628E-2,1.8575707E-2],"categories":[],"categories_nodes":[],"categories_segments":[],"categories_sizes":[],"default_left":[0,0,0,0,0,0,0,0,0,0,0,0,0,0,0,0,0,0,0,0,0,0,0,0,0,0,0,0,0],"id":3,"left_children":[1,3,5,7,9,-1,11,13,-1,15,17,-1,19,21,23,25,27,-1,-1,-1,-1,-1,-1,-1,-1,-1,-1,-1,-1],"loss_changes":[7.4557176E0,3.7490005E0,1.460063E0,2.9748163E0,2.2273932E0,0E0,8.978524E-1,1.7448952E0,0E0,2.9601398E0,1.3037605E0,0E0,2.1557045E-1,1.8500688E0,9.7845036E-1,2.6991105E0,2.5729473E0,0E0,0E0,0E0,0E0,0E0,0E0,0E0,0E0,0E0,0E0,0E0,0E0],"parents":[2147483647,0,0,1,1,2,2,3,3,4,4,6,6,7,7,9,9,10,10,12,12,13,13,14,14,15,15,16,16],"right_children":[2,4,6,8,10,-1,12,14,-1,16,18,-1,20,22,24,26,28,-1,-1,-1,-1,-1,-1,-1,-1,-1,-1,-1,-1],"split_conditions":[5.22E0,3.7E1,4.1E1,4.6E1,1E1,1.4663165E-3,4.5E0,1E1,3.6233388E-2,2.8947368E-1,-1.1E1,9.498403E-3,3.6E1,4.473684E-1,3.61E0,1.5E0,1E0,-3.909717E-2,-3.4421755E-3,4.1398387E-2,1.7523497E-2,-4.398313E-4,-3.810125E-2,-1.210125E-3,2.6641676E-2,2.8147677E-2,-1.86077E-2,-2.3489628E-2,1.8575707E-2],"split_indices":[19,12,14,14,4,0,5,4,0,26,15,0,1,26,18,5,10,0,0,0,0,0,0,0,0,0,0,0,0],"split_type":[0,0,0,0,0,0,0,0,0,0,0,0,0,0,0,0,0,0,0,0,0,0,0,0,0,0,0,0,0],"sum_hessian":[1.0825121E2,8.427181E1,2.3979403E1,3.0436432E1,5.383538E1,5.9913626E0,1.798804E1,2.494429E1,5.492141E0,3.8899616E1,1.4935766E1,4.9951935E0,1.2992847E1,1.3470296E1,1.1473994E1,1.14840555E1,2.741556E1,1.1447677E1,3.48809E0,9.494666E0,3.4981813E0,9.480775E0,3.9895213E0,6.4828405E0,4.9911537E0,7.4891114E0,3.9949448E0,2.3924252E1,3.4913075E0],"tree_param":{"num_deleted":"0","num_feature":"30","num_nodes":"29","size_leaf_vector":"1"}},{"base_weights":[4.833635E-2,1.5672025E-1,-3.3584177E-1,-3.3004862E-1,2.586827E-1,-2.832259E-2,-1.3977197E-1,-3.274994E-3,-2.7135346E-2,3.9960094E-2,2.0382847E-1,1.0256961E-2,-2.6400372E-2,2.6206216E-1,-2.4709841E-2,8.508655E-3,3.912799E-2],"categories":[],"categories_nodes":[],"categories_segments":[],"categories_sizes":[],"default_left":[0,0,0,0,0,0,0,0,0,0,0,0,0,0,0,0,0],"id":4,"left_children":[1,3,5,7,9,-1,11,-1,-1,-1,13,-1,-1,15,-1,-1,-1],"loss_changes":[3.4311724E0,3.2602067E0,7.4249244E-1,6.124308E-1,1.4218593E0,0E0,1.6012671E0,0E0,0E0,0E0,2.1565404E0,0E0,0E0,2.0994782E0,0E0,0E0,0E0],"parents":[2147483647,0,0,1,1,2,2,3,3,4,4,6,6,10,10,13,13],"right_children":[2,4,6,8,10,-1,12,-1,-1,-1,14,-1,-1,16,-1,-1,-1],"split_conditions":[3.94E0,-1.4E1,6.84E0,-2E1,1.65E0,-2.832259E-2,1.9E1,-3.274994E-3,-2.7135346E-2,3.9960094E-2,7.631579E-1,1.0256961E-2,-2.6400372E-2,6.5789473E-1,-2.4709841E-2,8.508655E-3,3.912799E-2],"split_indices":[23,16,19,16,17,0,16,0,0,0,26,0,0,26,0,0,0],"split_type":[0,0,0,0,0,0,0,0,0,0,0,0,0,0,0,0,0],"sum_hessian":[8.013934E1,6.296718E1,1.7172167E1,1.0517874E1,5.2449306E1,7.022975E0,1.0149192E1,5.2699795E0,5.2478943E0,3.5821533E0,4.8867153E1,5.6242123E0,4.5249796E0,4.568074E1,3.186411E0,3.9954147E1,5.7265954E0],"tree_param":{"num_deleted":"0","num_feature":"30","num_nodes":"17","size_leaf_vector":"1"}},{"base_weights":[4.7700923E-2,8.4476584E-1,-1.9763318E-1,1.589761E-2,9.9266297E-1,-1.2547785E-2,-3.5811445E-1,6.245288E-2,2.0747935E-2,-2.0287323E-1,4.131896E-1,4.9922254E-2,-4.400984E-1,3.9964132E-2,-4.2468908E-1,-6.3063973E-3,4.6049964E-2,-1.5377059E-2,1.9853104E-2,7.545194E-3,-5.1046056E-1,2.4947567E-2,-1.7528854E-2,-4.060096E-3,-3.0890396E-2,-1.0598011E-2,-2.9244069E-2],"categories":[],"categories_nodes":[],"categories_segments":[],"categories_sizes":[],"default_left":[0,0,0,0,0,0,0,0,0,0,0,0,0,0,0,0,0,0,0,0,0,0,0,0,0,0,0],"id":5,"left_children":[1,3,5,-1,7,9,11,-1,-1,13,15,17,19,21,23,-1,-1,-1,-1,-1,25,-1,-1,-1,-1,-1,-1],"loss_changes":[1.9024124E1,1.4674911E0,2.2097642E0,0E0,2.0586605E0,2.97299E0,1.3564296E0,0E0,0E0,1.380367E0,3.223183E0,1.0617458E0,1.462573E0,2.5046883E0,8.33014E-1,0E0,0E0,0E0,0E0,0E0,5.4252005E-1,0E0,0E0,0E0,0E0,0E0,0E0],"parents":[2147483647,0,0,1,1,2,2,4,4,5,5,6,6,9,9,10,10,11,11,12,12,13,13,14,14,20,20],"right_children":[2,4,6,-1,8,10,12,-1,-1,14,16,18,20,22,24,-1,-1,-1,-1,-1,26,-1,-1,-1,-1,-1,-1],"split_conditions":[-1.2E1,-2.2E1,4E0,1.589761E-2,3.62E0,-1E0,4.1E1,6.245288E-2,2.0747935E-2,-6E0,4.1E1,0E0,5E0,8.5E0,4.1E1,-6.3063973E-3,4.6049964E-2,-1.5377059E-2,1.9853104E-2,7.545194E-3,0E0,2.4947567E-2,-1.7528854E-2,-4.060096E-3,-3.0890396E-2,-1.0598011E-2,-2.9244069E-2],"split_indices":[2,15,15,0,18,15,0,0,0,2,0,16,2,4,1,0,0,0,0,0,7,0,0,0,0,0,0],"split_type":[0,0,0,0,0,0,0,0,0,0,0,0,0,0,0,0,0,0,0,0,0,0,0,0,0,0,0],"sum_hessian":[9.543284E1,2.1885572E1,7.354727E1,5.4877787E0,1.6397793E1,3.4656086E1,3.8891182E1,1.0552373E1,5.84542E0,2.4311247E1,1.034484E1,6.5722017E0,3.2318977E1,1.1997059E1,1.2314189E1,5.3812866E0,4.963553E0,3.294154E0,3.2780478E0,3.3166132E0,2.9002365E1,5.387619E0,6.6094394E0,4.9429607E0,7.371228E0,6.555706E0,2.244666E1],"tree_param":{"num_deleted":"0","num_feature":"30","num_nodes":"27","size_leaf_vector":"1"}},{"base_weights":[-4.498505E-2,-2.0014805E-1,5.1092535E-1,-3.4379184E-1,1.0871084E-1,3.220399E-1,3.9494924E-2,-2.2081782E-1,-7.2321165E-1,-5.6597333E-2,2.6433734E-2,5.253967E-1,-1.5725153E-2,-3.8327235E-1,4.8785594E-1,-1.4103713E-2,-4.215934E-2,3.0020234E-1,-4.088893E-1,3.769336E-2,4.8734667E-3,-5.6127845E-3,-3.3157047E-2,4.145552E-2,2.3970003E-3,3.1284343E-2,-1.5457298E-2,-5.199747E-3,-3.7709307E-2],"categories":[],"categories_nodes":[],"categories_segments":[],"categories_sizes":[],"default_left":[0,0,0,0,0,0,0,0,0,0,0,0,0,0,0,0,0,0,0,0,0,0,0,0,0,0,0,0,0],"id":6,"left_children":[1,3,5,7,9,11,-1,13,15,17,-1,19,-1,21,23,-1,-1,25,27,-1,-1,-1,-1,-1,-1,-1,-1,-1,-1],"loss_changes":[9.473166E0,3.8373828E0,1.0096278E0,2.5792952E0,1.9702649E0,2.235281E0,0E0,5.45672E0,4.9938297E-1,2.757181E0,0E0,1.1480622E0,0E0,2.79243E0,1.3077729E0,0E0,0E0,2.3729665E0,1.0763968E0,0E0,0E0,0E0,0E0,0E0,0E0,0E0,0E0,0E0,0E0],"parents":[2147483647,0,0,1,1,2,2,3,3,4,4,5,5,7,7,8,8,9,9,11,11,13,13,14,14,17,17,18,18],"right_children":[2,4,6,8,10,12,-1,14,16,18,-1,20,-1,22,24,-1,-1,26,28,-1,-1,-1,-1,-1,-1,-1,-1,-1,-1],"split_conditions":[5.22E0,3E0,1.46E0,1.94E0,1.61E0,1.42E0,3.9494924E-2,3.72E0,3.67E0,2.631579E-1,2.6433734E-2,5.9E1,-1.5725153E-2,3.4210527E-1,3.3E1,-1.4103713E-2,-4.215934E-2,3.5E1,3.9E1,3.769336E-2,4.8734667E-3,-5.6127845E-3,-3.3157047E-2,4.145552E-2,2.3970003E-3,3.1284343E-2,-1.5457298E-2,-5.199747E-3,-3.7709307E-2],"split_indices":[19,15,17,23,23,17,0,18,18,26,0,11,0,26,14,0,0,12,1,0,0,0,0,0,0,0,0,0,0],"split_type":[0,0,0,0,0,0,0,0,0,0,0,0,0,0,0,0,0,0,0,0,0,0,0,0,0,0,0,0,0],"sum_hessian":[1.0763972E2,8.465202E1,2.2987696E1,5.7702633E1,2.6949392E1,1.499163E1,7.996066E0,4.477316E1,1.2929473E1,1.9958475E1,6.990917E0,1.14941845E1,3.4974458E0,3.6797066E1,7.976094E0,3.481058E0,9.448416E0,9.989259E0,9.969215E0,6.9968796E0,4.4973044E0,1.9405977E1,1.7391088E1,3.9935162E0,3.9825773E0,6.4937806E0,3.4954786E0,5.9853625E0,3.983853E0],"tree_param":{"num_deleted":"0","num_feature":"30","num_nodes":"29","size_leaf_vector":"1"}},{"base_weights":[2.0584026E-3,1.6950274E-1,-2.48561E-1,3.4534553E-1,-2.9730994E-1,-1.4721537E-1,-2.804102E-2,-2.1949877E-1,5.082528E-1,-4.698429E-1,5.218015E-3,-2.5412956E-1,2.1799644E-2,1.6958636E-3,-2.4543157E-2,-2.5926359E-2,6.745505E-1,-1.1953743E-2,-2.7129984E-2,1.1812469E-1,-4.144153E-1,-2.4840627E-2,2.2487119E-2,4.8089672E-2,1.9487035E-2,2.3104083E-2,-1.2721433E-2,-2.9236665E-2,-3.812546E-3],"categories":[],"categories_nodes":[],"categories_segments":[],"categories_sizes":[],"default_left":[0,0,0,0,0,0,0,0,0,0,0,0,0,0,0,0,0,0,0,0,0,0,0,0,0,0,0,0,0],"id":7,"left_children":[1,3,5,7,9,11,-1,13,15,17,-1,19,-1,-1,-1,21,23,-1,-1,25,27,-1,-1,-1,-1,-1,-1,-1,-1],"loss_changes":[3.3004842E0,3.9722614E0,9.1441965E-1,3.305005E0,9.8016655E-1,1.6783928E0,0E0,5.989131E-1,2.4370937E0,3.1135798E-2,0E0,1.3543196E0,0E0,0E0,0E0,1.8875197E0,1.3274736E0,0E0,0E0,1.0610733E0,8.489821E-1,0E0,0E0,0E0,0E0,0E0,0E0,0E0,0E0],"parents":[2147483647,0,0,1,1,2,2,3,3,4,4,5,5,7,7,8,8,9,9,11,11,15,15,16,16,19,19,20,20],"right_children":[2,4,6,8,10,12,-1,14,16,18,-1,20,-1,-1,-1,22,24,-1,-1,26,28,-1,-1,-1,-1,-1,-1,-1,-1],"split_conditions":[4E1,3.94E0,-1E0,1E0,3.9E1,3.31E0,-2.804102E-2,4.1E1,1E0,5E-1,5.218015E-3,3.1578946E-1,2.1799644E-2,1.6958636E-3,-2.4543157E-2,3.13E0,3E0,-1.1953743E-2,-2.7129984E-2,1.2E0,6.5789473E-1,-2.4840627E-2,2.2487119E-2,4.8089672E-2,1.9487035E-2,2.3104083E-2,-1.2721433E-2,-2.9236665E-2,-3.812546E-3],"split_indices":[13,23,15,28,1,19,0,12,27,26,0,26,0,0,0,18,15,0,0,27,26,0,0,0,0,0,0,0,0],"split_type":[0,0,0,0,0,0,0,0,0,0,0,0,0,0,0,0,0,0,0,0,0,0,0,0,0,0,0,0,0],"sum_hessian":[7.66449E1,4.6140846E1,3.050405E1,3.3704838E1,1.2436008E1,2.4140545E1,6.3635044E0,7.46707E0,2.6237768E1,8.580589E0,3.8554192E0,2.0877518E1,3.2630267E0,4.3136973E0,3.1533728E0,6.4294076E0,1.9808361E1,3.0841877E0,5.496401E0,6.362958E0,1.451456E1,3.2086089E0,3.220799E0,8.678626E0,1.1129735E1,3.1835034E0,3.1794546E0,9.167944E0,5.346615E0],"tree_param":{"num_deleted":"0","num_feature":"30","num_nodes":"29","size_leaf_vector":"1"}},{"base_weights":[6.900818E-3,8.0043775E-1,-2.44864E-1,9.767325E-1,5.794778E-3,1.3663362E-1,-3.3376017E-1,1.81948E-2,6.0260113E-2,-3.4795746E-1,3.1169621E-2,-5.0081413E-2,-4.6933684E-1,-3.6487987E-3,-2.7056834E-2,3.8659927E-1,-3.8002932E-1,-5.546036E-1,2.814368E-3,4.213489E-3,2.9326884E-2,3.9631934E-3,-3.0358154E-2,-6.8776766E-3,-3.016058E-2],"categories":[],"categories_nodes":[],"categories_segments":[],"categories_sizes":[],"default_left":[0,0,0,0,0,0,0,0,0,0,0,0,0,0,0,0,0,0,0,0,0,0,0,0,0],"id":8,"left_children":[1,3,5,7,-1,9,11,-1,-1,13,-1,15,17,-1,-1,19,21,23,-1,-1,-1,-1,-1,-1,-1],"loss_changes":[1.830031E1,2.5490532E0,2.4046016E0,1.9987717E0,0E0,3.4850051E0,2.1573424E0,0E0,0E0,3.6341542E-1,0E0,2.9501894E0,1.7454195E0,0E0,0E0,4.8670268E-1,1.2568623E0,5.8603096E-1,0E0,0E0,0E0,0E0,0E0,0E0,0E0],"parents":[2147483647,0,0,1,1,2,2,3,3,5,5,6,6,9,9,11,11,12,12,15,15,16,16,17,17],"right_children":[2,4,6,8,-1,10,12,-1,-1,14,-1,16,18,-1,-1,20,22,24,-1,-1,-1,-1,-1,-1,-1],"split_conditions":[-1.2E1,2.08E0,-6E0,2.8947368E-1,5.794778E-3,4.1493776E-1,3.07E0,1.81948E-2,6.0260113E-2,3.83E0,3.1169621E-2,5E0,5.9E1,-3.6487987E-3,-2.7056834E-2,2.631579E-1,4E-1,3.2E1,2.814368E-3,4.213489E-3,2.9326884E-2,3.9631934E-3,-3.0358154E-2,-6.8776766E-3,-3.016058E-2],"split_indices":[2,19,2,26,0,20,18,0,0,18,0,16,11,0,0,26,29,11,0,0,0,0,0,0,0],"split_type":[0,0,0,0,0,0,0,0,0,0,0,0,0,0,0,0,0,0,0,0,0,0,0,0,0],"sum_hessian":[8.9619125E1,2.1060205E1,6.8558914E1,1.6407763E1,4.652442E0,1.285495E1,5.5703968E1,5.1598845E0,1.1247879E1,6.584714E0,6.2702355E0,1.845609E1,3.7247875E1,3.285592E0,3.2991219E0,7.869387E0,1.0586703E1,3.200147E1,5.24641E0,3.698426E0,4.1709614E0,3.7184837E0,6.86822E0,3.7402759E0,2.826119E1],"tree_param":{"num_deleted":"0","num_feature":"30","num_nodes":"25","size_leaf_vector":"1"}},{"base_weights":[-5.495771E-3,-2.9990894E-1,2.9791808E-1,-4.0419325E-1,1.2739451E-1,2.4400432E-2,4.832615E-1,-4.7069797E-1,1.1918223E-2,-8.9453E-3,2.0671321E-2,1.9350456E-1,-2.705594E-1,1.4119187E-3,5.831897E-1,-1.1882734E-1,-7.13021E-1,3.3791985E-2,2.3865795E-2,-1.8125837E-3,-2.4837472E-2,6.744393E-1,5.1991553E-3,1.0123974E-2,-2.40649E-2,-1.7935261E-2,-3.8631547E-2,1.8050792E-2,-1.4948216E-2,3.8090825E-2,1.3300746E-2],"categories":[],"categories_nodes":[],"categories_segments":[],"categories_sizes":[],"default_left":[0,0,0,0,0,0,0,0,0,0,0,0,0,0,0,0,0,0,0,0,0,0,0,0,0,0,0,0,0,0,0],"id":9,"left_children":[1,3,5,7,9,11,13,15,-1,-1,-1,17,19,-1,21,23,25,27,-1,-1,-1,29,-1,-1,-1,-1,-1,-1,-1,-1,-1],"loss_changes":[1.0045725E1,2.5944147E0,2.7962542E0,2.082654E0,1.121388E0,1.2208612E0,1.4824133E0,3.5068693E0,0E0,0E0,0E0,6.8524235E-1,4.5652014E-1,0E0,1.1095381E0,2.2378492E0,2.4546337E-1,1.3032234E0,0E0,0E0,0E0,5.9959316E-1,0E0,0E0,0E0,0E0,0E0,0E0,0E0,0E0,0E0],"parents":[2147483647,0,0,1,1,2,2,3,3,4,4,5,5,6,6,7,7,11,11,12,12,14,14,15,15,16,16,17,17,21,21],"right_children":[2,4,6,8,10,12,14,16,-1,-1,-1,18,20,-1,22,24,26,28,-1,-1,-1,30,-1,-1,-1,-1,-1,-1,-1,-1,-1],"split_conditions":[0E0,4.3E1,1.28E0,1E0,2.12E0,3.4210527E-1,3.6E1,3.6842105E-1,1.1918223E-2,-8.9453E-3,2.0671321E-2,8.5E0,4.1E1,1.4119187E-3,4.2E1,9E0,3.17E0,1E0,2.3865795E-2,-1.8125837E-3,-2.4837472E-2,3.9E1,5.1991553E-3,1.0123974E-2,-2.40649E-2,-1.7935261E-2,-3.8631547E-2,1.8050792E-2,-1.4948216E-2,3.8090825E-2,1.3300746E-2],"split_indices":[15,0,23,10,17,26,14,26,0,0,0,4,12,0,12,4,18,28,0,0,0,1,0,0,0,0,0,0,0,0,0],"split_type":[0,0,0,0,0,0,0,0,0,0,0,0,0,0,0,0,0,0,0,0,0,0,0,0,0,0,0,0,0,0,0],"sum_hessian":[1.1045735E2,5.6066044E1,5.4391308E1,4.5110752E1,1.0955291E1,2.2426863E1,3.1964443E1,4.1122078E1,3.9886737E0,5.471064E0,5.484227E0,1.4473175E1,7.953688E0,5.98668E0,2.5977764E1,1.7378132E1,2.3743946E1,9.9774885E0,4.495687E0,4.476649E0,3.477039E0,2.1480145E1,4.497618E0,9.4461355E0,7.9319973E0,4.430001E0,1.9313946E1,4.987745E0,4.9897437E0,1.6981842E1,4.498304E0],"tree_param":{"num_deleted":"0","num_feature":"30","num_nodes":"31","size_leaf_vector":"1"}},{"base_weights":[3.425091E-2,1.0526981E-1,-4.1144937E-1,-1.2685503E-1,3.470911E-1,-2.2203241E-4,-2.8096646E-2,8.450422E-2,-2.9202893E-1,5.1209934E-2,1.7763977E-1,3.4196302E-1,-1.9543383E-2,-4.254818E-1,5.7609375E-3,6.1141276E-1,-6.615271E-2,-1.4932982E-2,3.426297E-2,-7.0340135E-3,-2.5685543E-2,-5.9815184E-3,5.2711375E-2,-1.893073E-2,2.5199074E-2],"categories":[],"categories_nodes":[],"categories_segments":[],"categories_sizes":[],"default_left":[0,0,0,0,0,0,0,0,0,0,0,0,0,0,0,0,0,0,0,0,0,0,0,0,0],"id":10,"left_children":[1,3,5,7,9,-1,-1,11,13,-1,15,17,-1,19,-1,21,23,-1,-1,-1,-1,-1,-1,-1,-1],"loss_changes":[2.660373E0,4.0918713E0,7.0598197E-1,1.3347487E0,3.9010816E0,0E0,0E0,2.2432897E0,1.2060399E0,0E0,3.1783574E0,2.781001E0,0E0,3.3599615E-1,0E0,3.6138678E0,3.7356668E0,0E0,0E0,0E0,0E0,0E0,0E0,0E0,0E0],"parents":[2147483647,0,0,1,1,2,2,3,3,4,4,7,7,8,8,10,10,11,11,13,13,15,15,16,16],"right_children":[2,4,6,8,10,-1,-1,12,14,-1,16,18,-1,20,-1,22,24,-1,-1,-1,-1,-1,-1,-1,-1],"split_conditions":[4.92E0,-2E0,4.1E1,-3.5E0,-2E0,-2.2203241E-4,-2.8096646E-2,6.1E1,3.83E0,5.1209934E-2,3E0,-1.5E1,-1.9543383E-2,-1.3E1,5.7609375E-3,4E0,1.5E1,-1.4932982E-2,3.426297E-2,-7.0340135E-3,-2.5685543E-2,-5.9815184E-3,5.2711375E-2,-1.893073E-2,2.5199074E-2],"split_indices":[18,2,14,5,15,0,0,1,18,0,16,16,0,15,0,15,15,0,0,0,0,0,0,0,0],"split_type":[0,0,0,0,0,0,0,0,0,0,0,0,0,0,0,0,0,0,0,0,0,0,0,0,0],"sum_hessian":[8.1679306E1,7.111197E1,1.0567333E1,3.6525997E1,3.4585976E1,3.1303282E0,7.437005E0,1.6237114E1,2.0288885E1,5.9132237E0,2.867275E1,1.0714721E1,5.5223927E0,1.5247566E1,5.0413194E0,9.774082E0,1.8898668E1,3.7838087E0,6.9309115E0,4.2199974E0,1.1027569E1,3.962398E0,5.811684E0,1.2425045E1,6.473623E0],"tree_param":{"num_deleted":"0","num_feature":"30","num_nodes":"25","size_leaf_vector":"1"}},{"base_weights":[7.074121E-2,3.7004957E-1,-3.8771003E-1,7.065544E-1,1.4472464E-1,-4.4944614E-1,8.344458E-3,5.8628332E-2,2.5021556E-1,3.765786E-1,-2.5769573E-1,-3.311506E-1,-3.137539E-2,-1.6742922E-2,5.2048707E-1,-1.5424554E-2,6.459475E-1,-5.532543E-2,-2.7977347E-2,-2.828674E-2,-2.3659907E-1,4.2643894E-2,3.4766556E-3,1.925506E-2,6.139597E-2,1.6358977E-2,-2.6874805E-2,5.1728697E-3,-1.9099109E-2],"categories":[],"categories_nodes":[],"categories_segments":[],"categories_sizes":[],"default_left":[0,0,0,0,0,0,0,0,0,0,0,0,0,0,0,0,0,0,0,0,0,0,0,0,0,0,0,0,0],"id":11,"left_children":[1,3,5,7,9,11,-1,-1,13,15,17,19,-1,-1,21,-1,23,25,-1,-1,27,-1,-1,-1,-1,-1,-1,-1,-1],"loss_changes":[1.2238008E1,3.9798708E0,1.2837472E0,4.2435446E0,3.2229977E0,4.6704102E-1,0E0,0E0,2.0797887E0,4.196836E0,7.534203E-1,3.4007E-1,0E0,0E0,1.234894E0,0E0,1.9366007E0,1.798261E0,0E0,0E0,8.773805E-1,0E0,0E0,0E0,0E0,0E0,0E0,0E0,0E0],"parents":[2147483647,0,0,1,1,2,2,3,3,4,4,5,5,8,8,9,9,10,10,11,11,14,14,16,16,17,17,20,20],"right_children":[2,4,6,8,10,12,-1,-1,14,16,18,20,-1,-1,22,-1,24,26,-1,-1,28,-1,-1,-1,-1,-1,-1,-1,-1],"split_conditions":[4E0,-1.1E1,1E0,-1.2E1,3.63E0,5.5E1,8.344458E-3,5.8628332E-2,-2.1E1,3.7E1,4.3E1,7E0,-3.137539E-2,-1.6742922E-2,3.42E0,-1.5424554E-2,2.1E0,3.38E0,-2.7977347E-2,-2.828674E-2,1E1,4.2643894E-2,3.4766556E-3,1.925506E-2,6.139597E-2,1.6358977E-2,-2.6874805E-2,5.1728697E-3,-1.9099109E-2],"split_indices":[15,15,9,16,18,0,0,0,15,1,1,15,0,0,18,0,17,23,0,0,15,0,0,0,0,0,0,0,0],"split_type":[0,0,0,0,0,0,0,0,0,0,0,0,0,0,0,0,0,0,0,0,0,0,0,0,0,0,0,0,0],"sum_hessian":[8.714084E1,5.2837635E1,3.43032E1,2.0334286E1,3.250335E1,3.103778E1,3.2654197E0,9.283988E0,1.1050298E1,2.0662748E1,1.1840601E1,2.0366808E1,1.0670974E1,3.4161558E0,7.634142E0,5.7906075E0,1.4872141E1,7.7967253E0,4.0438757E0,4.4192376E0,1.594757E1,3.8817167E0,3.7524252E0,1.1416745E1,3.4553955E0,4.52695E0,3.2697752E0,4.862465E0,1.1085105E1],"tree_param":{"num_deleted":"0","num_feature":"30","num_nodes":"29","size_leaf_vector":"1"}},{"base_weights":[2.2800606E-2,-2.4306604E-1,3.3710536E-1,-3.994053E-1,5.7763502E-2,4.1946778E-1,-1.6468205E-2,-2.644371E-1,-6.653301E-1,3.4584463E-1,-2.5580946E-2,4.8030975E-1,-7.903634E-3,-6.2144375E-1,-4.283051E-2,-3.991868E-2,-1.2471278E-2,5.63289E-1,-8.990034E-3,1.3701373E-3,5.432083E-1,-3.7970718E-2,-1.3480288E-2,2.5715893E-2,-1.3345927E-2,3.5162967E-2,1.5378365E-2,3.1801697E-2,1.3073772E-2],"categories":[],"categories_nodes":[],"categories_segments":[],"categories_sizes":[],"default_left":[0,0,0,0,0,0,0,0,0,0,0,0,0,0,0,0,0,0,0,0,0,0,0,0,0,0,0,0,0],"id":12,"left_children":[1,3,5,7,9,11,-1,13,15,17,-1,19,-1,21,23,-1,-1,25,-1,-1,27,-1,-1,-1,-1,-1,-1,-1,-1],"loss_changes":[9.006916E0,2.7716923E0,2.8477926E0,1.2088561E0,3.598453E0,1.6351509E0,0E0,2.1294935E0,4.831276E-1,1.7526517E0,0E0,1.1357689E0,0E0,2.9834652E-1,2.3707452E0,0E0,0E0,1.5817428E-1,0E0,0E0,7.598257E-1,0E0,0E0,0E0,0E0,0E0,0E0,0E0,0E0],"parents":[2147483647,0,0,1,1,2,2,3,3,4,4,5,5,7,7,8,8,9,9,11,11,13,13,14,14,17,17,20,20],"right_children":[2,4,6,8,10,12,-1,14,16,18,-1,20,-1,22,24,-1,-1,26,-1,-1,28,-1,-1,-1,-1,-1,-1,-1,-1],"split_conditions":[4E0,3.72E0,3E0,3.39E0,3.55E0,2.07E0,-1.6468205E-2,3.5E1,5.5E1,4.4E1,-2.5580946E-2,0E0,-7.903634E-3,-1E1,-1E1,-3.991868E-2,-1.2471278E-2,4.1E1,-8.990034E-3,1.3701373E-3,4.1E1,-3.7970718E-2,-1.3480288E-2,2.5715893E-2,-1.3345927E-2,3.5162967E-2,1.5378365E-2,3.1801697E-2,1.3073772E-2],"split_indices":[16,18,8,18,17,17,0,14,1,0,0,29,0,16,16,0,0,0,0,0,1,0,0,0,0,0,0,0,0],"split_type":[0,0,0,0,0,0,0,0,0,0,0,0,0,0,0,0,0,0,0,0,0,0,0,0,0,0,0,0,0],"sum_hessian":[1.05805176E2,5.7442177E1,4.8363E1,3.7582897E1,1.985928E1,4.3373505E1,4.9894934E0,2.6252855E1,1.1330041E1,1.3447875E1,6.411405E0,3.9392036E1,3.9814684E0,9.363714E0,1.6889141E1,7.887353E0,3.4426877E0,9.462073E0,3.985802E0,4.9786234E0,3.4413414E1,5.8940034E0,3.4697106E0,4.4729414E0,1.24162E1,4.9839754E0,4.478098E0,2.4938929E1,9.4744835E0],"tree_param":{"num_deleted":"0","num_feature":"30","num_nodes":"29","size_leaf_vector":"1"}},{"base_weights":[2.1797985E-2,1.4985326E-1,-3.552309E-1,-3.656373E-1,2.9366544E-1,-2.8999632E-2,-1.00690044E-1,-2.9452709E-3,-2.8043777E-2,9.6218035E-2,5.939936E-1,-2.051799E-2,2.3380585E-2,-3.992938E-2,4.3980666E-2,8.7326837E-1,2.914565E-1,6.1300485E-3,-2.7490357E-2,1.8790083E-2,6.442554E-2,-5.874575E-3,2.8534396E-2],"categories":[],"categories_nodes":[],"categories_segments":[],"categories_sizes":[],"default_left":[0,0,0,0,0,0,0,0,0,0,0,0,0,0,0,0,0,0,0,0,0,0,0],"id":13,"left_children":[1,3,5,7,9,-1,11,-1,-1,13,15,-1,-1,17,-1,19,21,-1,-1,-1,-1,-1,-1],"loss_changes":[3.7602763E0,4.408477E0,1.0722768E0,7.515116E-1,2.6656985E0,0E0,2.0358264E0,0E0,0E0,3.1172035E0,1.2680278E0,0E0,0E0,2.1868348E0,0E0,1.3479247E0,1.2261844E0,0E0,0E0,0E0,0E0,0E0,0E0],"parents":[2147483647,0,0,1,1,2,2,3,3,4,4,6,6,9,9,10,10,13,13,15,15,16,16],"right_children":[2,4,6,8,10,-1,12,-1,-1,14,16,-1,-1,18,-1,20,22,-1,-1,-1,-1,-1,-1],"split_conditions":[3.63E0,3.2E1,8E-1,1.5E0,3.45E0,-2.8999632E-2,3.6E1,-2.9452709E-3,-2.8043777E-2,1.5E1,1.2E0,-2.051799E-2,2.3380585E-2,7E0,4.3980666E-2,1.45E0,3.31E0,6.1300485E-3,-2.7490357E-2,1.8790083E-2,6.442554E-2,-5.874575E-3,2.8534396E-2],"split_indices":[23,14,29,7,18,0,1,0,0,15,27,0,0,15,0,23,19,0,0,0,0,0,0],"split_type":[0,0,0,0,0,0,0,0,0,0,0,0,0,0,0,0,0,0,0,0,0,0,0],"sum_hessian":[7.578133E1,5.7018074E1,1.8763254E1,1.2100768E1,4.4917305E1,9.285498E0,9.477757E0,5.212813E0,6.8879547E0,2.7897064E1,1.702024E1,6.314747E0,3.1630101E0,2.4575146E1,3.3219204E0,7.8694215E0,9.150819E0,1.9210947E1,5.3641977E0,4.446939E0,3.4224827E0,3.9480054E0,5.2028136E0],"tree_param":{"num_deleted":"0","num_feature":"30","num_nodes":"23","size_leaf_vector":"1"}},{"base_weights":[-1.4328328E-2,4.9151495E-2,-1.02594316E-1,1.0362544E-1,-3.6547473E-1,3.0474365E-1,-2.2923926E-1,-1.2484407E-2,-4.5349365E-1,5.638768E-2,8.443237E-1,1.747419E-2,-3.8533646E-1,1.9681755E-2,-1.7832445E-2,-3.1703052E-3,-4.9989894E-1,-2.0615786E-2,2.9596109E-2,5.4262627E-2,1.6779859E-2,5.9354734E-3,-2.7299628E-2,-3.1327795E-2,-1.7268378E-2],"categories":[],"categories_nodes":[],"categories_segments":[],"categories_sizes":[],"default_left":[0,0,0,0,0,0,0,0,0,0,0,0,0,0,0,0,0,0,0,0,0,0,0,0,0],"id":14,"left_children":[1,-1,3,5,7,9,11,13,15,17,19,-1,21,-1,-1,-1,23,-1,-1,-1,-1,-1,-1,-1,-1],"loss_changes":[7.912922E0,0E0,4.5065465E0,3.2144608E0,1.1270862E0,3.9338152E0,1.7844436E0,1.3011687E0,4.9604082E-1,5.619943E0,7.74817E-1,0E0,1.2680328E0,0E0,0E0,0E0,2.9070425E-1,0E0,0E0,0E0,0E0,0E0,0E0,0E0,0E0],"parents":[2147483647,0,0,2,2,3,3,4,4,5,5,6,6,7,7,8,8,9,9,10,10,12,12,16,16],"right_children":[2,-1,4,6,8,10,12,14,16,18,20,-1,22,-1,-1,-1,24,-1,-1,-1,-1,-1,-1,-1,-1],"split_conditions":[-2E1,4.9151495E-2,4E0,3.63E0,4.1E1,4.7368422E-1,3.2E1,4.473684E-1,-3E0,3.3E1,4.830918E-1,1.747419E-2,-1.3E1,1.9681755E-2,-1.7832445E-2,-3.1703052E-3,1.5E0,-2.0615786E-2,2.9596109E-2,5.4262627E-2,1.6779859E-2,5.9354734E-3,-2.7299628E-2,-3.1327795E-2,-1.7268378E-2],"split_indices":[16,0,15,18,0,26,11,26,16,11,20,0,15,0,0,0,8,0,0,0,0,0,0,0,0],"split_type":[0,0,0,0,0,0,0,0,0,0,0,0,0,0,0,0,0,0,0,0,0,0,0,0,0],"sum_hessian":[8.774042E1,6.3094864E0,8.143093E1,4.597281E1,3.5458126E1,2.871037E1,1.726244E1,7.304811E0,2.8153315E1,2.041728E1,8.293089E0,3.4038692E0,1.3858571E1,3.2848706E0,4.0199404E0,3.2446675E0,2.4908646E1,1.1010715E1,9.406566E0,4.8587503E0,3.4343388E0,3.4126728E0,1.0445898E1,1.2010255E1,1.2898392E1],"tree_param":{"num_deleted":"0","num_feature":"30","num_nodes":"25","size_leaf_vector":"1"}},{"base_weights":[-4.7087315E-2,4.0606764E-1,-2.2558178E-1,6.700539E-4,4.842301E-1,4.363174E-2,-3.5064048E-1,5.8530414E-1,-5.26923E-3,1.8790619E-1,-2.8474554E-2,-1.9370992E-1,-5.884595E-1,7.231614E-1,3.1377107E-1,-3.9468493E-2,3.490131E-2,1.906981E-2,-3.107384E-1,-1.1249581E-2,-6.492006E-1,4.1983236E-2,1.5207578E-2,2.2538703E-2,3.8281407E-3,-2.8722862E-2,1.1543107E-2,-3.450691E-3,-3.903777E-2,-3.9401043E-2,-1.9679112E-2],"categories":[],"categories_nodes":[],"categories_segments":[],"categories_sizes":[],"default_left":[0,0,0,0,0,0,0,0,0,0,0,0,0,0,0,0,0,0,0,0,0,0,0,0,0,0,0,0,0,0,0],"id":15,"left_children":[1,3,5,-1,7,9,11,13,-1,15,-1,17,19,21,23,25,-1,-1,27,-1,29,-1,-1,-1,-1,-1,-1,-1,-1,-1,-1],"loss_changes":[8.5466795E0,9.1107464E-1,2.5617464E0,0E0,1.5458622E0,2.3078418E0,1.8175693E0,5.7462835E-1,0E0,2.4508433E0,0E0,2.3173923E0,2.9734516E-1,4.0049458E-1,2.5722033E-1,2.359498E0,0E0,0E0,3.0929997E0,0E0,2.8167152E-1,0E0,0E0,0E0,0E0,0E0,0E0,0E0,0E0,0E0,0E0],"parents":[2147483647,0,0,1,1,2,2,4,4,5,5,6,6,7,7,9,9,11,11,12,12,13,13,14,14,15,15,18,18,20,20],"right_children":[2,4,6,-1,8,10,12,14,-1,16,-1,18,20,22,24,26,-1,-1,28,-1,30,-1,-1,-1,-1,-1,-1,-1,-1,-1,-1],"split_conditions":[1.85E0,3.6E1,3.6E1,6.700539E-4,4.2E1,6.1E1,1E1,3.7E1,-5.26923E-3,6E0,-2.8474554E-2,2.5510204E-1,-9.5E0,3E0,1E1,4.3E1,3.490131E-2,1.906981E-2,2.1E0,-1.1249581E-2,6.5E0,4.1983236E-2,1.5207578E-2,2.2538703E-2,3.8281407E-3,-2.8722862E-2,1.1543107E-2,-3.450691E-3,-3.903777E-2,-3.9401043E-2,-1.9679112E-2],"split_indices":[17,14,12,0,12,0,4,1,0,15,0,21,5,8,16,1,0,0,17,0,3,0,0,0,0,0,0,0,0,0,0],"split_type":[0,0,0,0,0,0,0,0,0,0,0,0,0,0,0,0,0,0,0,0,0,0,0,0,0,0,0,0,0,0,0],"sum_hessian":[1.0353125E2,2.8896065E1,7.463519E1,4.9915156E0,2.3904549E1,2.3879963E1,5.0755226E1,2.0412643E1,3.4919043E0,1.9892555E1,3.9874082E0,3.167093E1,1.9084293E1,1.2435759E1,7.9768853E0,1.439772E1,5.494836E0,4.9730697E0,2.6697863E1,3.4061852E0,1.5678109E1,8.944786E0,3.4909732E0,4.485748E0,3.4911375E0,4.4553976E0,9.942323E0,1.8387964E1,8.309897E0,8.810522E0,6.8675866E0],"tree_param":{"num_deleted":"0","num_feature":"30","num_nodes":"31","size_leaf_vector":"1"}},{"base_weights":[5.528038E-4,8.374992E-2,-2.9240403E-1,-2.0248258E-1,2.2360867E-1,-4.6864736E-1,-6.2927017E-3,-3.8261765E-1,1.0288657E-2,5.03873E-1,7.4778594E-2,-1.2313953E-2,-2.690274E-2,2.2351664E-2,-2.3970705E-2,2.1329578E-3,-2.8786978E-2,6.8218994E-1,-1.8919759E-3,-7.2398305E-2,4.1872624E-2,8.413705E-3,5.431804E-2,-1.1482488E-2,3.7290484E-2],"categories":[],"categories_nodes":[],"categories_segments":[],"categories_sizes":[],"default_left":[0,0,0,0,0,0,0,0,0,0,0,0,0,0,0,0,0,0,0,0,0,0,0,0,0],"id":16,"left_children":[1,3,5,7,9,11,13,15,-1,17,19,-1,-1,-1,-1,-1,-1,21,-1,23,-1,-1,-1,-1,-1],"loss_changes":[1.8069532E0,2.3565047E0,8.2391953E-1,1.5109696E0,1.599884E0,2.3891449E-2,1.7723427E0,1.1631072E0,0E0,1.3243222E0,3.0707188E0,0E0,0E0,0E0,0E0,0E0,0E0,1.9287844E0,0E0,3.1818986E0,0E0,0E0,0E0,0E0,0E0],"parents":[2147483647,0,0,1,1,2,2,3,3,4,4,5,5,6,6,7,7,9,9,10,10,17,17,19,19],"right_children":[2,4,6,8,10,12,14,16,-1,18,20,-1,-1,-1,-1,-1,-1,22,-1,24,-1,-1,-1,-1,-1],"split_conditions":[3.94E0,-1.1E1,3.9E1,3.67E0,3.6E1,3E1,1.46E0,5.5E0,1.0288657E-2,3.68E0,2.61E0,-1.2313953E-2,-2.690274E-2,2.2351664E-2,-2.3970705E-2,2.1329578E-3,-2.8786978E-2,1.2E0,-1.8919759E-3,7.5E0,4.1872624E-2,8.413705E-3,5.431804E-2,-1.1482488E-2,3.7290484E-2],"split_indices":[23,2,1,18,11,13,17,3,0,18,23,0,0,0,0,0,0,28,0,5,0,0,0,0,0],"split_type":[0,0,0,0,0,0,0,0,0,0,0,0,0,0,0,0,0,0,0,0,0,0,0,0,0],"sum_hessian":[7.2132256E1,5.6734333E1,1.5397921E1,1.8475313E1,3.825902E1,9.133645E0,6.2642756E0,1.2862694E1,5.6126194E0,1.2442601E1,2.581642E1,3.2546556E0,5.878989E0,3.2272215E0,3.037054E0,4.2602463E0,8.6024475E0,9.166062E0,3.276539E0,2.239904E1,3.417379E0,4.65871E0,4.507352E0,1.9391512E1,3.0075302E0],"tree_param":{"num_deleted":"0","num_feature":"30","num_nodes":"25","size_leaf_vector":"1"}},{"base_weights":[-3.4165606E-2,5.401566E-1,-2.4603614E-1,9.0710646E-1,2.5346494E-1,-7.9030424E-2,-4.6927875E-1,5.2829888E-2,2.1312065E-2,3.1708222E-2,2.1062167E-2,4.567358E-2,-2.4674581E-2,-2.7470738E-3,-5.224469E-1,-2.05443E-2,2.0736141E-2,-3.4544393E-1,2.3351161E-1,-3.1751987E-2,-1.9547169E-1,-2.9951895E-2,6.063996E-3,-1.4475666E-2,1.7231444E-2,1.0094694E-2,-2.6119757E-2],"categories":[],"categories_nodes":[],"categories_segments":[],"categories_sizes":[],"default_left":[0,0,0,0,0,0,0,0,0,0,0,0,0,0,0,0,0,0,0,0,0,0,0,0,0,0,0],"id":17,"left_children":[1,3,5,7,9,11,13,-1,-1,-1,15,17,-1,-1,19,-1,-1,21,23,-1,25,-1,-1,-1,-1,-1,-1],"loss_changes":[1.069446E1,2.263739E0,2.3524704E0,2.6911926E-1,1.2867787E0,1.9796925E0,5.710678E-1,0E0,0E0,0E0,1.8978443E0,2.2864282E0,0E0,0E0,7.598705E-1,0E0,0E0,1.2733256E0,1.3132347E0,0E0,1.0921494E0,0E0,0E0,0E0,0E0,0E0,0E0],"parents":[2147483647,0,0,1,1,2,2,3,3,4,4,5,5,6,6,10,10,11,11,14,14,17,17,18,18,20,20],"right_children":[2,4,6,8,10,12,14,-1,-1,-1,16,18,-1,-1,20,-1,-1,22,24,-1,26,-1,-1,-1,-1,-1,-1],"split_conditions":[-1.1E1,4.0650406E-1,8E0,3.3E1,-2.2E1,3.99E0,3.5E1,5.2829888E-2,2.1312065E-2,3.1708222E-2,-1.1E1,3.3E1,-2.4674581E-2,-2.7470738E-3,5.9E1,-2.05443E-2,2.0736141E-2,4.2105263E-1,4.4052863E-1,-3.1751987E-2,7.5E0,-2.9951895E-2,6.063996E-3,-1.4475666E-2,1.7231444E-2,1.0094694E-2,-2.6119757E-2],"split_indices":[2,20,16,11,2,19,11,0,0,0,15,11,0,0,11,0,0,26,20,0,5,0,0,0,0,0,0],"split_type":[0,0,0,0,0,0,0,0,0,0,0,0,0,0,0,0,0,0,0,0,0,0,0,0,0,0,0],"sum_hessian":[8.579644E1,2.270366E1,6.3092785E1,9.008815E0,1.3694844E1,3.6866966E1,2.622582E1,5.958998E0,3.0498166E0,4.535879E0,9.158965E0,2.9023968E1,7.842996E0,3.2138386E0,2.3011982E1,4.3462462E0,4.8127193E0,9.144397E0,1.9879572E1,1.641676E1,6.595222E0,5.7413464E0,3.4030507E0,3.20207E0,1.6677502E1,3.1495194E0,3.4457026E0],"tree_param":{"num_deleted":"0","num_feature":"30","num_nodes":"27","size_leaf_vector":"1"}},{"base_weights":[5.1811053E-3,-2.0080595E-1,3.467062E-1,-3.371823E-2,-1.15902945E-1,-1.0157916E-2,4.364809E-1,2.4322854E-1,-2.4213134E-1,2.433631E-1,5.794631E-1,5.442401E-1,-5.234635E-2,-4.626854E-1,5.3783398E-2,4.871799E-1,-9.217258E-2,3.703572E-2,3.7923026E-1,4.143143E-2,6.963008E-3,-1.9751314E-2,1.8820874E-2,7.1426407E-3,-2.991176E-2,1.8305298E-2,-1.8613009E-2,5.7800935E-4,4.010643E-2,7.5600534E-3,-1.5716506E-2,4.4787186E-3,3.5560906E-2],"categories":[],"categories_nodes":[],"categories_segments":[],"categories_sizes":[],"default_left":[0,0,0,0,0,0,0,0,0,0,0,0,0,0,0,0,0,0,0,0,0,0,0,0,0,0,0,0,0,0,0,0,0],"id":18,"left_children":[1,3,5,-1,7,-1,9,11,13,15,17,19,21,23,25,27,29,-1,31,-1,-1,-1,-1,-1,-1,-1,-1,-1,-1,-1,-1,-1,-1],"loss_changes":[7.719898E0,2.6746454E0,2.1264038E0,0E0,2.7455373E0,0E0,8.476043E-1,1.4442089E0,2.9195993E0,1.4320219E0,3.5995102E-1,8.026695E-1,1.4623545E0,2.1798759E0,2.7757938E0,1.485537E0,4.7879595E-1,0E0,9.847466E-1,0E0,0E0,0E0,0E0,0E0,0E0,0E0,0E0,0E0,0E0,0E0,0E0,0E0,0E0],"parents":[2147483647,0,0,1,1,2,2,4,4,6,6,7,7,8,8,9,9,10,10,11,11,12,12,13,13,14,14,15,15,16,16,18,18],"right_children":[2,4,6,-1,8,-1,10,12,14,16,18,20,22,24,26,28,30,-1,32,-1,-1,-1,-1,-1,-1,-1,-1,-1,-1,-1,-1,-1,-1],"split_conditions":[7E0,-2.2E1,3.6E1,-3.371823E-2,2.8947368E-1,-1.0157916E-2,5.03E0,3.5E1,3.72E0,3.6E1,1.5E1,3.7E1,1.8421052E-1,3.6E1,2.48E0,3.2E1,6.5E0,3.703572E-2,2.4E1,4.143143E-2,6.963008E-3,-1.9751314E-2,1.8820874E-2,7.1426407E-3,-2.991176E-2,1.8305298E-2,-1.8613009E-2,5.7800935E-4,4.010643E-2,7.5600534E-3,-1.5716506E-2,4.4787186E-3,3.5560906E-2],"split_indices":[2,2,14,0,26,0,19,11,18,12,16,14,26,12,23,12,3,0,16,0,0,0,0,0,0,0,0,0,0,0,0,0,0],"split_type":[0,0,0,0,0,0,0,0,0,0,0,0,0,0,0,0,0,0,0,0,0,0,0,0,0,0,0,0,0,0,0,0,0],"sum_hessian":[1.07746346E2,6.746663E1,4.0279713E1,9.201451E0,5.826518E1,5.4760814E0,3.480363E1,1.4912068E1,4.335311E1,1.5955504E1,1.8848127E1,6.9712744E0,7.9407945E0,2.451659E1,1.8836521E1,8.978984E0,6.9765205E0,8.945161E0,9.9029665E0,3.480835E0,3.4904392E0,4.457179E0,3.4836154E0,4.4743896E0,2.0042202E1,1.0950009E1,7.886511E0,3.990076E0,4.988908E0,3.481707E0,3.4948137E0,5.9668045E0,3.9361618E0],"tree_param":{"num_deleted":"0","num_feature":"30","num_nodes":"33","size_leaf_vector":"1"}},{"base_weights":[-6.3189566E-3,-4.246137E-1,7.329577E-2,-8.706894E-3,-2.7718758E-2,1.9010276E-1,-2.076339E-1,2.606191E-1,-2.4965404E-2,1.4824304E-2,-4.4625172E-1,-9.1219135E-2,3.5654297E-1,-2.8761575E-2,-3.6427237E-3,-1.6901515E-2,7.5526224E-3,4.449802E-3,2.6095325E-2],"categories":[],"categories_nodes":[],"categories_segments":[],"categories_sizes":[],"default_left":[0,0,0,0,0,0,0,0,0,0,0,0,0,0,0,0,0,0,0],"id":19,"left_children":[1,3,5,-1,-1,7,9,11,-1,-1,13,15,17,-1,-1,-1,-1,-1,-1],"loss_changes":[2.5899162E0,3.0756044E-1,2.1856115E0,0E0,0E0,2.401259E0,2.500279E0,1.4850729E0,0E0,0E0,6.2079E-1,6.499992E-1,1.4587898E0,0E0,0E0,0E0,0E0,0E0,0E0],"parents":[2147483647,0,0,1,1,2,2,5,5,6,6,7,7,10,10,11,11,12,12],"right_children":[2,4,6,-1,-1,8,10,12,-1,-1,14,16,18,-1,-1,-1,-1,-1,-1],"split_conditions":[-1.4E1,-2.2E1,4.6E1,-8.706894E-3,-2.7718758E-2,6.1E1,2E0,2.631579E-1,-2.4965404E-2,1.4824304E-2,3.8E1,2E0,-2E0,-2.8761575E-2,-3.6427237E-3,-1.6901515E-2,7.5526224E-3,4.449802E-3,2.6095325E-2],"split_indices":[16,16,14,0,0,1,2,26,0,0,12,16,2,0,0,0,0,0,0],"split_type":[0,0,0,0,0,0,0,0,0,0,0,0,0,0,0,0,0,0,0],"sum_hessian":[7.583506E1,1.143298E1,6.4402084E1,4.700905E0,6.7320747E0,4.571689E1,1.8685194E1,4.203891E1,3.6779795E0,5.9250407E0,1.2760153E1,9.016482E0,3.3022427E1,9.082365E0,3.6777878E0,4.2706037E0,4.745878E0,1.3201493E1,1.9820934E1],"tree_param":{"num_deleted":"0","num_feature":"30","num_nodes":"19","size_leaf_vector":"1"}},{"base_weights":[-4.415565E-2,6.269058E-1,-2.8269494E-1,8.3154756E-1,1.5412205E-1,-2.1789344E-1,-3.0272607E-2,3.9694306E-1,6.0389977E-2,3.673866E-2,-2.7921362E-2,1.0999427E-2,-2.5640824E-1,-1.4672681E-3,3.714556E-2,-1.61777E-1,-3.0611172E-2,-1.17753735E-2,2.4819782E-2],"categories":[],"categories_nodes":[],"categories_segments":[],"categories_sizes":[],"default_left":[0,0,0,0,0,0,0,0,0,0,0,0,0,0,0,0,0,0,0],"id":20,"left_children":[1,3,5,7,9,11,-1,13,-1,-1,-1,-1,15,-1,-1,17,-1,-1,-1],"loss_changes":[1.4705007E1,2.2046394E0,1.2828822E0,2.2350292E0,3.9317768E0,1.0328324E0,0E0,1.3774962E0,0E0,0E0,0E0,0E0,1.7083538E0,0E0,0E0,2.240469E0,0E0,0E0,0E0],"parents":[2147483647,0,0,1,1,2,2,3,3,4,4,5,5,7,7,12,12,15,15],"right_children":[2,4,6,8,10,12,-1,14,-1,-1,-1,-1,16,-1,-1,18,-1,-1,-1],"split_conditions":[-1.2E1,3.62E0,1.2E0,-1.7E1,-1.9E1,1.43E0,-3.0272607E-2,5.5E0,6.0389977E-2,3.673866E-2,-2.7921362E-2,1.0999427E-2,4.1E0,-1.4672681E-3,3.714556E-2,4.01E0,-3.0611172E-2,-1.17753735E-2,2.4819782E-2],"split_indices":[2,18,29,15,2,17,0,3,0,0,0,0,18,0,0,18,0,0,0],"split_type":[0,0,0,0,0,0,0,0,0,0,0,0,0,0,0,0,0,0,0],"sum_hessian":[8.975637E1,2.31113E1,6.664507E1,1.5600066E1,7.5112333E0,5.6896744E1,9.74833E0,8.192265E0,7.407801E0,4.1214805E0,3.3897529E0,4.2189493E0,5.2677795E1,4.0801015E0,4.112163E0,4.276014E1,9.917657E0,3.9030056E1,3.730083E0],"tree_param":{"num_deleted":"0","num_feature":"30","num_nodes":"19","size_leaf_vector":"1"}},{"base_weights":[6.945263E-2,5.1303285E-1,-1.1156561E-1,3.200236E-1,3.8283348E-2,1.4034937E-1,-2.4864247E-1,6.054204E-1,-1.05585344E-1,2.9580584E-1,-2.2663271E-2,2.1269461E-2,-3.1843022E-1,4.0265318E-2,1.4368236E-2,-2.6948774E-2,1.547075E-2,1.6900973E-1,3.7498258E-2,-3.791037E-1,1.1993984E-2,-6.9482895E-3,2.7321039E-2,-9.222881E-3,-2.7646223E-2],"categories":[],"categories_nodes":[],"categories_segments":[],"categories_sizes":[],"default_left":[0,0,0,0,0,0,0,0,0,0,0,0,0,0,0,0,0,0,0,0,0,0,0,0,0],"id":21,"left_children":[1,3,5,7,-1,9,11,13,15,17,-1,-1,19,-1,-1,-1,-1,21,-1,23,-1,-1,-1,-1,-1],"loss_changes":[8.380111E0,1.2284513E0,2.6052175E0,2.3534622E0,0E0,2.6135716E0,2.4199023E0,4.953413E-1,1.6807066E0,1.1342479E0,0E0,0E0,1.6010737E0,0E0,0E0,0E0,0E0,2.2157245E0,0E0,1.2715793E0,0E0,0E0,0E0,0E0,0E0],"parents":[2147483647,0,0,1,1,2,2,3,3,5,5,6,6,7,7,8,8,9,9,12,12,17,17,19,19],"right_children":[2,4,6,8,-1,10,12,14,16,18,-1,-1,20,-1,-1,-1,-1,22,-1,24,-1,-1,-1,-1,-1],"split_conditions":[1.86E0,4.9E1,3.6E1,4.2E1,3.8283348E-2,6.1E1,1.3157895E-1,7E0,1.4E1,1.2E1,-2.2663271E-2,2.1269461E-2,1E0,4.0265318E-2,1.4368236E-2,-2.6948774E-2,1.547075E-2,2.01E0,3.7498258E-2,3.25E0,1.1993984E-2,-6.9482895E-3,2.7321039E-2,-9.222881E-3,-2.7646223E-2],"split_indices":[17,11,12,0,0,0,26,15,2,15,0,0,10,0,0,0,0,17,0,18,0,0,0,0,0],"split_type":[0,0,0,0,0,0,0,0,0,0,0,0,0,0,0,0,0,0,0,0,0,0,0,0,0],"sum_hessian":[1.02652275E2,2.9218643E1,7.343363E1,1.784899E1,1.1369653E1,2.586887E1,4.7564762E1,1.0431531E1,7.4174595E0,2.0897816E1,4.971055E0,3.984617E0,4.3580143E1,5.465012E0,4.9665184E0,3.4822092E0,3.9352503E0,1.7409435E1,3.488379E0,3.9597885E1,3.9822607E0,9.934479E0,7.4749565E0,1.9652279E1,1.9945604E1],"tree_param":{"num_deleted":"0","num_feature":"30","num_nodes":"25","size_leaf_vector":"1"}},{"base_weights":[-6.997664E-3,-3.155103E-1,7.815568E-2,-2.8318122E-2,-7.399782E-2,-3.7478912E-1,1.6203377E-1,1.1469484E-2,-1.2494114E-2,-8.1160665E-4,-2.6908053E-2,1.3169431E-2,6.2791556E-1,1.4157805E-1,-2.8286416E-2,9.466569E-1,7.143615E-4,4.3686755E-2,1.8046625E-3,2.1331144E-2,5.9718233E-2],"categories":[],"categories_nodes":[],"categories_segments":[],"categories_sizes":[],"default_left":[0,0,0,0,0,0,0,0,0,0,0,0,0,0,0,0,0,0,0,0,0],"id":22,"left_children":[1,3,5,-1,7,9,11,-1,-1,-1,-1,13,15,17,-1,19,-1,-1,-1,-1,-1],"loss_changes":[2.0852425E0,9.980084E-1,2.4265404E0,0E0,5.853583E-1,5.78899E-1,3.6840563E0,0E0,0E0,0E0,0E0,3.1552508E0,2.5038614E0,2.6451633E0,0E0,5.796585E-1,0E0,0E0,0E0,0E0,0E0],"parents":[2147483647,0,0,1,1,2,2,4,4,5,5,6,6,11,11,12,12,13,13,15,15],"right_children":[2,4,6,-1,8,10,12,-1,-1,-1,-1,14,16,18,-1,20,-1,-1,-1,-1,-1],"split_conditions":[1E0,2.95E0,2.114165E-1,-2.8318122E-2,1.4E0,9E0,2.5E0,1.1469484E-2,-1.2494114E-2,-8.1160665E-4,-2.6908053E-2,5E-1,1.5E0,0E0,-2.8286416E-2,1E0,7.143615E-4,4.3686755E-2,1.8046625E-3,2.1331144E-2,5.9718233E-2],"split_indices":[28,19,21,0,27,16,5,0,0,0,0,5,6,6,0,16,0,0,0,0,0],"split_type":[0,0,0,0,0,0,0,0,0,0,0,0,0,0,0,0,0,0,0,0,0],"sum_hessian":[7.7436005E1,1.6164917E1,6.127109E1,7.269368E0,8.89555E0,9.031638E0,5.2239452E1,3.1528733E0,5.7426763E0,3.1711597E0,5.8604784E0,4.0368633E1,1.1870818E1,3.365816E1,6.710474E0,7.455457E0,4.4153614E0,3.3214364E0,3.0336723E1,3.2837934E0,4.1716638E0],"tree_param":{"num_deleted":"0","num_feature":"30","num_nodes":"21","size_leaf_vector":"1"}},{"base_weights":[8.336122E-3,6.1670136E-1,-1.944928E-1,7.220397E-1,-2.6339323E-3,-1.00234054E-1,-5.43239E-1,8.658417E-1,2.9967756E-3,1.8923712E-1,-1.7634645E-1,-1.2735712E-2,-2.9924123E-2,2.0657565E-2,5.3174794E-2,5.826227E-1,-1.9185266E-2,-2.9361399E-2,-4.4891703E-1,9.448582E-3,4.0626805E-2,-5.937399E-3,2.2431584E-2,-2.4566303E-3,-3.0795485E-2],"categories":[],"categories_nodes":[],"categories_segments":[],"categories_sizes":[],"default_left":[0,0,0,0,0,0,0,0,0,0,0,0,0,0,0,0,0,0,0,0,0,0,0,0,0],"id":23,"left_children":[1,3,5,7,-1,9,11,13,-1,15,17,-1,-1,-1,-1,19,-1,21,23,-1,-1,-1,-1,-1,-1],"loss_changes":[1.1143705E1,1.6300106E0,2.1729903E0,1.811944E0,0E0,1.2356565E0,7.37524E-2,9.9298E-1,0E0,2.8928945E0,1.7386388E0,0E0,0E0,0E0,0E0,5.179217E-1,0E0,1.3127162E0,9.8775697E-1,0E0,0E0,0E0,0E0,0E0,0E0],"parents":[2147483647,0,0,1,1,2,2,3,3,5,5,6,6,7,7,9,9,10,10,15,15,17,17,18,18],"right_children":[2,4,6,8,-1,10,12,14,-1,16,18,-1,-1,-1,-1,20,-1,22,24,-1,-1,-1,-1,-1,-1],"split_conditions":[-1.2E1,2.8E0,1.7E1,-9E0,-2.6339323E-3,-4E-1,0E0,5E0,2.9967756E-3,2.37E0,5.7894737E-1,-1.2735712E-2,-2.9924123E-2,2.0657565E-2,5.3174794E-2,-7E0,-1.9185266E-2,2.15E0,3.63E0,9.448582E-3,4.0626805E-2,-5.937399E-3,2.2431584E-2,-2.4566303E-3,-3.0795485E-2],"split_indices":[2,19,2,16,0,29,7,3,0,17,26,0,0,0,0,2,0,17,18,0,0,0,0,0,0],"split_type":[0,0,0,0,0,0,0,0,0,0,0,0,0,0,0,0,0,0,0,0,0,0,0,0,0],"sum_hessian":[8.8337845E1,2.1577568E1,6.676028E1,1.8575697E1,3.0018709E0,5.3569096E1,1.3191184E1,1.5008334E1,3.567363E0,1.0843342E1,4.2725754E1,3.0214655E0,1.0169719E1,5.500569E0,9.507766E0,6.419073E0,4.4242687E0,2.847707E1,1.4248684E1,3.0385242E0,3.380549E0,2.4623878E1,3.8531919E0,4.579492E0,9.669191E0],"tree_param":{"num_deleted":"0","num_feature":"30","num_nodes":"25","size_leaf_vector":"1"}},{"base_weights":[-1.878239E-2,-1.9477843E-1,5.623675E-1,-3.6914017E-2,-1.214929E-1,4.075602E-2,3.8428965E-1,2.5019947E-1,-1.7024711E-1,-1.8923353E-2,6.042225E-1,3.2627787E-2,-8.345106E-3,-2.846068E-2,-3.1860718E-1,3.8509604E-2,1.4736432E-2,-6.0502966E-3,2.2998422E-2,1.3473681E-2,-2.0303795E-2],"categories":[],"categories_nodes":[],"categories_segments":[],"categories_sizes":[],"default_left":[0,0,0,0,0,0,0,0,0,0,0,0,0,0,0,0,0,0,0,0,0],"id":24,"left_children":[1,3,5,-1,7,-1,9,11,13,-1,15,-1,-1,17,19,-1,-1,-1,-1,-1,-1],"loss_changes":[1.1473153E1,3.336559E0,8.60734E-1,0E0,1.437891E0,0E0,3.1130276E0,1.675256E0,1.4352913E0,0E0,4.7830772E-1,0E0,0E0,1.6923019E0,1.8303404E0,0E0,0E0,0E0,0E0,0E0,0E0],"parents":[2147483647,0,0,1,1,2,2,4,4,6,6,7,7,8,8,10,10,13,13,14,14],"right_children":[2,4,6,-1,8,-1,10,12,14,-1,16,-1,-1,18,20,-1,-1,-1,-1,-1,-1],"split_conditions":[5.22E0,-2.3E1,6.5E0,-3.6914017E-2,-1.6E1,4.075602E-2,4.86E0,2.71E0,3.8E1,-1.8923353E-2,5.9E1,3.2627787E-2,-8.345106E-3,4.6E1,4.5E0,3.8509604E-2,1.4736432E-2,-6.0502966E-3,2.2998422E-2,1.3473681E-2,-2.0303795E-2],"split_indices":[19,2,19,0,16,0,18,17,12,0,11,0,0,14,3,0,0,0,0,0,0],"split_type":[0,0,0,0,0,0,0,0,0,0,0,0,0,0,0,0,0,0,0,0,0],"sum_hessian":[1.10102936E2,8.502018E1,2.508276E1,9.02378E0,7.59964E1,8.8889675E0,1.6193792E1,8.33328E0,6.766312E1,3.4629579E0,1.2730834E1,3.9542851E0,4.3789945E0,3.5207478E1,3.2455643E1,7.3179483E0,5.412886E0,3.023159E1,4.975885E0,3.9328709E0,2.8522772E1],"tree_param":{"num_deleted":"0","num_feature":"30","num_nodes":"21","size_leaf_vector":"1"}},{"base_weights":[2.0600658E-2,1.03401996E-1,-3.2724574E-1,4.5765065E-2,4.5959912E-2,-4.7630715E-1,1.6621432E-3,2.0132135E-1,-1.4991662E-1,-2.7353479E-2,-1.1310668E-2,4.6066603E-1,-6.0907006E-2,-4.4233506E-3,-3.38105E-1,3.4260582E-2,-8.313631E-3,-1.0287314E-2,2.4465313E-2,-8.817949E-3,1.8192295E-2,-2.7469784E-2,1.1767225E-5],"categories":[],"categories_nodes":[],"categories_segments":[],"categories_sizes":[],"default_left":[0,0,0,0,0,0,0,0,0,0,0,0,0,0,0,0,0,0,0,0,0,0,0],"id":25,"left_children":[1,3,5,7,-1,9,-1,11,13,-1,-1,15,17,19,21,-1,-1,-1,-1,-1,-1,-1,-1],"loss_changes":[2.2827077E0,2.9590907E0,8.354348E-1,1.8768791E0,0E0,6.836605E-2,0E0,2.3556871E0,7.4986273E-1,0E0,0E0,2.5527997E0,1.5272988E0,1.108274E0,8.545555E-1,0E0,0E0,0E0,0E0,0E0,0E0,0E0,0E0],"parents":[2147483647,0,0,1,1,2,2,3,3,5,5,7,7,8,8,11,11,12,12,13,13,14,14],"right_children":[2,4,6,8,-1,10,-1,12,14,-1,-1,16,18,20,22,-1,-1,-1,-1,-1,-1,-1,-1],"split_conditions":[3.94E0,8E0,2.114165E-1,4.3E1,4.5959912E-2,1.034E1,1.6621432E-3,3.0769232E-1,1.4E0,-2.7353479E-2,-1.1310668E-2,4E-1,5.6E1,1.2E0,1.09E0,3.4260582E-2,-8.313631E-3,-1.0287314E-2,2.4465313E-2,-8.817949E-3,1.8192295E-2,-2.7469784E-2,1.1767225E-5],"split_indices":[23,5,21,1,0,19,0,21,27,0,0,29,11,27,23,0,0,0,0,0,0,0,0],"split_type":[0,0,0,0,0,0,0,0,0,0,0,0,0,0,0,0,0,0,0,0,0,0,0],"sum_hessian":[7.707993E1,6.282727E1,1.4252665E1,5.9667774E1,3.1594975E0,9.85596E0,4.396704E0,3.322605E1,2.6441723E1,6.7567306E0,3.0992293E0,1.6324415E1,1.6901636E1,1.5489724E1,1.0951998E1,1.1951054E1,4.3733625E0,1.387517E1,3.0264666E0,1.0914932E1,4.5747924E0,6.357806E0,4.594192E0],"tree_param":{"num_deleted":"0","num_feature":"30","num_nodes":"23","size_leaf_vector":"1"}},{"base_weights":[-1.5272922E-2,4.9272454E-1,-2.0633127E-1,4.4677984E-2,3.317716E-1,1.7752387E-2,-2.4377295E-1,-9.065214E-3,5.676904E-1,-1.7541963E-1,-5.117193E-1,2.1975383E-3,5.0072413E-2,-2.1937779E-1,1.3415642E-2,-1.3701001E-2,-2.8607836E-2,-6.903504E-3,-2.5202824E-2],"categories":[],"categories_nodes":[],"categories_segments":[],"categories_sizes":[],"default_left":[0,0,0,0,0,0,0,0,0,0,0,0,0,0,0,0,0,0,0],"id":26,"left_children":[1,3,5,-1,7,-1,9,-1,11,13,15,-1,-1,17,-1,-1,-1,-1,-1],"loss_changes":[8.50198E0,1.2486982E0,1.4233594E0,0E0,2.3639028E0,0E0,1.0130982E0,0E0,2.9177957E0,1.0243709E0,1.1549473E-2,0E0,0E0,9.8559904E-1,0E0,0E0,0E0,0E0,0E0],"parents":[2147483647,0,0,1,1,2,2,4,4,6,6,8,8,9,9,10,10,13,13],"right_children":[2,4,6,-1,8,-1,10,-1,12,14,16,-1,-1,18,-1,-1,-1,-1,-1],"split_conditions":[-1.2E1,-2.7E1,-7E0,4.4677984E-2,2.754821E-1,1.7752387E-2,1E0,-9.065214E-3,-1.9E1,5.9E1,4.6E1,2.1975383E-3,5.0072413E-2,4.6E1,1.3415642E-2,-1.3701001E-2,-2.8607836E-2,-6.903504E-3,-2.5202824E-2],"split_indices":[2,2,5,0,21,0,29,0,2,11,11,0,0,11,0,0,0,0,0],"split_type":[0,0,0,0,0,0,0,0,0,0,0,0,0,0,0,0,0,0,0],"sum_hessian":[8.5550186E1,2.2950115E1,6.260007E1,5.2711716E0,1.7678944E1,3.3837273E0,5.9216347E1,5.6414413E0,1.2037502E1,4.8498917E1,1.0717428E1,5.9520473E0,6.0854554E0,4.4587486E1,3.9114308E0,3.2944336E0,7.422995E0,3.5837E1,8.7504835E0],"tree_param":{"num_deleted":"0","num_feature":"30","num_nodes":"19","size_leaf_vector":"1"}},{"base_weights":[1.4401792E-2,-4.1993168E-1,1.4117724E-1,-3.5612624E-2,-2.453841E-1,2.1283086E-2,3.9932024E-1,1.4713689E-2,-4.2432097E-1,7.211887E-2,-2.798662E-2,3.8856648E-2,2.7140746E-1,-3.0714998E-2,-3.7766115E-3,-1.7280491E-2,6.176937E-1,-2.1464787E-2,4.4900617E-1,2.8909186E-3,-3.541654E-2,3.840649E-2,1.6435979E-2,3.1492993E-2,6.509138E-3],"categories":[],"categories_nodes":[],"categories_segments":[],"categories_sizes":[],"default_left":[0,0,0,0,0,0,0,0,0,0,0,0,0,0,0,0,0,0,0,0,0,0,0,0,0],"id":27,"left_children":[1,3,5,-1,7,9,11,-1,13,15,-1,-1,17,-1,-1,19,21,-1,23,-1,-1,-1,-1,-1,-1],"loss_changes":[6.1858683E0,1.1207514E0,2.6802607E0,0E0,1.8073555E0,1.8237381E0,1.1178784E0,0E0,8.477702E-1,2.7618642E0,0E0,0E0,2.9402413E0,0E0,0E0,2.6066432E0,9.392452E-2,0E0,9.6180224E-1,0E0,0E0,0E0,0E0,0E0,0E0],"parents":[2147483647,0,0,1,1,2,2,4,4,5,5,6,6,8,8,9,9,12,12,15,15,16,16,18,18],"right_children":[2,4,6,-1,8,10,12,-1,14,16,-1,-1,18,-1,-1,20,22,-1,24,-1,-1,-1,-1,-1,-1],"split_conditions":[-1.2E1,-2.2E1,3.63E0,-3.5612624E-2,-1.9E1,8E0,7E0,1.4713689E-2,4.6E1,4E0,-2.798662E-2,3.8856648E-2,1E1,-3.0714998E-2,-3.7766115E-3,2.55E0,3.6E1,-2.1464787E-2,5.52E0,2.8909186E-3,-3.541654E-2,3.840649E-2,1.6435979E-2,3.1492993E-2,6.509138E-3],"split_indices":[2,2,23,0,2,5,15,0,13,5,0,0,15,0,0,23,13,0,18,0,0,0,0,0,0],"split_type":[0,0,0,0,0,0,0,0,0,0,0,0,0,0,0,0,0,0,0,0,0,0,0,0,0],"sum_hessian":[1.1026534E2,2.4390596E1,8.587474E1,7.967159E0,1.6423439E1,5.937879E1,2.6495949E1,3.9290876E0,1.249435E1,5.540686E1,3.971933E0,5.4178615E0,2.1078087E1,7.595811E0,4.89854E0,4.8438004E1,6.968856E0,3.975562E0,1.7102526E1,4.4516567E1,3.9214387E0,3.4925523E0,3.4763033E0,1.0289943E1,6.812583E0],"tree_param":{"num_deleted":"0","num_feature":"30","num_nodes":"25","size_leaf_vector":"1"}},{"base_weights":[-3.843151E-2,1.0270825E-1,-2.4287504E-1,2.8472683E-1,-1.2984428E-1,-2.6936892E-2,-1.5290707E-1,1.3605989E-2,5.142892E-1,-3.0806863E-1,2.8936585E-2,1.2551166E-1,-3.0947962E-1,-1.8430077E-2,2.9300588E-1,4.6416372E-2,2.2950216E-1,-4.4718173E-1,1.1116612E-2,2.4211261E-2,-9.872611E-3,-2.8185178E-2,-6.687388E-2,3.0192941E-2,-3.6687069E-3,-1.0227341E-2,3.495E-2,-3.1350048E-3,-2.854299E-2,-1.8930098E-2,1.9224575E-2],"categories":[],"categories_nodes":[],"categories_segments":[],"categories_sizes":[],"default_left":[0,0,0,0,0,0,0,0,0,0,0,0,0,0,0,0,0,0,0,0,0,0,0,0,0,0,0,0,0,0,0],"id":28,"left_children":[1,3,5,7,9,-1,11,13,15,17,-1,19,21,-1,23,-1,25,27,-1,-1,-1,-1,29,-1,-1,-1,-1,-1,-1,-1,-1],"loss_changes":[2.2104619E0,1.9633759E0,7.489258E-1,1.6013963E0,2.7883933E0,0E0,1.1436827E0,1.4829881E0,1.4337626E0,1.3661083E0,0E0,1.2349061E0,9.806067E-1,0E0,9.549056E-1,0E0,2.0999646E0,6.2670827E-1,0E0,0E0,0E0,0E0,1.493913E0,0E0,0E0,0E0,0E0,0E0,0E0,0E0,0E0],"parents":[2147483647,0,0,1,1,2,2,3,3,4,4,6,6,7,7,8,8,9,9,11,11,12,12,14,14,16,16,17,17,22,22],"right_children":[2,4,6,8,10,-1,12,14,16,18,-1,20,22,-1,24,-1,26,28,-1,-1,-1,-1,30,-1,-1,-1,-1,-1,-1,-1,-1],"split_conditions":[4E1,8E0,-1.4E1,-3E0,3.6E1,-2.6936892E-2,-3E0,3.5E-1,4.2105263E-1,1.4E0,2.8936585E-2,-7E0,3E0,-1.8430077E-2,4.02E0,4.6416372E-2,6.315789E-1,7.5E0,1.1116612E-2,2.4211261E-2,-9.872611E-3,-2.8185178E-2,3.3E1,3.0192941E-2,-3.6687069E-3,-1.0227341E-2,3.495E-2,-3.1350048E-3,-2.854299E-2,-1.8930098E-2,1.9224575E-2],"split_indices":[13,15,16,16,13,0,5,23,26,29,0,16,16,0,18,0,26,3,0,0,0,0,12,0,0,0,0,0,0,0,0],"split_type":[0,0,0,0,0,0,0,0,0,0,0,0,0,0,0,0,0,0,0,0,0,0,0,0,0,0,0,0,0,0,0],"sum_hessian":[7.474106E1,4.4510433E1,3.0230629E1,2.4842154E1,1.966828E1,5.8860474E0,2.434458E1,1.1875756E1,1.2966397E1,1.6167086E1,3.5011926E0,8.834094E0,1.5510487E1,4.8803616E0,6.9953947E0,4.36321E0,8.603188E0,1.2932151E1,3.234935E0,3.9488351E0,4.8852587E0,6.9275966E0,8.5828905E0,3.4338171E0,3.5615778E0,4.7635922E0,3.839595E0,3.5142524E0,9.417898E0,5.172083E0,3.4108071E0],"tree_param":{"num_deleted":"0","num_feature":"30","num_nodes":"31","size_leaf_vector":"1"}},{"base_weights":[1.306146E-2,2.4161251E-1,-3.188344E-1,-1.3272311E-1,4.651866E-1,-3.728286E-1,1.1741891E-2,-2.8042156E-1,2.3786878E-2,6.8461317E-1,1.4089084E-1,1.1024963E-3,-4.2463094E-1,1.9087596E-2,-4.537592E-1,5.4200534E-3,8.829098E-1,6.550708E-1,-2.9463506E-1,-6.9287345E-3,-4.6203175E-1,-3.0912194E-2,-1.0520987E-2,4.8686266E-2,1.9838171E-2,8.90804E-3,4.7381166E-2,-2.7348472E-2,5.937808E-5,-2.4164945E-3,-2.5719782E-2],"categories":[],"categories_nodes":[],"categories_segments":[],"categories_sizes":[],"default_left":[0,0,0,0,0,0,0,0,0,0,0,0,0,0,0,0,0,0,0,0,0,0,0,0,0,0,0,0,0,0,0],"id":29,"left_children":[1,3,5,7,9,11,-1,13,-1,15,17,-1,19,-1,21,-1,23,25,27,-1,29,-1,-1,-1,-1,-1,-1,-1,-1,-1,-1],"loss_changes":[7.1744103E0,4.746627E0,1.2411158E0,2.0844216E0,2.4132018E0,7.36454E-1,0E0,2.2505364E0,0E0,2.2781925E0,3.6622891E0,0E0,2.7268457E-1,0E0,4.6230698E-1,0E0,2.89896E-1,8.6568785E-1,6.7823863E-1,0E0,5.688038E-1,0E0,0E0,0E0,0E0,0E0,0E0,0E0,0E0,0E0,0E0],"parents":[2147483647,0,0,1,1,2,2,3,3,4,4,5,5,7,7,9,9,10,10,12,12,14,14,16,16,17,17,18,18,20,20],"right_children":[2,4,6,8,10,12,-1,14,-1,16,18,-1,20,-1,22,-1,24,26,28,-1,30,-1,-1,-1,-1,-1,-1,-1,-1,-1,-1],"split_conditions":[2E0,4.2E1,3E0,3.74E0,3.62E0,3.2E1,1.1741891E-2,1E0,2.3786878E-2,-2.1E1,-1.4E1,1.1024963E-3,0E0,1.9087596E-2,5.7894737E-1,5.4200534E-3,4.1E1,4.02E0,5.5E1,-6.9287345E-3,1.5789473E-1,-3.0912194E-2,-1.0520987E-2,4.8686266E-2,1.9838171E-2,8.90804E-3,4.7381166E-2,-2.7348472E-2,5.937808E-5,-2.4164945E-3,-2.5719782E-2],"split_indices":[16,1,8,17,18,11,0,28,0,15,15,0,7,0,26,0,11,18,1,0,26,0,0,0,0,0,0,0,0,0,0],"split_type":[0,0,0,0,0,0,0,0,0,0,0,0,0,0,0,0,0,0,0,0,0,0,0,0,0,0,0,0,0,0,0],"sum_hessian":[9.256485E1,5.4977863E1,3.7586987E1,2.070961E1,3.4268253E1,3.4544796E1,3.042189E0,1.7098282E1,3.6113276E0,1.9776146E1,1.4492108E1,4.0728264E0,3.0471972E1,3.2978153E0,1.3800467E1,5.459255E0,1.4316891E1,6.4147687E0,8.07734E0,4.067469E0,2.6404503E1,7.3151474E0,6.4853196E0,1.121829E1,3.0986004E0,3.050662E0,3.3641067E0,3.9009132E0,4.1764264E0,3.1826763E0,2.3221827E1],"tree_param":{"num_deleted":"0","num_feature":"30","num_nodes":"31","size_leaf_vector":"1"}},{"base_weights":[-1.5737668E-2,-1.9568059E-1,3.0060476E-1,1.03629725E-2,-3.3567908E-1,-2.260293E-1,4.2234048E-1,2.9310277E-2,-1.0657514E-1,-6.010056E-1,-1.4556755E-1,-2.548554E-2,5.3901654E-3,2.9929292E-1,3.7029237E-2,1.9941771E-2,-2.7842695E-2,-1.1983065E-2,-3.7355237E-2,1.4341171E-1,-2.8756908E-1,4.1609168E-1,-9.702886E-3,9.386032E-3,-2.0824501E-2,-1.682729E-2,2.946421E-2,-2.4603494E-2,1.18680475E-2,9.587661E-3,3.1670906E-2],"categories":[],"categories_nodes":[],"categories_segments":[],"categories_sizes":[],"default_left":[0,0,0,0,0,0,0,0,0,0,0,0,0,0,0,0,0,0,0,0,0,0,0,0,0,0,0,0,0,0,0],"id":30,"left_children":[1,3,5,7,9,11,13,-1,15,17,19,-1,-1,21,-1,23,-1,-1,-1,25,27,29,-1,-1,-1,-1,-1,-1,-1,-1,-1],"loss_changes":[6.098885E0,1.9719524E0,2.5872307E0,1.9868913E0,1.9636116E0,8.077281E-1,1.0282326E0,0E0,1.4125562E0,7.001505E-1,1.0674863E0,0E0,0E0,1.5038209E0,0E0,1.5551217E0,0E0,0E0,0E0,2.1044679E0,1.9526204E0,8.676219E-1,0E0,0E0,0E0,0E0,0E0,0E0,0E0,0E0,0E0],"parents":[2147483647,0,0,1,1,2,2,3,3,4,4,5,5,6,6,8,8,9,9,10,10,13,13,15,15,19,19,20,20,21,21],"right_children":[2,4,6,8,10,12,14,-1,16,18,20,-1,-1,22,-1,24,-1,-1,-1,26,28,30,-1,-1,-1,-1,-1,-1,-1,-1,-1],"split_conditions":[8E0,3.9473686E-1,3.6E1,5E0,3.59E0,5.6E1,8.97E0,2.9310277E-2,4.2E1,3.07E0,1.3E0,-2.548554E-2,5.3901654E-3,6.84E0,3.7029237E-2,3.9E1,-2.7842695E-2,-1.1983065E-2,-3.7355237E-2,7.5E0,3E0,6E-1,-9.702886E-3,9.386032E-3,-2.0824501E-2,-1.682729E-2,2.946421E-2,-2.4603494E-2,1.18680475E-2,9.587661E-3,3.1670906E-2],"split_indices":[2,26,14,4,18,11,19,0,14,18,23,0,0,19,0,11,0,0,0,3,15,29,0,0,0,0,0,0,0,0,0],"split_type":[0,0,0,0,0,0,0,0,0,0,0,0,0,0,0,0,0,0,0,0,0,0,0,0,0,0,0,0,0,0,0],"sum_hessian":[1.0510827E2,6.7241295E1,3.7866978E1,2.7578484E1,3.9662807E1,6.9489207E0,3.0918058E1,3.9777498E0,2.3600733E1,1.5654077E1,2.4008732E1,3.4718206E0,3.4771E0,2.369641E1,7.221649E0,1.9170126E1,4.430607E0,5.267201E0,1.0386876E1,7.9072347E0,1.6101498E1,1.9286911E1,4.4094977E0,1.4258543E1,4.911583E0,3.926147E0,3.9810874E0,1.1632384E1,4.4691133E0,1.04165745E1,8.8703375E0],"tree_param":{"num_deleted":"0","num_feature":"30","num_nodes":"31","size_leaf_vector":"1"}},{"base_weights":[-2.1222843E-2,6.5191396E-2,-3.4786645E-1,7.2466186E-3,4.264389E-2,1.3409763E-3,-4.8671404E-1,-8.574184E-2,5.7159966E-1,-2.7706785E-2,-1.0587698E-2,-4.5000854E-1,-8.20982E-3,4.7236167E-2,-1.5327948E-3,-1.2007807E-2,-2.6178924E-2,1.1697218E-2,-8.838328E-3],"categories":[],"categories_nodes":[],"categories_segments":[],"categories_sizes":[],"default_left":[0,0,0,0,0,0,0,0,0,0,0,0,0,0,0,0,0,0,0],"id":31,"left_children":[1,3,5,7,-1,-1,9,11,13,-1,-1,15,17,-1,-1,-1,-1,-1,-1],"loss_changes":[2.235031E0,2.8612125E0,8.7431574E-1,3.172882E0,0E0,0E0,1.07549906E-1,1.4642209E0,1.9505501E0,0E0,0E0,1.4794469E-2,1.8321044E0,0E0,0E0,0E0,0E0,0E0,0E0],"parents":[2147483647,0,0,1,1,2,2,3,3,6,6,7,7,8,8,11,11,12,12],"right_children":[2,4,6,8,-1,-1,10,12,14,-1,-1,16,18,-1,-1,-1,-1,-1,-1],"split_conditions":[3.94E0,8E0,4.66E0,2.61E0,4.264389E-2,1.3409763E-3,2.7E1,-1.4E1,4.1E1,-2.7706785E-2,-1.0587698E-2,2.8947368E-1,3.6E1,4.7236167E-2,-1.5327948E-3,-1.2007807E-2,-2.6178924E-2,1.1697218E-2,-8.838328E-3],"split_indices":[23,5,18,23,0,0,2,16,14,0,0,26,11,0,0,0,0,0,0],"split_type":[0,0,0,0,0,0,0,0,0,0,0,0,0,0,0,0,0,0,0],"sum_hessian":[7.737814E1,6.182313E1,1.5555015E1,5.85269E1,3.2962294E0,4.423867E0,1.1131147E1,5.0975704E1,7.551197E0,8.123815E0,3.0073333E0,8.102723E0,4.2872982E1,4.311434E0,3.2397635E0,3.2102017E0,4.892522E0,1.7435966E1,2.5437014E1],"tree_param":{"num_deleted":"0","num_feature":"30","num_nodes":"19","size_leaf_vector":"1"}},{"base_weights":[3.861169E-2,-2.1322331E-1,3.224928E-1,-6.628613E-2,-4.9128777E-1,6.722297E-1,7.713983E-2,2.4675407E-2,-1.9599442E-1,-1.1799711E-2,-5.3221685E-1,7.5145974E-3,7.763482E-1,-1.7171942E-1,4.7371864E-1,-2.832313E-1,1.7126009E-2,-2.9447565E-2,-1.2764144E-2,4.4873644E-2,1.5641479E-2,1.0614455E-2,-3.5854474E-1,1.1676222E-2,3.751824E-2,-1.224843E-3,-1.8285716E-2,-2.3962542E-2,-1.9711633E-3],"categories":[],"categories_nodes":[],"categories_segments":[],"categories_sizes":[],"default_left":[0,0,0,0,0,0,0,0,0,0,0,0,0,0,0,0,0,0,0,0,0,0,0,0,0,0,0,0,0],"id":32,"left_children":[1,3,5,7,9,11,13,-1,15,-1,17,-1,19,21,23,25,-1,-1,-1,-1,-1,-1,27,-1,-1,-1,-1,-1,-1],"loss_changes":[6.422697E0,1.9163139E0,3.567422E0,2.4466543E0,4.5084476E-2,8.213053E-1,2.6392536E0,0E0,1.3650169E0,0E0,5.83241E-2,0E0,5.1365757E-1,1.2712622E0,5.0648093E-1,4.9844384E-1,0E0,0E0,0E0,0E0,0E0,0E0,4.2711067E-1,0E0,0E0,0E0,0E0,0E0,0E0],"parents":[2147483647,0,0,1,1,2,2,3,3,4,4,5,5,6,6,8,8,10,10,12,12,13,13,14,14,15,15,22,22],"right_children":[2,4,6,8,10,12,14,-1,16,-1,18,-1,20,22,24,26,-1,-1,-1,-1,-1,-1,28,-1,-1,-1,-1,-1,-1],"split_conditions":[3.9E1,4E0,3.9E1,1E0,1.25E0,1.8421052E-1,5.5E1,2.4675407E-2,2.78E0,-1.1799711E-2,3E0,7.5145974E-3,2.66E0,6.5E0,6.9E1,-4E-1,1.7126009E-2,-2.9447565E-2,-1.2764144E-2,4.4873644E-2,1.5641479E-2,1.0614455E-2,4.02E0,1.1676222E-2,3.751824E-2,-1.224843E-3,-1.8285716E-2,-2.3962542E-2,-1.9711633E-3],"split_indices":[13,5,0,28,17,26,1,0,17,0,6,0,19,3,1,29,0,0,0,0,0,0,18,0,0,0,0,0,0],"split_type":[0,0,0,0,0,0,0,0,0,0,0,0,0,0,0,0,0,0,0,0,0,0,0,0,0,0,0,0,0],"sum_hessian":[8.787715E1,4.6698837E1,4.117831E1,3.1363733E1,1.5335106E1,1.6260307E1,2.4918001E1,5.3724766E0,2.5991257E1,3.0537007E0,1.2281405E1,3.1105976E0,1.314971E1,1.5658839E1,9.259163E0,2.2775742E1,3.2155142E0,9.258057E0,3.0233483E0,9.683137E0,3.4665735E0,5.0802946E0,1.0578545E1,5.943194E0,3.3159688E0,5.819138E0,1.6956604E1,7.3113E0,3.2672448E0],"tree_param":{"num_deleted":"0","num_feature":"30","num_nodes":"29","size_leaf_vector":"1"}},{"base_weights":[-3.269409E-2,-2.4262923E-1,2.3814705E-1,-4.5355934E-1,-1.0890744E-1,1.4691073E-1,3.6086928E-2,-5.276418E-1,-3.046069E-3,5.4683384E-2,-5.037251E-1,2.5752863E-1,-3.1256843E-1,-2.9882157E-1,-3.5940647E-2,3.5903186E-1,-1.4541279E-1,-3.3704743E-2,-4.3598954E-3,4.8711345E-1,1.1254653E-1,4.7206786E-4,-2.9937891E-2,-2.7867358E-3,-3.2014787E-2,4.12969E-2,-1.3801096E-4,-3.4518782E-2,4.2445837E-3,3.4353517E-2,1.3929422E-2,-1.8011144E-3,2.558711E-2],"categories":[],"categories_nodes":[],"categories_segments":[],"categories_sizes":[],"default_left":[0,0,0,0,0,0,0,0,0,0,0,0,0,0,0,0,0,0,0,0,0,0,0,0,0,0,0,0,0,0,0,0,0],"id":33,"left_children":[1,3,5,7,9,11,-1,13,-1,15,17,19,21,23,-1,25,27,-1,-1,29,31,-1,-1,-1,-1,-1,-1,-1,-1,-1,-1,-1,-1],"loss_changes":[6.1229005E0,1.6595058E0,1.9713125E0,6.4242697E-1,2.507457E0,2.1575441E0,0E0,6.329322E-1,0E0,1.7603803E0,7.4639106E-1,1.0597281E0,7.780086E-1,8.38601E-1,0E0,1.9304453E0,2.2719064E0,0E0,0E0,3.3647037E-1,1.3127843E0,0E0,0E0,0E0,0E0,0E0,0E0,0E0,0E0,0E0,0E0,0E0,0E0],"parents":[2147483647,0,0,1,1,2,2,3,3,4,4,5,5,7,7,9,9,10,10,11,11,12,12,13,13,15,15,16,16,19,19,20,20],"right_children":[2,4,6,8,10,12,-1,14,-1,16,18,20,22,24,-1,26,28,-1,-1,30,32,-1,-1,-1,-1,-1,-1,-1,-1,-1,-1,-1,-1],"split_conditions":[4E0,-1.2E1,2.5E1,2.48E0,0E0,5.4E1,3.6086928E-2,-8E-1,-3.046069E-3,1E-1,4E-1,1.61E0,1.7E1,4.7368422E-1,-3.5940647E-2,3.3E1,1E0,-3.3704743E-2,-4.3598954E-3,3.7E1,1E1,4.7206786E-4,-2.9937891E-2,-2.7867358E-3,-3.2014787E-2,4.12969E-2,-1.3801096E-4,-3.4518782E-2,4.2445837E-3,3.4353517E-2,1.3929422E-2,-1.8011144E-3,2.558711E-2],"split_indices":[16,2,16,19,16,14,0,29,0,23,29,17,16,26,0,11,27,0,0,1,4,0,0,0,0,0,0,0,0,0,0,0,0],"split_type":[0,0,0,0,0,0,0,0,0,0,0,0,0,0,0,0,0,0,0,0,0,0,0,0,0,0,0,0,0,0,0,0,0],"sum_hessian":[1.0566933E2,5.958658E1,4.6082752E1,2.2191048E1,3.739553E1,3.9865376E1,6.2173734E0,1.8379406E1,3.8116415E0,2.7049286E1,1.0346247E1,3.2484398E1,7.380978E0,9.532588E0,8.846818E0,1.0414469E1,1.6634817E1,6.903981E0,3.4422653E0,1.1660199E1,2.08242E1,3.9281633E0,3.452815E0,6.248007E0,3.2845807E0,3.9866457E0,6.4278226E0,4.34818E0,1.2286637E1,4.7808676E0,6.8793316E0,1.5839113E1,4.9850864E0],"tree_param":{"num_deleted":"0","num_feature":"30","num_nodes":"33","size_leaf_vector":"1"}},{"base_weights":[1.9083465E-2,-3.0212435E-1,1.0493336E-1,-4.1864073E-1,-1.4247514E-3,2.3949033E-1,-2.2908035E-1,-2.7556673E-2,-8.614549E-3,3.461714E-1,-1.684839E-1,-3.5937992E-1,3.7252759E-3,-6.749183E-2,4.4817403E-1,-2.5537565E-2,1.42861055E-2,9.187148E-3,-2.8513644E-2,-2.4499139E-2,1.7077489E-2,1.632627E-2,5.3174913E-2],"categories":[],"categories_nodes":[],"categories_segments":[],"categories_sizes":[],"default_left":[0,0,0,0,0,0,0,0,0,0,0,0,0,0,0,0,0,0,0,0,0,0,0],"id":34,"left_children":[1,3,5,7,-1,9,11,-1,-1,13,15,17,-1,19,21,-1,-1,-1,-1,-1,-1,-1,-1],"loss_changes":[2.183269E0,5.209304E-1,2.8553495E0,2.852595E-1,0E0,2.012783E0,7.5480694E-1,0E0,0E0,1.5460982E0,1.69759E0,1.5994525E0,0E0,1.5456295E0,1.8197274E0,0E0,0E0,0E0,0E0,0E0,0E0,0E0,0E0],"parents":[2147483647,0,0,1,1,2,2,3,3,5,5,6,6,9,9,10,10,11,11,13,13,14,14],"right_children":[2,4,6,8,-1,10,12,-1,-1,14,16,18,-1,20,22,-1,-1,-1,-1,-1,-1,-1,-1],"split_conditions":[1E0,1.5E1,4.6E1,3.79E0,-1.4247514E-3,3.94E0,-3E0,-2.7556673E-2,-8.614549E-3,-9E0,4.1E1,3.6842105E-1,3.7252759E-3,4.2105263E-1,2.38E0,-2.5537565E-2,1.42861055E-2,9.187148E-3,-2.8513644E-2,-2.4499139E-2,1.7077489E-2,1.632627E-2,5.3174913E-2],"split_indices":[28,16,13,18,0,23,16,0,0,16,1,26,0,26,17,0,0,0,0,0,0,0,0],"split_type":[0,0,0,0,0,0,0,0,0,0,0,0,0,0,0,0,0,0,0,0,0,0,0],"sum_hessian":[7.702411E1,1.5713342E1,6.1310764E1,1.0648892E1,5.064449E0,4.3906204E1,1.7404562E1,6.1201386E0,4.528754E0,3.4925125E1,8.981076E0,1.2049229E1,5.3553324E0,6.975378E0,2.7949749E1,5.050657E0,3.93042E0,3.4060922E0,8.643137E0,3.3339388E0,3.6414394E0,2.4614212E1,3.3355353E0],"tree_param":{"num_deleted":"0","num_feature":"30","num_nodes":"23","size_leaf_vector":"1"}},{"base_weights":[-5.1830346E-3,4.660657E-1,-1.9924037E-1,5.896835E-1,-5.236774E-3,-2.4434774E-1,1.5122597E-2,5.954452E-2,4.1714884E-2,-1.05326004E-1,-4.395032E-1,-1.6508235E-2,1.9084735E-2,-2.8867707E-2,4.485129E-3,3.598372E-3,-5.75832E-1,1.2228231E-2,-1.5612328E-2,-1.41782975E-2,-3.0753447E-2],"categories":[],"categories_nodes":[],"categories_segments":[],"categories_sizes":[],"default_left":[0,0,0,0,0,0,0,0,0,0,0,0,0,0,0,0,0,0,0,0,0],"id":35,"left_children":[1,3,5,7,-1,9,-1,11,-1,13,15,-1,-1,-1,17,-1,19,-1,-1,-1,-1],"loss_changes":[8.209499E0,1.909605E0,1.512444E0,2.7613583E0,0E0,1.5510921E0,0E0,1.1204518E0,0E0,1.8529913E0,1.7273545E0,0E0,0E0,0E0,2.3540523E0,0E0,4.577923E-2,0E0,0E0,0E0,0E0],"parents":[2147483647,0,0,1,1,2,2,3,3,5,5,7,7,9,9,10,10,14,14,16,16],"right_children":[2,4,6,8,-1,10,-1,12,-1,14,16,-1,-1,-1,18,-1,20,-1,-1,-1,-1],"split_conditions":[-1.1E1,6.5789473E-1,7.631579E-1,3.1578946E-1,-5.236774E-3,5E-1,1.5122597E-2,1.2E1,4.1714884E-2,3.7E1,-6E0,-1.6508235E-2,1.9084735E-2,-2.8867707E-2,5E1,3.598372E-3,3.7E1,1.2228231E-2,-1.5612328E-2,-1.41782975E-2,-3.0753447E-2],"split_indices":[2,26,26,26,0,26,0,4,0,0,2,0,0,0,0,0,0,0,0,0,0],"split_type":[0,0,0,0,0,0,0,0,0,0,0,0,0,0,0,0,0,0,0,0,0],"sum_hessian":[8.7755646E1,2.5187834E1,6.256781E1,2.0676802E1,4.511032E0,5.7877018E1,4.6907926E0,6.9209113E0,1.3755891E1,3.469865E1,2.3178368E1,3.1207824E0,3.8001287E0,5.7451525E0,2.8953499E1,4.9772205E0,1.8201147E1,1.6599268E1,1.2354231E1,3.1280546E0,1.50730915E1],"tree_param":{"num_deleted":"0","num_feature":"30","num_nodes":"21","size_leaf_vector":"1"}},{"base_weights":[-1.5778423E-3,-1.4534284E-1,3.5785866E-1,-4.2640057E-1,-3.0450242E-2,-1.1839425E-2,4.526781E-1,-1.5366527E-1,-3.240056E-2,1.9398217E-1,-1.7655481E-1,6.441347E-1,2.0507598E-1,-3.470314E-1,1.18967965E-2,3.5291588E-1,-1.3463936E-2,-5.209391E-1,-2.9285973E-2,3.7851218E-2,1.8232347E-2,2.6577068E-2,1.0353864E-2,3.9152326E-3,-3.2747395E-2,-5.0105234E-3,2.6946723E-2,-3.7240304E-2,-6.16196E-3,-6.376762E-3,1.5572794E-2,-2.5364175E-2,2.000721E-2],"categories":[],"categories_nodes":[],"categories_segments":[],"categories_sizes":[],"default_left":[0,0,0,0,0,0,0,0,0,0,0,0,0,0,0,0,0,0,0,0,0,0,0,0,0,0,0,0,0,0,0,0,0],"id":36,"left_children":[1,3,5,7,9,-1,11,13,-1,15,17,19,21,23,-1,25,-1,27,29,-1,-1,-1,31,-1,-1,-1,-1,-1,-1,-1,-1,-1,-1],"loss_changes":[5.6184783E0,2.4946697E0,1.8587654E0,1.2577314E0,1.8770853E0,0E0,1.1542993E0,9.4413996E-1,0E0,1.7617065E0,1.7377121E0,1.9205141E-1,8.399877E-1,1.1021259E0,0E0,1.5111263E0,0E0,8.2466626E-1,8.8570464E-1,0E0,0E0,0E0,2.089722E0,0E0,0E0,0E0,0E0,0E0,0E0,0E0,0E0,0E0,0E0],"parents":[2147483647,0,0,1,1,2,2,3,3,4,4,6,6,7,7,9,9,10,10,11,11,12,12,13,13,15,15,17,17,18,18,22,22],"right_children":[2,4,6,8,10,-1,12,14,-1,16,18,20,22,24,-1,26,-1,28,30,-1,-1,-1,32,-1,-1,-1,-1,-1,-1,-1,-1,-1,-1],"split_conditions":[5.464481E-1,-1.2E1,6.5E0,4.2E1,-2E0,-1.1839425E-2,3.5E1,2.21E0,-3.240056E-2,1.55E0,2E0,1.9E1,2.5E0,-2.1E1,1.18967965E-2,1.2E0,-1.3463936E-2,4.6E1,1.4E1,3.7851218E-2,1.8232347E-2,2.6577068E-2,7E0,3.9152326E-3,-3.2747395E-2,-5.0105234E-3,2.6946723E-2,-3.7240304E-2,-6.16196E-3,-6.376762E-3,1.5572794E-2,-2.5364175E-2,2.000721E-2],"split_indices":[20,2,3,12,2,0,13,19,0,23,2,16,5,15,0,28,0,14,16,0,0,0,16,0,0,0,0,0,0,0,0,0,0],"split_type":[0,0,0,0,0,0,0,0,0,0,0,0,0,0,0,0,0,0,0,0,0,0,0,0,0,0,0,0,0,0,0,0,0],"sum_hessian":[1.06721954E2,7.665688E1,3.0065067E1,2.1456734E1,5.520015E1,3.9288113E0,2.6136257E1,1.0377989E1,1.1078746E1,2.1636482E1,3.3563667E1,1.38361E1,1.2300157E1,7.0236444E0,3.354344E0,1.6286995E1,5.349487E0,9.293569E0,2.4270098E1,8.638327E0,5.197773E0,3.9492376E0,8.350919E0,3.2625973E0,3.7610474E0,4.8744683E0,1.1412527E1,5.3879085E0,3.9056602E0,1.9323956E1,4.9461427E0,3.4577017E0,4.8932176E0],"tree_param":{"num_deleted":"0","num_feature":"30","num_nodes":"33","size_leaf_vector":"1"}},{"base_weights":[2.7051918E-2,-3.3454713E-1,9.583931E-2,-2.3105822E-3,-2.6951537E-2,-2.7085823E-1,1.8185256E-1,2.2845278E-3,-4.3638298E-1,6.806997E-1,7.384449E-2,-2.5539786E-2,-1.1787641E-2,4.2948943E-2,1.6286006E-2,1.7683132E-1,-3.470568E-1,3.2239676E-2,-2.3266396E-3,-5.1728956E-4,-2.6226277E-2],"categories":[],"categories_nodes":[],"categories_segments":[],"categories_sizes":[],"default_left":[0,0,0,0,0,0,0,0,0,0,0,0,0,0,0,0,0,0,0,0,0],"id":37,"left_children":[1,3,5,-1,-1,7,9,-1,11,13,15,-1,-1,-1,-1,17,19,-1,-1,-1,-1],"loss_changes":[1.9097215E0,6.995764E-1,2.0742002E0,0E0,0E0,6.80114E-1,2.7838564E0,0E0,4.510522E-3,3.0498648E-1,1.9842929E0,0E0,0E0,0E0,0E0,3.824587E0,5.358442E-1,0E0,0E0,0E0,0E0],"parents":[2147483647,0,0,1,1,2,2,5,5,6,6,8,8,9,9,10,10,15,15,16,16],"right_children":[2,4,6,-1,-1,8,10,-1,12,14,16,-1,-1,-1,-1,18,20,-1,-1,-1,-1],"split_conditions":[-1.4E1,-2E1,5E0,-2.3105822E-3,-2.6951537E-2,3.6842105E-1,3.6E1,2.2845278E-3,6E0,4.1E1,5.3E1,-2.5539786E-2,-1.1787641E-2,4.2948943E-2,1.6286006E-2,3.6E1,4.2E1,3.2239676E-2,-2.3266396E-3,-5.1728956E-4,-2.6226277E-2],"split_indices":[16,16,4,0,0,26,0,0,5,1,1,0,0,0,0,14,0,0,0,0,0],"split_type":[0,0,0,0,0,0,0,0,0,0,0,0,0,0,0,0,0,0,0,0,0],"sum_hessian":[7.448846E1,1.1287779E1,6.320068E1,5.192292E0,6.095486E0,1.1599571E1,5.160111E1,4.2314095E0,7.368162E0,8.240259E0,4.336085E1,4.2470098E0,3.1211524E0,4.540243E0,3.7000165E0,3.5302784E1,8.058068E0,1.0796559E1,2.4506224E1,3.1465054E0,4.9115624E0],"tree_param":{"num_deleted":"0","num_feature":"30","num_nodes":"21","size_leaf_vector":"1"}},{"base_weights":[-2.1835058E-3,5.047271E-1,-1.885515E-1,1.3115585E-1,6.933142E-1,-9.386928E-2,-2.9357582E-2,2.6618242E-2,-8.661667E-3,1.3557556E-2,8.239147E-1,-7.7639436E-3,-3.7209094E-1,4.9428575E-2,1.5209461E-2,6.921319E-2,-3.5751328E-1,6.8700127E-3,-2.9249836E-2,-2.4140372E-3,4.045812E-2,-2.7083537E-2,-3.7237518E-3],"categories":[],"categories_nodes":[],"categories_segments":[],"categories_sizes":[],"default_left":[0,0,0,0,0,0,0,0,0,0,0,0,0,0,0,0,0,0,0,0,0,0,0],"id":38,"left_children":[1,3,5,7,9,11,-1,-1,-1,-1,13,15,17,-1,-1,19,21,-1,-1,-1,-1,-1,-1],"loss_changes":[8.511668E0,1.6154718E0,2.4307935E0,1.2351544E0,6.511655E-1,1.30072E0,0E0,0E0,0E0,0E0,6.94036E-1,1.1710206E0,1.4731153E0,0E0,0E0,3.1457634E0,3.6844242E-1,0E0,0E0,0E0,0E0,0E0,0E0],"parents":[2147483647,0,0,1,1,2,2,3,3,4,4,5,5,10,10,11,11,12,12,15,15,16,16],"right_children":[2,4,6,8,10,12,-1,-1,-1,-1,14,16,18,-1,-1,20,22,-1,-1,-1,-1,-1,-1],"split_conditions":[-1.2E1,5.5E0,1.7E1,1.4E0,-2.1E1,4.1E0,-2.9357582E-2,2.6618242E-2,-8.661667E-3,1.3557556E-2,3.45E0,2.38E0,4.473684E-1,4.9428575E-2,1.5209461E-2,2.1E0,-9E0,6.8700127E-3,-2.9249836E-2,-2.4140372E-3,4.045812E-2,-2.7083537E-2,-3.7237518E-3],"split_indices":[2,3,2,28,15,18,0,0,0,0,18,17,26,0,0,17,15,0,0,0,0,0,0],"split_type":[0,0,0,0,0,0,0,0,0,0,0,0,0,0,0,0,0,0,0,0,0,0,0],"sum_hessian":[8.808997E1,2.3221245E1,6.486873E1,8.358801E0,1.4862445E1,5.3415966E1,1.1452764E1,3.2828214E0,5.075979E0,4.2383313E0,1.0624114E1,4.1576565E1,1.1839402E1,7.382975E0,3.2411392E0,3.4733986E1,6.842577E0,3.5938444E0,8.245557E0,3.0781113E1,3.9528737E0,3.5918102E0,3.2507668E0],"tree_param":{"num_deleted":"0","num_feature":"30","num_nodes":"23","size_leaf_vector":"1"}},{"base_weights":[2.003196E-2,-1.6451879E-1,2.4483852E-1,-3.4876987E-2,-8.4202886E-2,3.7539008E-1,-1.3259825E-1,-2.1839312E-1,1.2940554E-1,2.757487E-1,3.526576E-2,-2.9001075E-1,1.078884E-2,6.408258E-2,-4.7088027E-1,4.7500765E-1,-2.7878788E-1,3.695966E-1,-9.017191E-3,3.0668748E-3,-2.9131612E-2,-1.2359589E-2,2.3450881E-2,2.7444893E-3,-3.0537967E-2,6.1029918E-3,3.475312E-2,-2.6351431E-2,6.8716877E-3,6.625668E-3,2.4855051E-2],"categories":[],"categories_nodes":[],"categories_segments":[],"categories_sizes":[],"default_left":[0,0,0,0,0,0,0,0,0,0,0,0,0,0,0,0,0,0,0,0,0,0,0,0,0,0,0,0,0,0,0],"id":39,"left_children":[1,3,5,-1,7,9,11,13,15,17,-1,19,-1,21,23,25,27,29,-1,-1,-1,-1,-1,-1,-1,-1,-1,-1,-1,-1,-1],"loss_changes":[4.1264744E0,2.2823787E0,2.2575107E0,0E0,1.4231243E0,9.0846586E-1,7.345463E-1,2.1882992E0,2.8696787E0,1.2399089E0,0E0,9.4733065E-1,0E0,2.0269995E0,1.2173996E0,7.5995326E-1,1.0567048E0,6.31233E-1,0E0,0E0,0E0,0E0,0E0,0E0,0E0,0E0,0E0,0E0,0E0,0E0,0E0],"parents":[2147483647,0,0,1,1,2,2,4,4,5,5,6,6,7,7,8,8,9,9,11,11,13,13,14,14,15,15,16,16,17,17],"right_children":[2,4,6,-1,8,10,12,14,16,18,-1,20,-1,22,24,26,28,30,-1,-1,-1,-1,-1,-1,-1,-1,-1,-1,-1,-1,-1],"split_conditions":[4E0,-7.5E0,3.7E1,-3.4876987E-2,3.62E0,8.5E0,4.45E0,2.8947368E-1,2.61E0,6.5E0,3.526576E-2,9E0,1.078884E-2,4.4E1,-4E0,-3.5E0,3.76E0,3.36E0,-9.017191E-3,3.0668748E-3,-2.9131612E-2,-1.2359589E-2,2.3450881E-2,2.7444893E-3,-3.0537967E-2,6.1029918E-3,3.475312E-2,-2.6351431E-2,6.8716877E-3,6.625668E-3,2.4855051E-2],"split_indices":[16,5,12,0,18,5,18,26,23,5,0,16,0,12,5,5,23,18,0,0,0,0,0,0,0,0,0,0,0,0,0],"split_type":[0,0,0,0,0,0,0,0,0,0,0,0,0,0,0,0,0,0,0,0,0,0,0,0,0,0,0,0,0,0,0],"sum_hessian":[9.7490456E1,5.3686058E1,4.3804394E1,6.0238037E0,4.7662254E1,3.255082E1,1.1253575E1,2.9259096E1,1.8403158E1,2.6410362E1,6.140456E0,7.8666015E0,3.3869736E0,1.4161638E1,1.5097458E1,9.876994E0,8.526164E0,2.206069E1,4.3496723E0,3.9337573E0,3.9328442E0,8.227045E0,5.9345937E0,3.3002486E0,1.1797209E1,4.3901973E0,5.4867973E0,5.174059E0,3.3521059E0,8.428297E0,1.3632392E1],"tree_param":{"num_deleted":"0","num_feature":"30","num_nodes":"31","size_leaf_vector":"1"}},{"base_weights":[7.269787E-3,-3.5428706E-1,8.030669E-2,-4.6395096E-1,-1.00948E-3,1.608955E-1,-2.6186192E-1,-1.0618017E-2,-2.7243061E-2,8.812584E-2,4.17714E-2,-2.619411E-2,1.589487E-2,1.1093166E-2,4.515188E-2,1.1784521E-2,-1.0639867E-2,2.9650912E-2,-4.4215024E-3],"categories":[],"categories_nodes":[],"categories_segments":[],"categories_sizes":[],"default_left":[0,0,0,0,0,0,0,0,0,0,0,0,0,0,0,0,0,0,0],"id":40,"left_children":[1,3,5,7,-1,9,11,-1,-1,13,-1,-1,15,17,-1,-1,-1,-1,-1],"loss_changes":[2.0421045E0,4.669311E-1,1.8139497E0,8.260107E-2,0E0,2.509519E0,9.2745525E-1,0E0,0E0,3.04202E0,0E0,0E0,4.0709314E-1,2.6836543E0,0E0,0E0,0E0,0E0,0E0],"parents":[2147483647,0,0,1,1,2,2,3,3,5,5,6,6,9,9,12,12,13,13],"right_children":[2,4,6,8,-1,10,12,-1,-1,14,-1,-1,16,18,-1,-1,-1,-1,-1],"split_conditions":[5E0,6.315789E-1,3.94E0,1.67E0,-1.00948E-3,3.4E0,6.9E0,-1.0618017E-2,-2.7243061E-2,1.4E1,4.17714E-2,-2.619411E-2,7E0,0E0,4.515188E-2,1.1784521E-2,-1.0639867E-2,2.9650912E-2,-4.4215024E-3],"split_indices":[4,26,23,17,0,23,19,0,0,15,0,0,5,6,0,0,0,0,0],"split_type":[0,0,0,0,0,0,0,0,0,0,0,0,0,0,0,0,0,0,0],"sum_hessian":[7.525454E1,1.1999962E1,6.3254574E1,8.741868E0,3.258094E0,5.162536E1,1.1629217E1,3.009247E0,5.7326207E0,4.7618813E1,4.0065475E0,5.5281496E0,6.101067E0,4.443229E1,3.186521E0,3.095443E0,3.005624E0,5.765E0,3.866729E1],"tree_param":{"num_deleted":"0","num_feature":"30","num_nodes":"19","size_leaf_vector":"1"}},{"base_weights":[-3.437196E-2,4.7333914E-1,-2.172852E-1,1.0043838E-1,6.1124414E-1,-5.057213E-2,-3.6682627E-1,1.51711E-2,-6.4199227E-3,7.566539E-1,6.6477857E-3,1.5402153E-1,-3.345541E-1,-4.8833576E-1,-1.4193413E-1,1.788518E-2,4.438142E-2,-1.3997862E-1,5.472987E-1,-3.9330847E-3,-2.3521857E-2,-5.5654335E-1,-1.19749E-2,-2.6247788E-2,1.6518895E-1,-2.3428557E-2,1.7481862E-2,4.8307832E-2,-3.7691016E-3,-1.2508096E-2,-3.0576814E-2,-1.1891536E-2,2.280598E-2],"categories":[],"categories_nodes":[],"categories_segments":[],"categories_sizes":[],"default_left":[0,0,0,0,0,0,0,0,0,0,0,0,0,0,0,0,0,0,0,0,0,0,0,0,0,0,0,0,0,0,0,0,0],"id":41,"left_children":[1,3,5,7,9,11,13,-1,-1,15,-1,17,19,21,23,-1,-1,25,27,-1,-1,29,-1,-1,31,-1,-1,-1,-1,-1,-1,-1,-1],"loss_changes":[8.138891E0,1.1333613E0,1.5844705E0,3.8589323E-1,1.065299E0,1.8854314E0,8.5256624E-1,0E0,0E0,3.4309053E-1,0E0,2.2770672E0,4.3355227E-1,2.314887E-1,1.6446017E0,0E0,0E0,2.0439963E0,2.2492654E0,0E0,0E0,1.1850309E-1,0E0,0E0,1.0594496E0,0E0,0E0,0E0,0E0,0E0,0E0,0E0,0E0],"parents":[2147483647,0,0,1,1,2,2,3,3,4,4,5,5,6,6,9,9,11,11,12,12,13,13,14,14,17,17,18,18,21,21,24,24],"right_children":[2,4,6,8,10,12,14,-1,-1,16,-1,18,20,22,24,-1,-1,26,28,-1,-1,30,-1,-1,32,-1,-1,-1,-1,-1,-1,-1,-1],"split_conditions":[-1.2E1,3.6842105E-1,4E0,3.2E1,2.66E0,3.63E0,5.9E0,1.51711E-2,-6.4199227E-3,4.7368422E-1,6.6477857E-3,4.1E1,6.5E0,1.5E0,3.2E1,1.788518E-2,4.438142E-2,6.3E-1,1E0,-3.9330847E-3,-2.3521857E-2,3.2E1,-1.19749E-2,-2.6247788E-2,6E0,-2.3428557E-2,1.7481862E-2,4.8307832E-2,-3.7691016E-3,-1.2508096E-2,-3.0576814E-2,-1.1891536E-2,2.280598E-2],"split_indices":[2,26,15,14,19,18,19,0,0,26,0,0,3,6,12,0,0,23,16,0,0,12,0,0,4,0,0,0,0,0,0,0,0],"split_type":[0,0,0,0,0,0,0,0,0,0,0,0,0,0,0,0,0,0,0,0,0,0,0,0,0,0,0,0,0,0,0,0,0],"sum_hessian":[8.553272E1,2.2232986E1,6.3299736E1,6.4689636E0,1.5764024E1,3.05641E1,3.2735638E1,3.2554083E0,3.213555E0,1.1642466E1,4.1215577E0,1.8031218E1,1.2532882E1,2.0492235E1,1.22434025E1,3.799679E0,7.8427863E0,1.0686465E1,7.344753E0,4.8945146E0,7.638367E0,1.5113094E1,5.37914E0,5.1328344E0,7.110568E0,6.4205008E0,4.265965E0,4.0612607E0,3.2834918E0,3.1442957E0,1.1968799E1,3.0575416E0,4.053026E0],"tree_param":{"num_deleted":"0","num_feature":"30","num_nodes":"33","size_leaf_vector":"1"}},{"base_weights":[-1.6664645E-2,-1.15667656E-1,3.4658876E-1,-2.9464623E-2,-5.0085414E-2,6.1159357E-2,4.9884507E-1,1.4158258E-1,-1.4996746E-1,3.453652E-2,-3.1414982E-2,3.5302993E-2,2.333321E-1,3.1080285E-2,-4.2049643E-2,-3.3106324E-1,9.204688E-2,2.2171099E-2,-2.7016492E-3,1.0510984E-2,-1.1038848E-2,1.0575065E-2,-2.0539744E-2,2.2869933E-2,-9.997769E-3],"categories":[],"categories_nodes":[],"categories_segments":[],"categories_sizes":[],"default_left":[0,0,0,0,0,0,0,0,0,0,0,0,0,0,0,0,0,0,0,0,0,0,0,0,0],"id":42,"left_children":[1,3,5,-1,7,9,11,13,15,-1,-1,-1,17,-1,19,21,23,-1,-1,-1,-1,-1,-1,-1,-1],"loss_changes":[3.9323485E0,2.6355205E0,9.877219E-1,0E0,1.4849291E0,4.4665422E0,6.6821504E-1,2.3803487E0,2.2546823E0,0E0,0E0,0E0,5.147829E-1,0E0,9.5962423E-1,1.3520236E0,2.4922142E0,0E0,0E0,0E0,0E0,0E0,0E0,0E0,0E0],"parents":[2147483647,0,0,1,1,2,2,4,4,5,5,6,6,7,7,8,8,12,12,14,14,15,15,16,16],"right_children":[2,4,6,-1,8,10,12,14,16,-1,-1,-1,18,-1,20,22,24,-1,-1,-1,-1,-1,-1,-1,-1],"split_conditions":[5.22E0,-2.2E1,1.1E1,-2.9464623E-2,2.8947368E-1,7E0,6E0,3.3E1,3.72E0,3.453652E-2,-3.1414982E-2,3.5302993E-2,8E-1,3.1080285E-2,3.5E1,-1.7E1,3.97E0,2.2171099E-2,-2.7016492E-3,1.0510984E-2,-1.1038848E-2,1.0575065E-2,-2.0539744E-2,2.2869933E-2,-9.997769E-3],"split_indices":[19,2,15,0,26,15,4,11,18,0,0,0,29,0,12,15,18,0,0,0,0,0,0,0,0],"split_type":[0,0,0,0,0,0,0,0,0,0,0,0,0,0,0,0,0,0,0,0,0,0,0,0,0],"sum_hessian":[1.07229004E2,8.479901E1,2.2429993E1,9.342606E0,7.5456406E1,8.290249E0,1.4139744E1,2.570756E1,4.9748848E1,4.332362E0,3.957887E0,7.009825E0,7.129919E0,6.453294E0,1.9254267E1,2.8245333E1,2.1503517E1,3.805034E0,3.3248854E0,7.9113636E0,1.1342902E1,3.4071822E0,2.483815E1,9.300436E0,1.220308E1],"tree_param":{"num_deleted":"0","num_feature":"30","num_nodes":"25","size_leaf_vector":"1"}},{"base_weights":[-1.8748658E-2,3.8597386E-2,-3.6447614E-1,9.341802E-2,-1.9920012E-2,-2.6477298E-2,3.809619E-4,4.113872E-2,3.1455383E-2,-9.3377456E-2,2.7875462E-1,2.744546E-2,-1.0154119E-2,-1.2239511E-2,2.4815178E-2],"categories":[],"categories_nodes":[],"categories_segments":[],"categories_sizes":[],"default_left":[0,0,0,0,0,0,0,0,0,0,0,0,0,0,0],"id":43,"left_children":[1,3,5,7,-1,-1,-1,9,-1,11,13,-1,-1,-1,-1],"loss_changes":[1.4602749E0,1.5577573E0,6.4734924E-1,1.5762048E0,0E0,0E0,0E0,1.726139E0,0E0,2.557352E0,2.3399234E0,0E0,0E0,0E0,0E0],"parents":[2147483647,0,0,1,1,2,2,3,3,7,7,9,9,10,10],"right_children":[2,4,6,8,-1,-1,-1,10,-1,12,14,-1,-1,-1,-1],"split_conditions":[4.92E0,1.35E1,6.05E0,6.1E1,-1.9920012E-2,-2.6477298E-2,3.809619E-4,5.263158E-1,3.1455383E-2,0E0,3.44E0,2.744546E-2,-1.0154119E-2,-1.2239511E-2,2.4815178E-2],"split_indices":[18,4,18,0,0,0,0,26,0,6,18,0,0,0,0],"split_type":[0,0,0,0,0,0,0,0,0,0,0,0,0,0,0],"sum_hessian":[7.194461E1,6.2470882E1,9.473727E0,5.6206142E1,6.2647405E0,6.269355E0,3.2043724E0,5.218962E1,4.016521E0,3.3712013E1,1.8477606E1,4.3340507E0,2.9377964E1,5.3873644E0,1.3090241E1],"tree_param":{"num_deleted":"0","num_feature":"30","num_nodes":"15","size_leaf_vector":"1"}},{"base_weights":[1.1057629E-3,-1.13367155E-1,6.588678E-1,2.2887126E-2,-4.2613143E-1,1.6265452E-2,3.928544E-2,-2.2424339E-1,2.2878836E-1,4.2903662E-4,-4.9869797E-1,-2.8399918E-2,-9.130297E-2,5.7514936E-2,5.265855E-1,-2.9510885E-2,-3.5072963E-3,1.6920878E-2,-1.2505238E-2,2.259342E-2,-7.480655E-3,7.2276467E-3,3.9575223E-2],"categories":[],"categories_nodes":[],"categories_segments":[],"categories_sizes":[],"default_left":[0,0,0,0,0,0,0,0,0,0,0,0,0,0,0,0,0,0,0,0,0,0,0],"id":44,"left_children":[1,3,5,7,9,-1,-1,11,13,-1,15,-1,17,19,21,-1,-1,-1,-1,-1,-1,-1,-1],"loss_changes":[6.248527E0,3.022366E0,2.6485634E-1,2.6052096E0,6.825938E-1,0E0,0E0,1.0136701E0,1.3914179E0,0E0,6.8197536E-1,0E0,1.3133355E0,1.6047608E0,9.03239E-1,0E0,0E0,0E0,0E0,0E0,0E0,0E0,0E0],"parents":[2147483647,0,0,1,1,2,2,3,3,4,4,7,7,8,8,10,10,12,12,13,13,14,14],"right_children":[2,4,6,8,10,-1,-1,12,14,-1,16,-1,18,20,22,-1,-1,-1,-1,-1,-1,-1,-1],"split_conditions":[5.5E1,5E1,0E0,4.5045045E-1,0E0,1.6265452E-2,3.928544E-2,3.6E1,3.6E1,4.2903662E-4,1E1,-2.8399918E-2,-6E0,-1.8E1,-2E-1,-2.9510885E-2,-3.5072963E-3,1.6920878E-2,-1.2505238E-2,2.259342E-2,-7.480655E-3,7.2276467E-3,3.9575223E-2],"split_indices":[1,0,8,22,7,0,0,14,11,0,4,0,2,16,29,0,0,0,0,0,0,0,0],"split_type":[0,0,0,0,0,0,0,0,0,0,0,0,0,0,0,0,0,0,0,0,0,0,0],"sum_hessian":[8.099424E1,6.969295E1,1.1301291E1,4.919026E1,2.0502684E1,4.095609E0,7.2056828E0,2.2316303E1,2.687396E1,3.0590584E0,1.7443626E1,5.3108983E0,1.7005404E1,1.7818857E1,9.055103E0,1.40631275E1,3.3804984E0,4.2833943E0,1.272201E1,5.729261E0,1.2089596E1,4.3408813E0,4.7142224E0],"tree_param":{"num_deleted":"0","num_feature":"30","num_nodes":"23","size_leaf_vector":"1"}},{"base_weights":[1.1156945E-2,-2.0454895E-1,2.8626186E-1,-2.4190018E-1,1.3072236E-2,-1.7987855E-1,4.0709075E-1,-1.6016126E-1,-3.2337286E-2,3.601427E-3,-2.5235845E-2,2.36889E-1,6.3548696E-1,-2.9139823E-1,2.4956644E-2,3.2413247E-1,-6.974702E-3,1.1335342E-2,3.6903262E-2,-7.3297857E-3,-2.922224E-2,8.414435E-3,2.9432524E-2],"categories":[],"categories_nodes":[],"categories_segments":[],"categories_sizes":[],"default_left":[0,0,0,0,0,0,0,0,0,0,0,0,0,0,0,0,0,0,0,0,0,0,0],"id":45,"left_children":[1,3,5,7,-1,9,11,13,-1,-1,-1,15,17,19,-1,21,-1,-1,-1,-1,-1,-1,-1],"loss_changes":[6.0266294E0,1.0545626E0,2.5861838E0,1.6584663E0,0E0,8.4466106E-1,1.2387476E0,4.093694E0,0E0,0E0,0E0,7.7001E-1,4.4765663E-1,1.5560019E0,0E0,6.520246E-1,0E0,0E0,0E0,0E0,0E0,0E0,0E0],"parents":[2147483647,0,0,1,1,2,2,3,3,5,5,6,6,7,7,11,11,12,12,13,13,15,15],"right_children":[2,4,6,8,-1,10,12,14,-1,-1,-1,16,18,20,-1,22,-1,-1,-1,-1,-1,-1,-1],"split_conditions":[3E0,3.83E0,3.6E1,3.97E0,1.3072236E-2,5.5E1,4.5E0,3.72E0,-3.2337286E-2,3.601427E-3,-2.5235845E-2,5.7E0,9E0,2.1E0,2.4956644E-2,1.61E0,-6.974702E-3,1.1335342E-2,3.6903262E-2,-7.3297857E-3,-2.922224E-2,8.414435E-3,2.9432524E-2],"split_indices":[15,23,14,18,0,0,5,18,0,0,0,19,15,17,0,23,0,0,0,0,0,0,0],"split_type":[0,0,0,0,0,0,0,0,0,0,0,0,0,0,0,0,0,0,0,0,0,0,0],"sum_hessian":[9.9571266E1,5.595455E1,4.361671E1,5.2247597E1,3.7069566E0,8.877993E0,3.473872E1,4.463195E1,7.615648E0,5.4386597E0,3.439333E0,2.1072554E1,1.3666163E1,3.7687927E1,6.9440227E0,1.7219902E1,3.852653E0,3.3853686E0,1.0280795E1,2.6228123E1,1.1459803E1,1.1865448E1,5.3544536E0],"tree_param":{"num_deleted":"0","num_feature":"30","num_nodes":"23","size_leaf_vector":"1"}},{"base_weights":[2.5722248E-2,7.666904E-2,-4.1905716E-1,-2.3536806E-1,1.4804004E-1,-2.5049096E-2,-1.0558057E-2,-2.6609752E-2,7.2281626E-3,2.7393776E-1,-1.1180115E-1,2.0441798E-2,-2.4418531E-2,1.9213022E-1,3.4559123E-2,1.4362653E-2,-3.0357718E-1,-1.7692244E-2,1.4237332E-2,-2.2472778E-2,-1.6810788E-3],"categories":[],"categories_nodes":[],"categories_segments":[],"categories_sizes":[],"default_left":[0,0,0,0,0,0,0,0,0,0,0,0,0,0,0,0,0,0,0,0,0],"id":46,"left_children":[1,3,5,7,9,-1,-1,-1,11,13,15,-1,-1,17,-1,-1,19,-1,-1,-1,-1],"loss_changes":[1.8352151E0,1.643629E0,3.612697E-2,9.999684E-1,1.973981E0,0E0,0E0,0E0,1.911097E0,1.243015E0,1.6253566E0,0E0,0E0,1.8748331E0,0E0,0E0,5.3863084E-1,0E0,0E0,0E0,0E0],"parents":[2147483647,0,0,1,1,2,2,3,3,4,4,8,8,9,9,10,10,13,13,16,16],"right_children":[2,4,6,8,10,-1,-1,-1,12,14,16,-1,-1,18,-1,-1,20,-1,-1,-1,-1],"split_conditions":[5.59E0,1E0,2.4E1,3.7E1,5E1,-2.5049096E-2,-1.0558057E-2,-2.6609752E-2,4E1,2.38E0,3.2E1,2.0441798E-2,-2.4418531E-2,-6E0,3.4559123E-2,1.4362653E-2,3.67E0,-1.7692244E-2,1.4237332E-2,-2.2472778E-2,-1.6810788E-3],"split_indices":[23,28,2,0,1,0,0,0,11,17,11,0,0,2,0,0,18,0,0,0,0],"split_type":[0,0,0,0,0,0,0,0,0,0,0,0,0,0,0,0,0,0,0,0,0],"sum_hessian":[7.857104E1,7.12387E1,7.332338E0,1.2833273E1,5.840543E1,4.2484117E0,3.0839264E0,5.234674E0,7.598599E0,3.930648E1,1.9098948E1,4.294016E0,3.3045835E0,3.4084198E1,5.2222834E0,6.0376787E0,1.3061269E1,4.5342407E0,2.9549957E1,8.047593E0,5.0136757E0],"tree_param":{"num_deleted":"0","num_feature":"30","num_nodes":"21","size_leaf_vector":"1"}},{"base_weights":[-5.154146E-2,3.7990877E-1,-2.4606545E-1,5.3505236E-1,9.059619E-2,6.035187E-2,-3.1078956E-1,5.6683965E-4,7.2725844E-1,2.5390208E-2,-2.0935176E-2,-2.0113649E-2,2.321021E-2,-1.5669374E-1,-4.9401736E-1,1.4876771E-2,4.4020068E-2,-3.112363E-1,3.13165E-1,-4.118892E-3,-5.609182E-1,-2.819953E-2,-8.33065E-3,-5.109818E-3,3.37552E-2,-3.0619446E-2,-1.1205336E-2],"categories":[],"categories_nodes":[],"categories_segments":[],"categories_sizes":[],"default_left":[0,0,0,0,0,0,0,0,0,0,0,0,0,0,0,0,0,0,0,0,0,0,0,0,0,0,0],"id":47,"left_children":[1,3,5,7,9,11,13,-1,15,-1,-1,-1,-1,17,19,-1,-1,21,23,-1,25,-1,-1,-1,-1,-1,-1],"loss_changes":[7.2869525E0,1.1646786E0,1.2024171E0,1.7422223E0,2.4730947E0,2.2877684E0,1.318428E0,0E0,5.7416344E-1,0E0,0E0,0E0,0E0,2.1537123E0,5.629358E-1,0E0,0E0,7.032976E-1,1.1975996E0,0E0,1.8962431E-1,0E0,0E0,0E0,0E0,0E0,0E0],"parents":[2147483647,0,0,1,1,2,2,3,3,4,4,5,5,6,6,8,8,13,13,14,14,17,17,18,18,20,20],"right_children":[2,4,6,8,10,12,14,-1,16,-1,-1,-1,-1,18,20,-1,-1,22,24,-1,26,-1,-1,-1,-1,-1,-1],"split_conditions":[-1.1E1,3.62E0,1E0,-2.2E1,-1.9E1,4.2105263E-1,5E-1,5.6683965E-4,-1.8E1,2.5390208E-2,-2.0935176E-2,-2.0113649E-2,2.321021E-2,4.1E1,-8E0,1.4876771E-2,4.4020068E-2,1E0,2E-1,-4.118892E-3,7.39E0,-2.819953E-2,-8.33065E-3,-5.109818E-3,3.37552E-2,-3.0619446E-2,-1.1205336E-2],"split_indices":[2,18,27,15,2,26,26,0,16,0,0,0,0,13,2,0,0,28,29,0,19,0,0,0,0,0,0],"split_type":[0,0,0,0,0,0,0,0,0,0,0,0,0,0,0,0,0,0,0,0,0,0,0,0,0,0,0],"sum_hessian":[8.47106E1,2.6028008E1,5.86826E1,1.638967E1,9.638337E0,1.0245558E1,4.8437042E1,4.6845036E0,1.1705166E1,5.299792E0,4.3385453E0,4.7771277E0,5.4684305E0,2.7317783E1,2.1119257E1,3.8486397E0,7.8565264E0,2.0810532E1,6.507253E0,3.2644587E0,1.7854797E1,6.5185366E0,1.4291994E1,3.364171E0,3.1430821E0,1.4778233E1,3.0765653E0],"tree_param":{"num_deleted":"0","num_feature":"30","num_nodes":"27","size_leaf_vector":"1"}},{"base_weights":[-7.5706444E-3,-3.1663033E-1,1.7050484E-1,2.1710653E-2,-4.1444206E-1,3.8409954E-1,4.9644853E-3,-5.714274E-1,-1.5783887E-1,5.1280344E-1,-3.1374157E-3,-1.17605336E-1,3.348348E-1,-3.2345802E-3,-3.4020703E-2,8.637312E-3,-4.0438658E-1,6.431077E-1,-5.021183E-3,-3.1687826E-2,-7.3402044E-3,-2.3734E-3,3.6348592E-2,-2.8264278E-3,-3.3342045E-2,1.6803294E-2,3.768457E-2,-1.4227922E-2,5.5015977E-3],"categories":[],"categories_nodes":[],"categories_segments":[],"categories_sizes":[],"default_left":[0,0,0,0,0,0,0,0,0,0,0,0,0,0,0,0,0,0,0,0,0,0,0,0,0,0,0,0,0],"id":48,"left_children":[1,3,5,-1,7,9,11,13,15,17,-1,19,21,-1,-1,-1,23,25,-1,-1,27,-1,-1,-1,-1,-1,-1,-1,-1],"loss_changes":[5.8025365E0,3.0098472E0,2.3642197E0,0E0,1.3037276E0,1.7117944E0,1.6046278E0,1.1205807E0,1.2529789E0,1.8851118E0,0E0,1.6438687E0,1.6457369E0,0E0,0E0,0E0,7.487484E-1,3.8930607E-1,0E0,0E0,8.407985E-1,0E0,0E0,0E0,0E0,0E0,0E0,0E0,0E0],"parents":[2147483647,0,0,1,1,2,2,4,4,5,5,6,6,7,7,8,8,9,9,11,11,12,12,16,16,17,17,20,20],"right_children":[2,4,6,-1,8,10,12,14,16,18,-1,20,22,-1,-1,-1,24,26,-1,-1,28,-1,-1,-1,-1,-1,-1,-1,-1],"split_conditions":[-2E-1,1.5789473E-1,3.9E1,2.1710653E-2,2.06E0,4.2E1,4.1E1,3.6E1,3.3E1,3E0,-3.1374157E-3,-5E0,5E-1,-3.2345802E-3,-3.4020703E-2,8.637312E-3,5.8E-1,4E-1,-5.021183E-3,-3.1687826E-2,4E-1,-2.3734E-3,3.6348592E-2,-2.8264278E-3,-3.3342045E-2,1.6803294E-2,3.768457E-2,-1.4227922E-2,5.5015977E-3],"split_indices":[29,26,1,0,19,12,13,13,14,8,0,15,26,0,0,0,23,29,0,0,29,0,0,0,0,0,0,0,0],"split_type":[0,0,0,0,0,0,0,0,0,0,0,0,0,0,0,0,0,0,0,0,0,0,0,0,0,0,0,0,0],"sum_hessian":[1.03450806E2,3.7532696E1,6.5918106E1,3.9294372E0,3.360326E1,2.8205114E1,3.7712994E1,2.0087307E1,1.3515952E1,2.1783339E1,6.4217744E0,2.7965384E1,9.747609E0,3.8376484E0,1.6249659E1,5.9018106E0,7.6141415E0,1.792561E1,3.857729E0,4.086923E0,2.387846E1,5.38075E0,4.3668585E0,3.7969854E0,3.8171558E0,5.816047E0,1.2109563E1,6.679027E0,1.7199432E1],"tree_param":{"num_deleted":"0","num_feature":"30","num_nodes":"29","size_leaf_vector":"1"}},{"base_weights":[2.9939223E-2,9.927858E-2,-2.313501E-1,-7.788017E-2,2.7450627E-1,-1.6898828E-2,-2.6179835E-2,-1.6872412E-1,2.290618E-2,4.3975975E-2,9.144111E-2,-2.3375532E-2,2.243702E-1,4.8029758E-2,-4.991091E-1,2.610824E-1,-3.2427856E-1,3.333583E-2,-1.2335525E-2,-1.5645584E-2,1.632149E-2,-2.8129755E-2,-1.2788999E-2,-1.104335E-2,2.313701E-2,-2.5772214E-2,-2.028974E-3],"categories":[],"categories_nodes":[],"categories_segments":[],"categories_sizes":[],"default_left":[0,0,0,0,0,0,0,0,0,0,0,0,0,0,0,0,0,0,0,0,0,0,0,0,0,0,0],"id":49,"left_children":[1,3,5,7,9,11,-1,13,-1,-1,15,-1,17,19,21,23,25,-1,-1,-1,-1,-1,-1,-1,-1,-1,-1],"loss_changes":[1.4511869E0,1.9770262E0,1.0460922E0,1.6405885E0,3.4518895E0,1.2727306E0,0E0,2.0422444E0,0E0,0E0,1.8900671E0,0E0,1.7631196E0,1.9039081E0,2.9933453E-2,1.9230403E0,4.0563565E-1,0E0,0E0,0E0,0E0,0E0,0E0,0E0,0E0,0E0,0E0],"parents":[2147483647,0,0,1,1,2,2,3,3,4,4,5,5,7,7,10,10,12,12,13,13,14,14,15,15,16,16],"right_children":[2,4,6,8,10,12,-1,14,-1,-1,16,-1,18,20,22,24,26,-1,-1,-1,-1,-1,-1,-1,-1,-1,-1],"split_conditions":[3.94E0,-2E0,7.5E0,2.45E0,-2E0,4.2E1,-2.6179835E-2,-2E0,2.290618E-2,4.3975975E-2,3.8E1,-2.3375532E-2,1.7E1,-1E1,2.5E0,1E0,1.2E1,3.333583E-2,-1.2335525E-2,-1.5645584E-2,1.632149E-2,-2.8129755E-2,-1.2788999E-2,-1.104335E-2,2.313701E-2,-2.5772214E-2,-2.028974E-3],"split_indices":[23,2,4,23,15,0,0,5,0,0,13,0,15,16,5,28,3,0,0,0,0,0,0,0,0,0,0],"split_type":[0,0,0,0,0,0,0,0,0,0,0,0,0,0,0,0,0,0,0,0,0,0,0,0,0,0,0],"sum_hessian":[7.783032E1,6.1997776E1,1.5832545E1,3.1105268E1,3.0892508E1,9.741808E0,6.090738E0,2.718335E1,3.9219189E0,6.292378E0,2.460013E1,3.0701165E0,6.671691E0,1.6930483E1,1.0252866E1,1.7735031E1,6.865098E0,3.2266057E0,3.4450855E0,7.3183665E0,9.612116E0,7.090769E0,3.162097E0,5.203571E0,1.2531461E1,3.6134012E0,3.251697E0],"tree_param":{"num_deleted":"0","num_feature":"30","num_nodes":"27","size_leaf_vector":"1"}},{"base_weights":[1.47882E-2,4.2313054E-1,-1.5416671E-1,6.8756527E-1,2.0367627E-1,-2.0072575E-1,1.8525457E-2,2.2296485E-2,4.2264607E-2,-1.7559474E-2,3.818183E-1,1.8537812E-2,-2.4377231E-1,3.2473486E-2,4.37646E-4,-1.4205909E-1,-5.3029084E-1,-1.0943931E-2,1.4468938E-2,-1.3882888E-2,-2.8932774E-2],"categories":[],"categories_nodes":[],"categories_segments":[],"categories_sizes":[],"default_left":[0,0,0,0,0,0,0,0,0,0,0,0,0,0,0,0,0,0,0,0,0],"id":50,"left_children":[1,3,5,7,9,11,-1,-1,-1,-1,13,-1,15,-1,-1,17,19,-1,-1,-1,-1],"loss_changes":[5.87532E0,1.3057365E0,1.547424E0,3.764677E-2,1.620296E0,1.4688497E0,0E0,0E0,0E0,0E0,1.1786263E0,0E0,1.4608614E0,0E0,0E0,1.3979493E0,3.6022663E-3,0E0,0E0,0E0,0E0],"parents":[2147483647,0,0,1,1,2,2,3,3,4,4,5,5,10,10,12,12,15,15,16,16],"right_children":[2,4,6,8,10,12,-1,-1,-1,-1,14,-1,16,-1,-1,18,20,-1,-1,-1,-1],"split_conditions":[-1.2E1,-2.2E1,7.631579E-1,5.4E1,3.1578946E-1,-6.5E0,1.8525457E-2,2.2296485E-2,4.2264607E-2,-1.7559474E-2,3.59E0,1.8537812E-2,5.7894737E-1,3.2473486E-2,4.37646E-4,2.15E0,3.7E1,-1.0943931E-2,1.4468938E-2,-1.3882888E-2,-2.8932774E-2],"split_indices":[2,2,26,12,26,5,0,0,0,0,18,0,26,0,0,17,0,0,0,0,0],"split_type":[0,0,0,0,0,0,0,0,0,0,0,0,0,0,0,0,0,0,0,0,0],"sum_hessian":[8.32146E1,2.3913746E1,5.930085E1,9.878015E0,1.4035731E1,5.5034584E1,4.2662663E0,5.412838E0,4.4651766E0,3.175009E0,1.0860723E1,3.3217978E0,5.1712788E1,5.8923926E0,4.96833E0,3.9268425E1,1.2444362E1,3.375149E1,5.5169344E0,3.0827124E0,9.361649E0],"tree_param":{"num_deleted":"0","num_feature":"30","num_nodes":"21","size_leaf_vector":"1"}},{"base_weights":[-1.1143746E-2,-9.751518E-2,2.9838985E-1,-2.6620213E-2,-4.4188935E-2,3.7144793E-3,4.7853994E-1,2.1055079E-1,-1.0025089E-1,-1.2903181E-2,1.3195938E-2,3.5852995E-2,1.8558894E-1,4.344547E-1,-1.3107233E-2,2.5500783E-1,-1.5184993E-1,-2.7588315E-3,1.8607493E-2,2.6818153E-3,3.980462E-2,2.9566307E-2,-5.2244305E-3,-5.0361715E-3,-3.1790685E-2],"categories":[],"categories_nodes":[],"categories_segments":[],"categories_sizes":[],"default_left":[0,0,0,0,0,0,0,0,0,0,0,0,0,0,0,0,0,0,0,0,0,0,0,0,0],"id":51,"left_children":[1,3,5,-1,7,9,11,13,15,-1,-1,-1,17,19,-1,21,23,-1,-1,-1,-1,-1,-1,-1,-1],"loss_changes":[2.8562932E0,1.9113588E0,1.2360141E0,0E0,1.0980539E0,7.393402E-1,8.774855E-1,1.5876794E0,1.1841381E0,0E0,0E0,0E0,3.7268075E-1,1.3104411E0,0E0,1.0650334E0,1.301479E0,0E0,0E0,0E0,0E0,0E0,0E0,0E0,0E0],"parents":[2147483647,0,0,1,1,2,2,4,4,5,5,6,6,7,7,8,8,12,12,13,13,15,15,16,16],"right_children":[2,4,6,-1,8,10,12,14,16,-1,-1,-1,18,20,-1,22,24,-1,-1,-1,-1,-1,-1,-1,-1],"split_conditions":[4.9E1,-2.2E1,3.61E0,-2.6620213E-2,-1.1E1,5.9E1,5.6E0,3.74E0,-5E0,-1.2903181E-2,1.3195938E-2,3.5852995E-2,1.6E1,3.2E1,-1.3107233E-2,2.41E0,2.49E0,-2.7588315E-3,1.8607493E-2,2.6818153E-3,3.980462E-2,2.9566307E-2,-5.2244305E-3,-5.0361715E-3,-3.1790685E-2],"split_indices":[11,2,18,0,16,11,18,17,5,0,0,0,16,14,0,17,17,0,0,0,0,0,0,0,0],"split_type":[0,0,0,0,0,0,0,0,0,0,0,0,0,0,0,0,0,0,0,0,0,0,0,0,0],"sum_hessian":[1.04749405E2,8.2432594E1,2.2316813E1,8.022573E0,7.441002E1,8.854286E0,1.3462526E1,1.2924907E1,6.1485115E1,4.417896E0,4.43639E0,6.622661E0,6.839865E0,8.825424E0,4.099482E0,7.297794E0,5.418732E1,3.293584E0,3.546281E0,4.858038E0,3.9673862E0,3.4372673E0,3.8605263E0,5.010255E1,4.08477E0],"tree_param":{"num_deleted":"0","num_feature":"30","num_nodes":"25","size_leaf_vector":"1"}},{"base_weights":[6.463126E-3,-3.198873E-1,8.3797894E-2,-4.7824302E-1,2.0254746E-3,-3.6530894E-1,1.6486716E-1,-1.1838344E-2,-2.726991E-2,-4.3676244E-3,-2.627795E-2,-2.2660827E-2,4.487732E-1,2.5876662E-1,-2.2384514E-1,7.489468E-1,2.0487316E-1,3.064986E-2,-4.3153698E-3,-1.5463731E-2,7.497698E-3,1.7524136E-2,5.1650118E-2,3.112492E-2,-9.277266E-3],"categories":[],"categories_nodes":[],"categories_segments":[],"categories_sizes":[],"default_left":[0,0,0,0,0,0,0,0,0,0,0,0,0,0,0,0,0,0,0,0,0,0,0,0,0],"id":52,"left_children":[1,3,5,7,-1,9,11,-1,-1,-1,-1,13,15,17,19,21,23,-1,-1,-1,-1,-1,-1,-1,-1],"loss_changes":[1.96615E0,8.7134254E-1,2.3508213E0,4.0317535E-2,0E0,3.9644456E-1,2.8842006E0,0E0,0E0,0E0,0E0,1.9524441E0,1.4221802E0,1.8146365E0,6.865927E-1,6.873069E-1,2.2759178E0,0E0,0E0,0E0,0E0,0E0,0E0,0E0,0E0],"parents":[2147483647,0,0,1,1,2,2,3,3,5,5,6,6,11,11,12,12,13,13,14,14,15,15,16,16],"right_children":[2,4,6,8,-1,10,12,-1,-1,-1,-1,14,16,18,20,22,24,-1,-1,-1,-1,-1,-1,-1,-1],"split_conditions":[1E0,1.5E1,-1.4E1,2E0,2.0254746E-3,-2.2E1,4.1E1,-1.1838344E-2,-2.726991E-2,-4.3676244E-3,-2.627795E-2,1.4E0,3.6E1,1.5E0,6.5789473E-1,4.7368422E-1,4.7368422E-1,3.064986E-2,-4.3153698E-3,-1.5463731E-2,7.497698E-3,1.7524136E-2,5.1650118E-2,3.112492E-2,-9.277266E-3],"split_indices":[28,16,16,5,0,16,12,0,0,0,0,28,13,8,26,26,26,0,0,0,0,0,0,0,0],"split_type":[0,0,0,0,0,0,0,0,0,0,0,0,0,0,0,0,0,0,0,0,0,0,0,0,0],"sum_hessian":[7.584151E1,1.3928261E1,6.1913246E1,9.449312E0,4.4789486E0,8.931036E0,5.298221E1,3.0408194E0,6.408493E0,3.831074E0,5.099962E0,3.2460987E1,2.0521221E1,1.34125595E1,1.9048428E1,8.271087E0,1.2250134E1,6.235341E0,7.1772184E0,1.564539E1,3.403039E0,4.372016E0,3.899071E0,5.6316247E0,6.6185102E0],"tree_param":{"num_deleted":"0","num_feature":"30","num_nodes":"25","size_leaf_vector":"1"}},{"base_weights":[3.422541E-2,3.2361776E-1,-1.7565517E-1,3.8911495E-2,2.0532905E-1,5.2562624E-2,-3.1189427E-1,-1.678518E-2,3.3869514E-1,-1.0866054E-1,2.2306986E-2,-3.8399108E-2,-4.5953983E-1,-1.2112495E-1,5.088394E-1,9.1583975E-2,-2.6217178E-2,2.1045092E-2,-2.6762897E-2,-5.4587305E-1,1.0612789E-3,6.357409E-3,-1.6470974E-2,1.026586E-2,3.641459E-2,-1.0990846E-2,3.3078123E-2,-1.2148917E-2,-2.9835865E-2],"categories":[],"categories_nodes":[],"categories_segments":[],"categories_sizes":[],"default_left":[0,0,0,0,0,0,0,0,0,0,0,0,0,0,0,0,0,0,0,0,0,0,0,0,0,0,0,0,0],"id":53,"left_children":[1,3,5,-1,7,9,11,-1,13,15,-1,17,19,21,23,25,-1,-1,-1,27,-1,-1,-1,-1,-1,-1,-1,-1,-1],"loss_changes":[5.2458334E0,1.7903912E0,1.5762031E0,0E0,2.2881691E0,1.2927419E0,1.2566864E0,0E0,1.9920325E0,1.2728578E0,0E0,2.9991608E0,8.5844374E-1,4.282841E-1,1.0629001E0,2.059173E0,0E0,0E0,0E0,1.219697E-1,0E0,0E0,0E0,0E0,0E0,0E0,0E0,0E0,0E0],"parents":[2147483647,0,0,1,1,2,2,4,4,5,5,6,6,8,8,9,9,11,11,12,12,13,13,14,14,15,15,19,19],"right_children":[2,4,6,-1,8,10,12,-1,14,16,-1,18,20,22,24,26,-1,-1,-1,28,